tree
version=v4
num_class=1
num_tree_per_iteration=1
label_index=0
max_feature_idx=10
objective=binary sigmoid:1
feature_names=dow month is_month_end gap_sigma lag_5_day_log_ret_z lag_20_day_log_ret_z lag_20d_volatility_z rel_vol_z prev_close_loc interaction_z hurst_z
feature_infos=-1:2:1:3:4:0 -1:9:7:2:6:5:4:3:8:1:10:11:0 -1:0:1 [-147.09692430465213:64.910289575448402] [-21.746382996379268:19.954912603476199] [-19.567073679490317:18.656472804111541] [-2.6956302529544485:20.393155432049927] [-3.0021469100847114:19.500824639086076] [-2.5111110925102995:1.9285714010204316] [-22.270878732095337:22.11180818497888] [-7.4486600454815317:3.6473252033010093]
tree_sizes=2701 2794 3149 3039 2837 2814 2983 2842 2757 2935 2930 3045 3038 3290 2659 2951 3494 3088 3506 2738 2593 2958 3217 2923 3047

Tree=0
num_leaves=24
num_cat=8
split_feature=6 3 5 3 0 6 1 3 1 3 5 1 6 5 1 1 1 4 1 5 8 7 8
split_gain=605.297 441.714 136.688 81.0372 86.1301 72.8742 63.7499 62.9144 61.0484 59.2162 46.818 43.1441 37.226 35.7018 34.3477 31.0081 24.5034 21.5719 18.5815 15.7075 11.3324 8.39701 5.53078
threshold=4.5161484880466043 -0.2334419182750844 0.62126856211955983 0.24128949738340383 0 7.3025924090727505 1 -0.82505889185664982 2 0.28083887292808035 0.69714663167720992 3 2.600256520631667 -0.046729642951975618 4 5 6 0.71399320027481139 7 -0.88024836870148004 0.29787233725666945 -0.13936221718486963 0.60344827239397281
decision_type=2 2 2 2 1 2 1 2 1 2 2 1 2 2 1 1 1 2 1 2 2 2 2
left_child=1 7 3 11 -5 6 -2 10 12 -10 15 -3 -4 18 -12 -1 -15 20 -9 -8 -7 -21 -22
right_child=5 2 8 4 -6 17 19 13 9 -11 14 -13 -14 16 -16 -17 -18 -19 -20 21 22 -23 -24
leaf_value=-0.029580733347836785 -0.11392218107938468 -0.043431186841892525 -0.059356481943878617 -0.058019293162012722 -0.049010742308660288 -0.12174037535319283 -0.047779938967803873 -0.047772341747124754 -0.04829632244598852 -0.059894844434647897 -0.0087551403664228589 -0.047831008325785539 -0.08427758151033557 -0.043559046307361501 -0.034228571371001368 -0.039645161398757844 -0.036932116571684923 -0.13487644211278138 -0.042060494946607345 -0.083976842582000277 -0.085883133633539471 -0.059479193480552361 -0.10548517217613734
leaf_weight=2225.515976250852 188.20749217851699 17275.485180165211 6184.1032291046531 6817.6996616288807 26182.065774171482 145.26352524062531 175.41182363894768 5139.0917481318138 7464.0379270313815 3210.8232687202335 564.85864012573393 33199.033017866575 321.60464674115065 4291.5034729757681 578.70055465286941 5426.500126693134 8680.2834217611053 175.20339225957287 6681.9449997354277 187.24953341871151 123.96992875805881 115.30650486082595 180.0187039970624
leaf_count=13708 1218 126788 42224 49458 184190 857 833 36057 54694 21250 2974 249241 2072 31549 3377 31779 64300 1151 47282 1247 728 684 1039
internal_value=-0.0474191 -0.0469511 -0.0493176 -0.0481236 -0.0508756 -0.0960936 -0.0796636 -0.0398595 -0.0551185 -0.0517809 -0.0346702 -0.0463244 -0.0605683 -0.0417005 -0.0211921 -0.0366845 -0.0391134 -0.113621 -0.0445394 -0.0644276 -0.105332 -0.0746406 -0.0974912
internal_weight=135534 134243 100655 83474.3 32999.8 1290.63 666.175 33588.4 17180.6 10674.9 8795.58 50474.5 6505.71 24792.8 1143.56 7652.02 12971.8 624.456 11821 477.968 449.252 302.556 303.989
internal_count=968700 960943 729917 609677 233648 7757 3982 231026 120240 75944 51838 376029 44296 179188 6351 45487 95849 3775 83339 2764 2624 1931 1767
cat_boundaries=0 1 2 3 4 5 6 7 8
cat_threshold=16 104 364 804 3173 2090 808 155
is_linear=0
shrinkage=1


Tree=1
num_leaves=24
num_cat=2
split_feature=6 3 5 3 0 6 3 5 6 6 3 10 8 5 4 5 10 0 9 10 8 8 10
split_gain=523.865 381.861 115.025 76.3176 74.0548 62.9798 50.8008 42.7173 40.23 38.1552 36.7899 35.3231 33.44 25.5176 18.8187 18.2201 18.0738 16.0238 12.5521 10.8814 9.86288 7.61378 6.98214
threshold=4.5161484880466043 -0.25106525682987552 0.81871618382137579 0.24128949738340383 0 7.3025924090727505 -0.74169652351682525 0.69714663167720992 2.1188061190719747 -0.065127185164675236 0.16003087060169777 0.73912281943643643 0.11742493124165117 -0.046729642951975618 0.71399320027481139 -0.88024836870148004 0.28954520737510719 1 -0.10233765210750491 0.49712136558704922 0.29787233725666945 0.40606060359963675 -0.15616140243035018
decision_type=2 2 2 2 1 2 2 2 2 2 2 2 2 2 2 2 2 1 2 2 2 2 2
left_child=1 6 3 9 -5 15 7 11 10 -3 -4 -1 -9 18 20 -2 -10 -15 -8 21 -7 -17 -22
right_child=5 2 8 4 -6 14 13 12 16 -11 -12 -13 -14 17 -16 19 -18 -19 -20 -21 22 -23 -24
leaf_value=0.012198784530943538 -0.013639529256616274 0.0024999190092757509 -0.0034642902274597234 -0.0098169514413780825 -0.0017296988649881655 -0.069212971240604937 0.0055196627145070835 -0.011179022797329683 -0.031787780394803115 -0.0012862345895012939 -0.011839372029296916 0.0018623790315693328 0.027012100498136661 0.013001021745807648 -0.081521190838520038 -0.032611003558863427 -0.011817097000474355 0.0062692462777570778 0.00051407387550322513 -0.023385698826259394 -0.05807839214129179 -0.056536027021100561 -0.036371046348519842
leaf_weight=6742.7890285129724 227.68912366597215 31136.515514678053 6198.7610756174145 7280.0378929473482 27857.981490084549 144.80808791174786 4590.9547676615293 129.49782428401886 499.89438773877555 24069.477081216464 4706.0370732998326 2248.5171272122934 1205.0731482985684 2278.0744155368375 174.50716300227214 113.50950926990845 429.89687278381643 9108.1970833042615 5761.5700685647389 155.59450161079076 142.42284779003239 168.61548465805026 161.00832135421297
leaf_count=41437 1149 249810 44220 52789 195849 857 31282 667 3419 161644 30796 13332 6944 16670 1151 721 2656 67556 41872 1002 854 1110 913
internal_value=2.47413e-05 0.000459676 -0.00167404 -0.000806798 -0.00340853 -0.0453013 0.00725906 0.0113836 -0.00829446 0.000849179 -0.00707861 0.00961389 0.0233063 0.00529992 -0.0616244 -0.0300248 -0.0225542 0.00763301 0.00273386 -0.038548 -0.0538782 -0.0469101 -0.0465599
internal_weight=135531 134243 102179 90344 35138 1288.16 32064.7 10325.9 11834.6 55206 10904.8 8991.31 1334.57 21738.8 622.746 665.409 929.791 11386.3 10352.5 437.719 448.239 282.125 303.431
internal_count=968700 960943 741183 660092 248638 7757 219760 62380 81091 411454 75016 54769 7611 157380 3775 3982 6075 84226 73154 2833 2624 1831 1767
cat_boundaries=0 1 2
cat_threshold=16 16
is_linear=0
shrinkage=0.0714161


Tree=2
num_leaves=28
num_cat=8
split_feature=3 5 5 5 3 3 1 5 1 1 4 10 1 8 0 8 9 1 5 1 4 9 1 9 5 4 7
split_gain=374.897 259.327 130.99 110.052 64.1829 50.3653 40.6824 38.3954 51.0185 32.3397 59.4969 26.2547 25.0857 22.8175 22.3851 21.0625 19.8799 19.5383 19.5249 19.1348 17.9062 15.9535 15.1797 10.4738 9.47299 6.31338 2.61282
threshold=-0.2223346423384325 4.3181656603200009 -3.3843958400795815 0.81871618382137579 0.24128949738340383 -0.82505889185664982 0 0.5441833862079144 1 2 -0.42280185349125393 0.51602058563240705 3 0.10927152281698131 4 0.23044372777778041 4.0203412804365133 5 0.023318695065145504 6 -0.2055482355715034 -1.1924495167450415 7 -0.12871400330075489 -0.14839254136450117 -0.59628552463397988 -0.453322703964747
decision_type=2 2 2 2 2 2 1 2 1 1 2 2 1 2 1 2 2 1 2 1 2 2 1 2 2 2 2
left_child=5 2 12 4 -4 7 -5 9 14 18 -11 15 25 -10 -9 17 22 -7 -1 23 -14 -17 -3 -13 -21 -2 -24
right_child=1 16 3 6 -6 11 -8 8 13 10 -12 19 20 -15 -16 21 -18 -19 -20 24 -22 -23 26 -25 -26 -27 -28
leaf_value=-0.00031074007740858372 -0.026737775213881404 -0.018375023178571294 0.00075190951790051071 -0.015696445836573619 -0.00318734021246034 0.0068276792693965855 -0.0058078974101301029 0.052136509706434186 -0.015495055969530977 0.026959495146253513 0.0075087114167717061 0.014237906744888368 -0.035486736889276629 0.016149885580406646 0.01627670226270081 -0.0095139796977092364 -0.067008261641073555 -0.0033714162793656898 0.011021381467080581 -0.0040195117099384465 -0.069606365213642413 0.0080907165700255992 -0.06078793993810476 0.0039440166284948914 0.0017758576094313561 -0.0074154315694821699 -0.045642325465308324
leaf_weight=2171.5816738211688 200.52560363915109 159.3003164488 52854.965997771615 2804.7542333791298 35107.024295862087 1907.3974526307857 8842.7319762330644 315.0752656341574 131.18592582068777 1150.1938056043541 2650.0358110853181 697.56208887181856 206.87647869389912 1018.1695513855957 165.85710739517162 267.81642824784103 206.28956964966346 1906.8252891430338 1206.179776765759 2479.2424243421392 126.36928668316978 13320.916485547667 118.7891266720253 1817.9603810033204 3426.9164773833545 151.33272125083022 113.69686431748778
leaf_count=12592 969 1011 394267 18448 248530 13145 61365 1489 679 6342 16256 4786 1147 6148 911 1524 1338 13481 7456 17013 797 98897 763 12996 24797 829 724
internal_value=2.29278e-05 -0.00217775 -0.00189815 -0.00168411 -0.000820307 0.00643394 -0.00820756 0.0110972 0.0209909 0.0088501 0.0133606 0.0048434 -0.0330188 0.0124298 0.0403531 0.00642746 -0.0490646 0.00173796 0.00372487 0.00157003 -0.0470144 0.00774375 -0.0396166 0.00677162 -0.000655768 -0.0179181 -0.0511796
internal_weight=135526 100893 100295 99609.5 87962 34632.9 11647.5 8808.28 1630.29 7177.99 3800.23 25824.6 685.104 1149.36 480.932 17403 598.076 3814.22 3377.76 8421.68 333.246 13588.7 391.786 2515.52 5906.16 351.858 232.486
internal_count=968700 730188 726352 722610 642797 238512 79813 51873 9227 42646 22598 186639 3742 6827 2400 127047 3836 26626 20048 59592 1944 100421 2498 17782 41810 1798 1487
cat_boundaries=0 1 2 3 4 5 6 7 8
cat_threshold=44 100 341 3860 21 3158 3329 3605
is_linear=0
shrinkage=0.0714161


Tree=3
num_leaves=27
num_cat=7
split_feature=2 6 6 3 1 6 3 5 0 1 3 6 6 5 5 6 6 1 6 1 6 1 3 5 4 10
split_gain=1972.64 622.907 616.087 232.124 212.679 115.606 82.4736 80.2046 77.9955 92.2033 60.4512 51.805 49.2688 47.4944 42.4307 40.7948 38.5663 34.6984 33.8139 33.1296 21.5685 11.5798 6.22506 5.93624 14.2764 2.22475
threshold=0 0.45187199028994457 4.5161484880466043 -0.12501148309085511 1 0.67378681483530256 0.21868283002731073 -1.3573329417210893 2 3 -0.57367929968615872 7.3025924090727505 0.20848297145450115 0.1615845187298548 0.59818227971438309 2.1188061190719747 1.6082094392889279 4 -0.11721882462617837 5 -0.50981388106754766 6 -0.028881499819784776 0.064544588621954321 0.21594829129508131 -0.21258093796265529
decision_type=1 2 2 2 1 2 2 2 1 1 2 2 2 2 2 2 2 1 2 1 2 1 2 2 2 2
left_child=2 4 3 10 8 6 -5 -3 9 -2 14 17 13 -6 -1 -7 19 -4 -12 -9 -10 -14 -19 25 -25 -13
right_child=1 7 11 5 12 15 -8 16 20 -11 18 23 21 -15 -16 -17 -18 22 -20 -21 -22 -23 -24 24 -26 -27
leaf_value=0.00872348171183388 0.0068508742203842428 0.040151896243693579 -0.061918539267452777 0.0032470788452362283 -0.056011523847597167 -0.005626257420027223 -0.0013981581214417211 0.011470952573079512 -0.073086541687861051 -0.038543554363608588 0.0070713900196115315 -0.079912146786987576 -0.018904165035554449 -0.073963265923380761 0.019310091963634476 -0.018740702838301326 0.025818924498084716 -0.0095667918931030774 0.0021543963298986907 -0.022599443044344518 -0.040915037066954728 -0.048109527394353126 -0.028595084989351878 -0.038903777353189777 -0.071992518603349487 -0.067213528431693967
leaf_weight=11831.015507910237 495.61865086473063 297.28899822686799 174.90055464608668 40337.975043829574 1809.8711856075679 6016.5652783280866 37723.934926333066 213.46278322662693 139.77268682580325 412.27114411524963 15065.05269617233 126.3697122921003 177.70130674852408 1285.5750676013877 2307.4922283825144 1514.2234139739694 182.53848215148901 123.51500361447688 13548.393019224688 425.94762608173914 443.60769260610323 195.40778014040552 302.29875109990826 114.58291445849318 158.49779908376877 158.77546573043219
leaf_count=75740 2804 872 1187 308558 10221 37656 271459 804 860 2312 119936 866 825 7281 14087 9618 594 720 91890 1896 2480 857 1916 745 1034 1008
internal_value=-9.31904e-07 -0.0397604 0.00186543 0.00233351 -0.0506201 0.000187028 0.00100224 0.00836357 -0.0274285 -0.013958 0.00663093 -0.049971 -0.0603381 -0.0634671 0.0104513 -0.00826319 -0.00313389 -0.0354156 0.00474321 -0.0113993 -0.0478036 -0.0359959 -0.0225461 -0.0656342 -0.0581087 -0.0728413
internal_weight=135583 6079.06 129504 128345 4959.83 85592.7 78061.9 1119.24 1491.27 907.89 42752 1158.94 3468.56 3095.45 14138.5 7530.79 821.949 600.714 28613.4 639.41 583.38 373.109 425.814 558.226 273.081 285.145
internal_count=968226 31806 936420 928944 27640 627291 580017 4166 8456 5116 301653 7476 19184 17502 89827 47274 3294 3823 211826 2700 3340 1682 2636 3653 1779 1874
cat_boundaries=0 1 2 3 4 5 6 7
cat_threshold=1 1185 22 33 104 1348 2376
is_linear=0
shrinkage=0.0714161


Tree=4
num_leaves=25
num_cat=7
split_feature=2 3 9 1 9 9 9 3 8 3 3 0 9 10 0 1 9 4 1 4 4 3 10 1
split_gain=1704.83 245.787 177.488 142.726 129.884 85.7009 76.7622 56.2938 52.9904 52.7517 48.9285 58.9172 37.1804 32.6949 24.2475 23.1118 23.3986 22.9963 22.8698 21.1369 20.7404 20.7332 19.0985 17.8627
threshold=0 -0.12501148309085511 1.1332386802864873 1 1.1332386802864873 -3.81216612541153 4.0203412804365133 1.2638156745873903 0.081246266125278757 -0.57367929968615872 -0.046373471006098475 2 -1.1924495167450415 0.69300453014782737 3 4 0.53634157818669193 -0.93469667686389024 5 0.55283200559069245 1.5610080307412237 0.13360482416110003 1.0814057492210389 6
decision_type=1 2 2 1 2 2 2 2 2 2 2 1 2 2 1 1 2 2 1 2 2 2 2 1
left_child=3 9 5 8 12 21 19 -7 -1 13 11 -10 -5 23 -14 22 -17 -12 -15 -4 -8 -3 -11 -2
right_child=1 2 6 4 -6 7 20 -9 10 15 17 -13 14 18 -16 16 -18 -19 -20 -21 -22 -23 -24 -25
leaf_value=0.012951220458635757 0.015663316573722792 -0.035474698868104448 -0.037700139818151158 -0.015422805044691176 0.0093063165150756057 0.00075378050664997784 -0.06842305425185094 -0.0089867558050317296 0.014368427735805739 0.0073856374842114388 -0.010242851725510477 -0.025162507041032449 -0.065400608089986129 -0.0077465473102424796 -0.047077202938437868 0.0032549545715445231 -0.0066856161958621417 -0.0386815172541169 0.0066342805221664821 -0.010472743620018413 -0.034143628277962738 -0.003296900144132333 -5.1786601109547258e-05 0.0094516508553581183
leaf_weight=189.34724515704147 3876.5025262618033 423.05444727953 153.67119651280564 157.05255564578692 203.81291805463843 79585.639167189409 116.21454506466398 3145.7424045918888 267.80959990043993 12780.77562630775 165.70036162320321 639.86119595380114 640.26970090816758 681.41506790015956 2643.7986187022616 12520.997169912825 1336.6228385325339 1162.0503754831216 3097.5947504584128 2708.1254755587574 399.39631803127122 134.62863490509335 2042.3409277589453 6496.6116858805835
leaf_count=981 26497 2429 1097 607 733 592557 805 17144 1443 95448 785 3560 3324 4460 14144 93339 8735 6229 18891 17247 2473 648 14626 40024
internal_value=-2.03106e-06 0.0017318 -0.000455482 -0.0369939 -0.0459617 0.000195326 -0.0165048 0.000383411 -0.0232282 0.00615747 -0.0263966 -0.0136178 -0.0493687 0.00972535 -0.0509921 0.00439694 0.00229449 -0.0351324 0.00403825 -0.0119348 -0.0418699 -0.0277068 0.00635661 0.0117972
internal_weight=135569 129499 86666.5 6069.7 3644.93 83289.1 3377.41 82731.4 2424.77 42832.9 2235.42 907.671 3441.12 14152.1 3284.07 28680.7 13857.6 1327.75 3779.01 2861.8 515.611 557.683 14823.1 10373.1
internal_count=968226 936420 634400 31806 18808 612778 21622 609701 12998 302020 12017 5003 18075 89872 17468 212148 102074 7014 23351 18344 3278 3077 110074 66521
cat_boundaries=0 1 2 3 4 5 6 7
cat_threshold=2 1249 16 1 3732 144 2168
is_linear=0
shrinkage=0.0714161


Tree=5
num_leaves=25
num_cat=8
split_feature=2 6 6 3 1 6 3 1 6 8 1 5 1 6 6 9 5 1 1 3 5 1 3 9
split_gain=1474.61 524.726 498.887 171.11 167.512 94.0989 69.4896 68.4129 57.4629 56.7547 64.1498 51.9197 47.6888 43.6193 38.4891 39.5807 35.8602 30.7087 27.3504 26.5728 16.3476 5.52733 5.26886 4.73035
threshold=0 0.45187199028994457 4.5161484880466043 -0.12501148309085511 1 0.67378681483530256 0.21868283002731073 2 1.6082094392889279 0.081246266125278757 3 0.094954922915778769 4 7.3025924090727505 -0.41724979991150435 -0.41435355438160854 2.3495708957039243 5 6 -0.39128519620407143 -0.96563316091811935 7 -0.025594013914091013 4.0203412804365133
decision_type=1 2 2 2 1 2 2 1 2 2 1 2 1 2 2 2 2 1 1 2 2 1 2 2
left_child=2 4 3 11 9 6 -5 -3 20 -2 -11 18 -13 17 15 -6 -7 -4 -1 -16 -9 -19 -15 -24
right_child=1 7 13 5 14 16 -8 8 -10 10 -12 12 -14 22 19 -17 -18 21 -20 -21 -22 -23 23 -25
leaf_value=0.0091748799969631131 0.012971433384407481 0.046973598105769974 -0.056865875875962896 0.0029803459063363785 -0.10420853139585881 -0.0057603317951552711 -0.0012835580491896992 0.0076783718624470658 0.028230130740193253 -0.0034641800432390533 -0.038022875172096862 0.01264010421831094 0.0052888698870295807 -0.04627786598921789 -0.03203151352557302 -0.061646608977435791 -0.021897710808949603 -0.011585444861541767 0.0025460338330836564 -0.054025552796427422 -0.01763421575701123 -0.029779739519134891 -0.058133089326682187 -0.073993668219933528
leaf_weight=3746.5199060055656 158.76455071031523 195.34924691257766 173.19569292015149 40341.28690909197 137.70982852205634 6743.3725628559996 37722.00642209455 181.47680304516689 281.55538323149085 351.73706605348252 1463.7171865597784 8201.7070415947765 10084.335091676983 116.95252258308756 328.22018736539758 584.13170895571966 783.97915148048833 242.8344350088737 20724.237182647237 1913.7516461885825 459.90390752775784 181.75896640945575 291.25222296580978 142.99259478415479
leaf_count=25888 879 579 1187 308558 585 42017 271459 725 821 1938 8436 58489 72616 716 1692 3606 5257 1554 144660 10504 2041 1082 1940 997
internal_value=-2.62871e-06 -0.034446 0.00160823 0.00202763 -0.0444497 0.000184614 0.000919928 0.00972716 0.00132029 -0.027834 -0.0315558 0.00571699 0.00859587 -0.0452412 -0.0552372 -0.0697664 -0.00744105 -0.0318797 0.00356571 -0.0508057 -0.0104721 -0.01988 -0.0597322 -0.0633558
internal_weight=135553 6056.32 129496 128347 4938.03 85590.6 78063.3 1118.29 922.936 1974.22 1815.45 42756.8 18286 1148.99 2963.81 721.842 7527.35 597.789 24470.8 2241.97 641.381 424.593 551.197 434.245
internal_count=968226 31806 936420 928944 27640 627291 580017 4166 3587 11253 10374 301653 131105 7476 16387 4191 47274 3823 170548 12196 2766 2636 3653 2937
cat_boundaries=0 1 2 3 4 5 6 7 8
cat_threshold=1 1249 260 1 2198 104 2560 2834
is_linear=0
shrinkage=0.0714161


Tree=6
num_leaves=27
num_cat=12
split_feature=2 6 6 1 6 5 9 0 1 6 1 1 1 0 0 6 5 1 5 6 5 1 6 1 4 8
split_gain=1289.77 472.08 425.699 165.689 70.3463 64.0771 61.0813 54.3143 96.4381 45.087 43.0614 38.8729 32.2815 32.7194 32.3702 31.804 28.4279 26.5995 24.4612 19.3417 18.0896 16.2024 9.34969 9.25339 4.54384 7.9853
threshold=0 0.47122800554743566 3.3213679028906729 1 7.3025924090727505 -1.7676058025281092 0.23205722527797359 2 3 -0.19561288642322031 4 5 6 7 8 0.5133122746331914 -0.29840995258663749 9 0.33993105551656183 0.20848297145450115 0.30425857873860362 10 1.1041002034023863 11 0.92520940182849343 0.29787233725666945
decision_type=1 2 2 1 2 2 2 1 1 2 1 1 1 1 1 2 2 1 2 2 2 1 2 1 2 2
left_child=1 3 6 7 10 -3 15 8 -1 18 -4 16 13 -8 -14 17 -7 -2 -5 -11 -9 -17 -13 -12 25 -6
right_child=2 5 4 9 24 11 12 20 -10 19 23 22 14 -15 -16 21 -18 -19 -20 -21 -22 -23 -24 -25 -26 -27
leaf_value=0.0061756237732376916 -0.00095789097530369195 0.046219987628549619 -0.054947991639840391 -0.057411448947244516 -0.065536250123021458 0.036733388330919443 -0.0029915371939482774 -0.035666143834159766 -0.032001329102797064 -0.050331254574877464 -0.0092019458144433006 -0.022957761860509983 -0.0093063665918240411 0.0055141715698425976 -0.0014090210032731742 0.0027005219430078949 0.00078164241862484132 0.0035206156711212575 -0.078654767711986373 -0.029288646318121083 -0.05708474644748162 -0.0038252206892147511 -0.0014475164078939146 -0.023626492860535919 -0.065139604473525625 -0.043886721462347809
leaf_weight=502.17063992999329 7345.5700097465287 206.51178414106835 183.61597903628717 803.11406752891025 125.41434121641578 200.73687544470886 3766.0819997031258 658.06305486639849 1025.5900827802966 957.67958044593206 454.51670631459638 242.14271940121398 3291.5417242997778 5926.3043483329047 13417.271834584173 3055.1843240571907 254.26002047827933 85654.638986662263 421.57508811724256 290.32406914734747 289.62505417423017 5285.7352145343757 179.43366598177818 558.41000892495504 148.08349994284799 282.90284852324839
leaf_count=2817 52811 531 1242 4854 848 672 25431 3741 5768 5323 2906 1119 22879 39195 93458 18790 1031 640674 2341 1289 1632 32064 668 3376 1016 1816
internal_value=7.98478e-06 -0.0322743 0.00151153 -0.0416221 -0.033443 0.0104319 0.00199119 -0.0281563 -0.0194941 -0.0547676 -0.0236872 0.00200063 -0.0010684 0.00220951 -0.00296939 0.00278827 0.016285 0.00316716 -0.064724 -0.0454361 -0.0417712 -0.00143626 -0.0134826 -0.0173072 -0.0544229 -0.0505364
internal_weight=135526 6031.23 129495 4948.14 1752.94 1083.09 127742 2475.45 1527.76 2472.69 1196.54 876.573 26401.2 9692.39 16708.8 101341 454.997 93000.2 1224.69 1248 947.688 8340.92 421.576 1012.93 556.401 408.317
internal_count=968292 31786 936506 27765 11204 4021 925302 13958 8585 13807 7524 3490 180963 64626 116337 744339 1703 693485 7195 6612 5373 50854 1787 6282 3680 2664
cat_boundaries=0 1 2 3 4 5 6 7 8 9 10 11 12
cat_threshold=2 1257 22 33 96 1862 533 9 1 1 1291 3601
is_linear=0
shrinkage=0.0714161


Tree=7
num_leaves=25
num_cat=6
split_feature=2 6 6 1 3 6 3 6 1 3 6 10 1 6 5 6 1 5 3 5 3 1 3 4
split_gain=1116.93 409.95 372.933 145.374 130.331 71.4264 84.5404 56.5663 48.1047 43.1545 39.8621 38.3682 37.6389 43.404 35.4428 27.3982 28.8921 26.1028 25.6888 21.8143 20.064 17.2263 15.5213 5.73135
threshold=0 0.47122800554743566 4.5161484880466043 1 -0.34828194911826127 0.53606832134352567 0.30742580565962474 1.6082094392889279 2 -0.075670898677603585 -0.19561288642322031 0.72843624954282526 3 -0.1139718638811678 0.85463129764591761 7.3025924090727505 4 2.3495708957039243 -0.35637438935622406 0.33993105551656183 -0.018919461748057007 5 -0.18053449578218084 0.92520940182849343
decision_type=1 2 2 1 2 2 2 2 1 2 2 2 1 2 2 2 1 2 2 2 2 1 2 2
left_child=1 3 4 12 11 6 -6 8 -3 -4 19 14 22 -14 -2 16 -11 -7 -12 -5 -10 -13 -1 -17
right_child=2 7 9 10 5 17 -8 -9 20 15 18 21 13 -15 -16 23 -18 -19 -20 -21 -22 -23 -24 -25
leaf_value=0.010335467487447628 0.0071790928287888186 0.021412038381050762 -0.00047177041536987683 -0.053694056569636724 0.0027870219112957422 -0.0036408165743578159 -0.0018578578530210733 0.03426359548847082 -0.00018503101388020246 -0.057832600691348358 -0.016933934601351789 -0.0026126118634223717 -0.03830317393558054 -0.017150107549903579 0.018374678825494314 -0.051374275701739379 -0.019295947338365867 -0.016229410167373785 -0.046559089334710126 -0.073849319522279605 -0.029893658098581105 0.0050231899439653902 -0.018668492838389519 -0.068700301042313797
leaf_weight=176.86289042112185 16384.307484510882 287.10549081987119 130.37607075402047 797.59255241098253 63703.802272593588 10567.102877422327 29121.026812972428 331.46690388818388 223.95807627324757 153.18302939804198 173.54146524233511 2727.1504061683545 1287.1606795829048 803.6227250201955 1581.4062822255692 375.45907656597774 355.73862403142994 912.64381965939174 1068.032791078127 417.10332725167973 240.39594969592872 3346.8318880821216 201.10555774781551 131.47403165519063
leaf_count=1018 112279 1032 700 4854 487202 66162 207140 956 959 1085 874 17766 7697 4178 10059 2498 2265 6037 5738 2341 1074 22366 1065 947
internal_value=6.33603e-06 -0.0300958 0.00140298 -0.0388435 0.00176517 0.000672613 0.00132983 0.00968776 -0.00115258 -0.0391521 -0.0512086 0.00650562 -0.0262273 -0.0300291 0.00816457 -0.0441164 -0.0324108 -0.00464161 -0.0424182 -0.060615 -0.015237 0.00159877 -0.00496529 -0.0558678
internal_weight=135498 6007.95 129491 4925.02 128344 104305 92824.8 1082.93 751.46 1146.23 2456.27 24039.7 2468.75 2090.78 17965.7 1015.85 508.922 11479.7 1241.57 1214.7 464.354 6073.98 377.968 506.933
internal_count=968292 31786 936506 27765 929011 766541 694342 4021 3065 7495 13807 162470 13958 11875 122338 6795 3350 72199 6612 7195 2033 40132 2083 3445
cat_boundaries=0 1 2 3 4 5 6
cat_threshold=2 1257 836 1 104 563
is_linear=0
shrinkage=0.0714161


Tree=8
num_leaves=24
num_cat=6
split_feature=6 3 4 3 3 6 1 6 1 1 3 5 1 8 6 1 3 6 1 7 7 8 5
split_gain=206.761 132.791 52.2579 56.2635 42.8391 41.3929 39.8636 47.4222 36.0249 35.8917 33.0721 32.7673 48.201 36.0907 34.8898 24.3111 21.3213 17.2265 12.9593 8.47241 8.45883 7.51352 7.27563
threshold=3.3213679028906729 -0.34828194911826127 0.86468771520021737 0.16409053997661746 -0.10402905363395706 -0.75223358771189786 0 7.3025924090727505 1 2 0.82273151288379409 0.12488682186905285 3 0.035294117231835349 0.3140686617523723 4 -2.2248905453196532 -0.40444583564619507 5 -0.77400713481492711 0.74761570620006157 0.42307691900887545 -0.96563316091811935
decision_type=2 2 2 2 2 2 1 2 1 1 2 2 1 2 2 1 2 2 1 2 2 2 2
left_child=1 11 5 9 -2 8 19 22 -3 -4 -7 15 14 -14 -13 17 -17 -1 -5 -6 -9 -21 -8
right_child=4 2 3 18 6 10 7 20 -10 -11 -12 12 13 -15 -16 16 -18 -19 -20 21 -22 -23 -24
leaf_value=-0.0020515260555577226 0.0069584758937614056 0.00011127608721122503 -0.0066177455154907824 -0.0054858350815647121 -0.062886090731442509 0.00050578557678691665 -0.0013019145752352146 -0.033341122214996535 -0.015149490073844803 0.0029270539591071767 -0.004758989967270191 0.00030228685120654457 -0.01524799327387821 0.013563276638916467 0.021431246901672203 0.013350931747861821 0.00016742838472198141 0.0095332884725956388 -0.012902401667869129 -0.054310945445009327 -0.055730817206740717 -0.032037934357872076 -0.015397269408549435
leaf_weight=803.43012729576003 207.96659404691309 1464.9945583200897 3472.2334035959079 1865.0350320850403 121.55478052822582 85179.940706218738 296.62805118352117 290.27675283959252 1712.6831155325926 4742.0265603432945 6553.6942424809677 3913.6068993855542 230.91385610689849 5587.4236929296221 443.79772886987666 668.5198853155598 9760.9304832690705 3535.303486935316 3660.5081649272297 127.11670297800447 122.32908756687539 196.89708200760651 504.31036094427691
leaf_count=6080 1011 12227 23773 11870 826 632233 1538 1867 12322 32926 40346 27286 1320 38161 2553 2965 66537 22541 23653 865 737 1272 3383
internal_value=5.13918e-06 0.000334982 -0.000743843 -0.0048603 -0.0235961 -0.000147926 -0.0274261 -0.0201438 -0.00816119 -0.0011121 0.000129656 0.00503415 0.00815242 0.0123985 0.00244863 0.00288556 0.00101151 0.00737107 -0.0104324 -0.0457804 -0.0399792 -0.0407761 -0.010177
internal_weight=135462 133595 108651 13739.8 1867.08 94911.3 1659.11 1213.54 3177.68 8214.26 91733.6 24943.9 10175.7 5818.34 4357.4 14768.2 10429.5 4338.73 5525.54 445.569 412.606 324.014 800.938
internal_count=968292 956793 789350 92222 11499 697128 10488 7525 24549 56699 672579 167443 69320 39481 29839 98123 69502 28621 35523 2963 2604 2137 4921
cat_boundaries=0 1 2 3 4 5 6
cat_threshold=104 3024 3148 1809 3648 771
is_linear=0
shrinkage=0.0714161


Tree=9
num_leaves=26
num_cat=7
split_feature=2 6 6 3 1 1 6 6 6 3 8 3 6 5 5 1 1 1 5 3 3 3 1 7 5
split_gain=1019.23 397.887 302.231 127.313 123.864 68.181 63.1911 57.2484 57.1518 60.2248 43.26 60.013 37.4198 38.0683 34.6346 39.0438 33.1023 32.1828 20.9813 18.654 17.1992 15.9533 14.6745 9.87864 8.35496
threshold=0 0.45187199028994457 3.3213679028906729 -0.19071868421577545 1 2 7.3025924090727505 2.1188061190719747 0.14383573781040868 0.35385490969295946 0.081246266125278757 -0.053321684532280082 0.14383573781040868 0.1493780517322589 0.11866500144601876 3 4 5 0.8359633184584353 -0.028881499819784776 -0.10808323757187499 -0.025594013914091013 6 -0.453322703964747 2.3495708957039243
decision_type=1 2 2 2 1 1 2 2 2 2 2 2 2 2 2 1 1 1 2 2 2 2 1 2 2
left_child=2 4 3 14 10 -3 17 19 9 -5 -2 -12 13 -6 16 -16 -1 23 -10 -7 -19 -8 -14 -4 -23
right_child=1 5 6 8 12 7 21 -9 18 -11 11 -13 22 -15 15 -17 -18 20 -20 -21 -22 24 -24 -25 -26
leaf_value=0.0077822233493237934 0.012531062617679552 0.046850021000680031 -0.04816506167889914 0.0028284331246945134 -0.042879735133451662 0.0054220018111647431 -0.025183847096759599 0.036550257624727939 -0.0016408820116893795 -0.0016832520041775052 -0.011008586830349162 -0.037549987225745568 -0.01382137572044336 -0.060784196461701967 0.0034931652636197462 0.010993380983131467 0.0016342848096608741 0.015531946725852491 -0.0069625511175394721 -0.017832527196465484 -0.014616063729757425 -0.064948096540166589 -0.041938811974442415 -0.02615753823928765 -0.044685276363256282
leaf_weight=6408.4974870250971 156.96982723728615 196.80727390950778 183.254328394607 46614.350472708997 1403.6377306631255 308.68170472400016 113.82375222726841 186.80895866424544 18010.143101144291 22313.346169853823 741.15179845032981 1050.1528000828084 237.55707757468917 1065.3711333588046 5929.6662779812686 8892.5855237777505 14749.662242392025 113.19240651582368 4781.8349354712554 409.10250964615261 654.95110596937957 219.21428441655007 199.78038274589926 240.61848570504662 197.10247424363843
leaf_count=44219 872 563 1217 365300 8183 1343 716 499 114568 161411 4303 6032 1171 6173 42022 62987 102072 566 32491 1752 4347 1583 865 1415 1399
internal_value=2.5026e-05 -0.0288607 0.00135435 0.00175513 -0.0376528 0.00989212 -0.0283637 0.0013189 0.000342787 0.00136791 -0.0232987 -0.0265685 -0.0470331 -0.0506055 0.0053554 0.00800268 0.00350086 -0.0192406 -0.00275739 -0.00783196 -0.0100428 -0.0488769 -0.0279407 -0.0348499 -0.0553548
internal_weight=135378 5956.02 129422 127700 4854.62 1101.4 1722.16 904.593 91719.7 68927.7 1948.27 1791.3 2906.35 2469.01 35980.4 14822.3 21158.2 1192.02 22792 717.784 768.144 530.141 437.337 423.873 416.317
internal_count=968069 31756 936313 925070 27599 4157 11243 3594 673770 526711 11207 10335 16392 14356 251300 105009 146291 7545 147059 3095 4913 3698 2036 2632 2982
cat_boundaries=0 1 2 3 4 5 6 7
cat_threshold=1 1249 260 1832 3648 108 2824
is_linear=0
shrinkage=0.0714161


Tree=10
num_leaves=26
num_cat=7
split_feature=2 6 6 6 6 6 0 0 5 6 0 8 5 4 0 8 0 0 5 7 5 4 10 9 8
split_gain=883.523 347.404 262.189 61.1203 61.1174 56.1822 41.1346 37.7208 35.1431 26.3659 24.2726 22.9022 22.046 16.7198 16.1516 15.732 20.2995 17.6611 12.9091 12.511 11.7318 9.66235 9.06641 4.23102 3.92486
threshold=0 0.70771359247742616 3.3213679028906729 -0.30107650866981039 0.14383573781040868 7.3025924090727505 1 2 0.22424431592838248 0.20848297145450115 3 0.24731182529772763 0.070594999075490841 0.86468771520021737 4 0.37974683344015314 5 6 -0.77268611905074136 0.49979874129913565 1.0127916272248596 0.20931960041540126 0.43535112227742223 -0.52136180571622548 0.45454542355372213
decision_type=1 2 2 2 2 2 1 1 2 2 1 2 2 2 1 2 1 1 2 2 2 2 2 2 2
left_child=2 3 4 7 10 19 -3 11 -9 14 12 -2 -1 -12 -5 16 -6 -17 -11 22 24 -22 -4 -21 -7
right_child=1 6 5 9 15 20 -8 8 -10 18 13 -13 -14 -15 -16 17 -18 -19 -20 23 21 -23 -24 -25 -26
leaf_value=-0.00195137394649602 -0.055265568123666828 0.031874628444984641 -0.027798967854069104 -0.023728389305437542 0.0033353839043286332 -0.066622992279501247 -0.00090915532036769595 -0.043061101250549197 -0.070418816877052162 -0.0010943002085087195 0.0034060005087243701 -0.02542137258175288 0.0029037685839853377 -7.2177820910648347e-05 -0.036608006523358896 -0.006942498790539319 -0.0027561892832802257 -0.0013821018215102066 -0.021999380553370845 0.003929479587426378 -0.018995751284514809 -0.047077395522574929 -0.01322278865288109 -0.013613998693153809 -0.049107076009425099
leaf_weight=10626.376232064838 166.12483402789803 426.27546350425109 546.40375875815516 1021.827769495143 6922.858431776428 112.1779492222704 361.3010280909657 560.4486964666944 418.16665355862915 198.01658101027715 70433.47450558492 622.82135664226689 8655.1779320910755 7832.7635472299735 1522.1779940408242 3613.8863834805907 4660.3608015586187 14952.848942868308 629.88771808082311 141.92230941032176 109.36005003564424 145.82105725305883 361.71931842521008 138.57485548523618 155.94997908640653
leaf_count=80592 1064 1376 3630 5873 43113 836 1361 3371 2261 904 532262 3959 66502 54867 8658 23456 28951 95327 2929 708 753 1023 2329 878 1086
internal_value=2.28427e-05 -0.0269397 0.00125775 -0.0337081 0.00162994 -0.0265054 0.0172282 -0.0444648 -0.0541974 -0.0280694 0.00249855 -0.0313087 0.000227903 0.00305752 -0.0316719 -0.00118036 0.000885017 -0.00246888 -0.0169993 -0.017921 -0.0460037 -0.0350428 -0.0219931 -0.00473758 -0.0564353
internal_weight=135337 5927.05 129410 5139.47 127698 1711.93 787.576 1767.56 978.615 3371.91 97547.8 788.946 19281.6 78266.2 2544.01 30150 11583.2 18566.7 827.904 1188.62 523.309 255.181 908.123 280.497 268.128
internal_count=968069 31756 936313 29019 925070 11243 2737 10655 5632 18364 734223 5023 147094 587129 14531 190847 72064 118783 3833 7545 3698 1776 5959 1586 1922
cat_boundaries=0 1 2 3 4 5 6 7
cat_threshold=1 7 24 16 18 11 1
is_linear=0
shrinkage=0.0714161


Tree=11
num_leaves=27
num_cat=7
split_feature=2 6 6 3 1 5 6 3 0 6 3 8 0 6 5 0 1 5 10 3 3 10 10 1 5 10
split_gain=765.848 303.561 227.393 111.139 109.705 59.4358 52.1927 63.5881 50.4015 50.0291 38.0706 55.3517 52.1887 32.5574 31.8879 31.4849 28.349 25.2537 21.4295 15.0663 14.5745 14.4712 14.0053 13.9462 7.82261 5.43644
threshold=0 0.45187199028994457 3.3213679028906729 -0.41055846842889115 1 -1.7676058025281092 0.14383573781040868 0.21415180898236327 2 7.3025924090727505 -0.11214864689352366 0.097560973230217632 3 -0.52382918976662118 0.85463129764591761 4 5 1.0000000180025095e-35 0.99383517877413496 -0.028881499819784776 -0.022299964474732072 1.194441337980328 0.59066957510730456 6 2.3495708957039243 0.64765066468246679
decision_type=1 2 2 2 1 2 2 2 1 2 2 2 1 2 2 1 1 2 2 2 2 2 2 1 2 2
left_child=2 4 3 14 10 -3 7 -5 -7 16 12 -12 -2 15 18 -6 25 -15 -1 -18 -11 -8 -10 -16 -22 -4
right_child=1 5 9 6 13 8 21 -9 22 20 11 -13 -14 17 23 -17 19 -19 -20 -21 24 -23 -24 -25 -26 -27
leaf_value=0.0065207414420948729 0.023716776908783092 0.043420579732420882 -0.037221770848169335 0.0031321917673053511 -0.030748560809540311 0.031742093510262442 -0.002813572726894923 -0.00095807617016746528 -0.015925162279955812 -0.02154696869059388 0.014030904535967415 -0.032270477191631411 -0.018783501646083285 -0.031333904734570546 0.030824091630946699 -0.075132540970014747 0.0064913012569891744 -0.045971173951494221 2.3532930629074641e-05 -0.015033599433119847 -0.05955891827331352 0.0021415607630295157 0.0052059320064744676 0.012549369937301985 -0.03946854679608832 -0.019143608411118278
leaf_weight=15655.186987333542 204.22977340983925 204.54279893555213 301.88619299740458 48344.891954572238 186.54497854589135 197.00511612172704 22962.031497426091 32360.755206118069 451.14758486918072 120.31210668379208 149.29754391981623 1116.2434863033986 465.79160924429016 1207.4410179002296 255.28181769524235 272.0214255003375 242.8591520213522 1197.2864931660745 3102.1622026650584 523.04105907298799 206.21430548766511 3458.7764291267449 247.85780809642165 1560.79502501756 189.85388541645443 118.00193774240324
leaf_count=105841 1163 544 1921 378119 1289 640 149205 239401 2006 787 851 6474 2719 6706 1319 1404 1441 6993 19940 3472 1542 21239 967 10006 1369 711
internal_value=2.05988e-05 -0.0251436 0.00116783 0.00151346 -0.0329016 0.00868461 0.000590174 0.00149211 0.000755023 -0.0247625 -0.0194202 -0.0268082 -0.00575533 -0.0418011 0.00632107 -0.0593861 -0.0166829 -0.0386216 0.00544621 -0.00810248 -0.043316 -0.00216489 -0.00831343 0.015357 -0.0499287 -0.0313936
internal_weight=135301 5899.41 129402 127700 4798.86 1100.55 107126 80705.6 896.011 1702.17 1935.56 1265.54 670.021 2863.29 20573.4 458.566 1185.79 2404.73 18757.3 765.9 516.38 26420.8 699.005 1816.08 396.068 419.888
internal_count=968069 31756 936313 925070 27599 4157 787964 617520 3613 11243 11207 7325 3882 16392 137106 2693 7545 13699 125781 4913 3698 170444 2973 11325 2911 2632
cat_boundaries=0 1 2 3 4 5 6 7
cat_threshold=1 1249 2 16 24 108 4
is_linear=0
shrinkage=0.0714161


Tree=12
num_leaves=27
num_cat=6
split_feature=2 6 6 5 9 6 0 6 6 0 0 5 6 5 10 9 0 9 7 8 10 10 8 4 0 10
split_gain=626.579 260.224 195.471 63.6053 59.1282 37.079 32.0915 29.376 28.7703 23.8903 18.4794 16.3093 16.2875 15.344 15.1765 13.4042 13.0556 15.5286 14.5145 9.80574 8.476 8.40151 7.80974 5.95499 3.53574 2.42185
threshold=0 0.45187199028994457 4.5161484880466043 -1.0409750737883958 0.66882199071126169 -0.19561288642322031 1 1.4480827600682604 -0.92103634189070915 2 3 0.29004923395220994 7.3025924090727505 0.22424431592838248 0.49712136558704922 0.11465905375970699 4 0.61833164772956695 -0.15897944947683648 0.92307691293321292 1.1582396847791896 0.037229083351678537 0.51654357801956274 -1.1545494359334163 5 0.79587926356410765
decision_type=1 2 2 2 2 2 1 2 2 1 1 2 2 2 2 2 1 2 2 2 2 2 2 2 1 2
left_child=1 5 4 -3 7 6 8 9 -1 -2 11 -6 23 -8 15 -5 17 -7 -18 -12 -9 24 -23 -4 -14 -25
right_child=2 3 12 14 10 16 13 20 -10 -11 19 -13 21 -15 -16 -17 18 -19 -20 -21 -22 22 -24 25 -26 -27
leaf_value=-0.061730499775069725 0.0028372175985997366 0.03273606619601812 -0.0057119809541566254 -0.025154340435699949 -0.018974851096174208 -0.016604741435852534 -0.040373646828891448 -0.0079327395344851726 -0.02626174573889254 0.00074852868301855105 -0.0034891154531901656 -0.005129664138008712 -0.026967502855066782 -0.05962887727339735 0.0095190181776959037 -0.00049309526980140131 -0.040169845301802808 -0.040361690879191087 -0.02212344634968608 0.003743237782389833 0.0036975233131590875 -0.042146275928312167 -0.017008441067585395 -0.026922696937768179 -0.05585270842694199 -0.015087619882387901
leaf_weight=127.44510196568444 69550.406616192326 369.88333422620781 111.63799041869061 205.30999384119787 706.94647655557469 1330.5128241342254 533.46169194043614 1977.0858745645091 1375.6943258534893 46708.810508667753 6687.9276968038766 1123.6838833921493 113.01924197875633 349.26693663064816 278.81388518598396 248.42546817391121 447.10333953221561 156.87322376183874 462.38168082083575 1115.6135692901007 381.22391960292589 116.86317908815181 136.84602420582087 361.07357381616384 154.1493696395919 116.68318062394974
leaf_count=714 507967 1124 598 912 4605 7264 3308 12103 8460 344919 42649 7288 767 2136 1092 1022 2603 800 2423 7337 2107 817 907 2468 1206 796
internal_value=0.000106185 -0.0226838 0.00114299 0.0085952 0.00140128 -0.0298937 -0.0361963 0.0018383 -0.0290756 0.00199837 -0.0039793 -0.0104194 -0.0286937 -0.0474547 -0.00359416 -0.011652 -0.02362 -0.0189827 -0.030658 -0.00245202 -0.00605269 -0.0378949 -0.0285874 -0.0205621 -0.0467334 -0.0240322
internal_weight=135247 5885.17 129362 1102.43 128252 4782.74 2385.87 118618 1503.14 116259 9634.17 1830.63 1110.27 882.729 732.549 453.735 2396.87 1487.39 909.485 7803.54 2358.31 520.878 253.709 589.395 267.169 477.757
internal_count=968392 31858 936534 4150 928975 27708 14618 867096 9174 852886 61879 11893 7559 5444 3026 1934 13090 8064 5026 49986 14210 3697 1724 3862 1973 3264
cat_boundaries=0 1 2 3 4 5 6
cat_threshold=2 26 13 1 22 24
is_linear=0
shrinkage=0.0714161


Tree=13
num_leaves=29
num_cat=8
split_feature=3 6 5 1 10 1 3 5 1 6 3 6 1 1 6 7 5 1 1 6 6 4 1 3 3 6 10 10
split_gain=132.701 100.714 51.5355 45.5736 42.2775 36.5329 40.499 34.8637 40.0287 34.0646 32.1028 25.6857 23.5874 23.5742 23.3014 21.407 18.7143 41.8682 20.6327 17.3822 15.5755 10.5369 8.34054 7.74703 6.52023 6.13677 4.53396 3.97018
threshold=-0.24488627497435903 4.5161484880466043 0.62126856211955983 0 0.57972762100369291 1 0.045756340112927486 0.1493780517322589 2 -0.096842421252779268 -0.89897350481090688 -0.57336128850128476 3 4 -0.73082430217525862 0.37892679259586565 -0.77268611905074136 5 6 7.3025924090727505 1.2000391581745626 0.80923357827586984 7 -0.64787513166131483 -0.015653422834932484 -0.29213923935554265 0.49712136558704922 0.22283090849965984
decision_type=2 2 2 1 2 1 2 2 1 2 2 2 1 1 2 2 2 1 1 2 2 2 1 2 2 2 2 2
left_child=4 2 3 14 7 11 -7 16 9 -9 -10 -4 23 21 -2 -5 17 -1 -18 26 22 27 -14 -6 -21 -25 -15 -3
right_child=1 13 5 15 12 6 -8 8 10 -11 -12 -13 20 19 -16 -17 18 -19 -20 24 -22 -23 -24 25 -26 -27 -28 -29
leaf_value=-0.014294748058298442 -0.0088699492755414753 -0.036461227007496953 -0.023590496298304731 -0.0022068652752951032 0.024854812804070384 0.0028175997138897039 -0.0056797263341837991 -0.0036968996978964039 0.021937475050805313 0.012206480669591319 0.0096683251072166784 -0.0076535204262832427 -0.0074251389420907409 -0.0093104987717649457 0.0024732713751729075 0.0010523481031597048 0.0065138228008844706 0.012120295134102618 -2.3003766850138209e-05 -0.010842998760597975 0.0182304672942557 -0.054863701261484092 -0.00043248898191963064 0.021198186310902731 -0.031730287995063597 0.0021513001971954224 0.0068806460344971029 -0.019533729259633897
leaf_weight=343.68624213515432 955.13884457690438 171.79313100339641 577.50787831513844 41505.181763055858 212.05479659493722 4789.5870686593025 7103.3416005808231 1814.6556196541335 1420.1753244430947 1105.3786182092947 4646.0440103109013 4826.2177960672252 965.10178003523788 249.42634782899768 28006.159043513959 13661.425845894984 3709.9746510311302 2388.6380969401125 7296.3164340351923 109.43069427194132 215.74919229676016 117.01369380622054 8108.3574259584202 124.57499384248513 251.19135973762968 280.61791989750054 136.4730923167408 120.04967159250737
leaf_count=1726 7317 1216 3175 315588 1449 35162 49316 13252 8240 6976 34469 33837 6655 1475 201945 90693 26560 14743 51388 667 1064 882 54347 1028 1722 1864 849 787
internal_value=9.78483e-05 -0.00116402 -0.000925181 -0.000195238 0.00406466 -0.0044755 -0.00225574 0.00576189 0.00922061 0.00231539 0.01252 -0.00933946 0.000171291 -0.0221302 0.00209845 -0.0013995 0.00349959 0.00878971 0.00218631 -0.0139324 -0.000733198 -0.0358801 -0.00118492 0.0135752 -0.025392 0.00800719 -0.00358451 -0.0294981
internal_weight=135211 102580 101425 84127.9 32631.3 17296.7 11892.9 22724.9 8986.25 2920.03 6066.22 5403.73 9906.46 1155.38 28961.3 55166.6 13738.6 2732.32 11006.3 746.521 9289.21 408.856 9073.46 617.248 360.622 405.193 385.899 291.843
internal_count=968392 744631 737033 615543 223761 121490 84478 157354 62937 20228 42709 37012 66407 7598 209262 406281 94417 16469 77948 4713 62066 2885 61002 4341 2389 2892 2324 2003
cat_boundaries=0 1 2 3 4 5 6 7 8
cat_threshold=1316 300 1793 2048 232 4 2148 16
is_linear=0
shrinkage=0.0714161


Tree=14
num_leaves=23
num_cat=5
split_feature=2 5 3 5 1 5 4 9 8 3 10 3 1 5 5 1 1 3 3 10 3 9
split_gain=541.505 182.162 110.999 97.2348 70.9891 59.897 41.1976 33.6492 32.8508 38.1757 31.419 38.4197 27.7264 24.6608 23.5335 17.7959 16.4709 15.5062 10.9486 9.96216 5.58952 4.71885
threshold=0 -1.3573329417210893 -0.083625368689607418 2.3495708957039243 1 -3.3843958400795815 0.88495366106645157 1.1332386802864873 0.081246266125278757 -0.049768601538881373 0.64765066468246679 -0.79521310966321967 2 1.0000000180025095e-35 0.69714663167720992 3 4 0.075539238956863056 0.062193009548547111 0.44565355899324938 -0.64787513166131483 0.64308986582052297
decision_type=1 2 2 2 1 2 2 2 2 2 2 2 1 2 2 1 1 2 2 2 2 2
left_child=1 -1 10 5 8 17 -7 13 -3 -10 11 14 -13 -6 -2 19 20 -4 -17 -5 -12 -18
right_child=2 4 3 15 7 6 -8 -9 9 -11 16 12 -14 -15 -16 18 21 -19 -20 -21 -22 -23
leaf_value=0.025728041545659022 0.0082555442956356428 0.015659435639153819 -0.032152675178014206 -0.014197605400045757 -0.026366173769869074 0.00052847775403613037 -0.0044952517583987731 -0.00012749855570324823 -0.0053346230001356833 -0.025162875442466356 0.021183271026989876 0.0068865133729586756 0.0021440843615938452 -0.039164531610112643 0.021166542685898997 -0.028656380531188956 0.00059226607298614462 -0.0040225761300165582 -0.013203200671887958 0.013029452700988106 0.0073645190936016359 -0.0044284542504258121
leaf_weight=394.30209146533161 5620.8997042732117 169.83108566046576 373.30138492331389 167.0890555160845 1466.7396423157334 70598.288754320602 9438.6151262104104 166.7469787580194 839.81782980334901 1206.9809545436465 192.11816333889146 9631.8349045596497 18169.639550775799 1611.5820436615195 825.83719927560014 737.83263165198514 11277.346879267276 136.48435155045809 342.33421260748582 116.20928611990485 669.67787993961247 1043.0746480205162
leaf_count=1392 34114 922 2627 1167 8174 522868 63790 663 4758 6749 1314 72885 133889 9200 4688 5364 79048 689 2123 736 4912 6320
internal_value=9.07741e-05 -0.0211505 0.00105249 -0.000539526 -0.0245349 -0.000219388 -6.39621e-05 -0.0312775 -0.0144576 -0.0170272 0.00380183 0.00494219 0.00379035 -0.0330664 0.00990946 -0.0194516 0.000839125 -0.0246214 -0.0235409 -0.00292576 0.0103253 0.000167065
internal_weight=135197 5856 129341 81910.2 5461.7 80546.7 80036.9 3245.07 2216.63 2046.8 47430.4 34248.2 27801.5 3078.32 6446.74 1363.47 13182.2 509.786 1080.17 283.298 861.796 12320.4
internal_count=968392 31858 936534 599364 30466 589974 586658 18037 12429 11507 337170 245576 206774 17374 38802 9390 91594 3316 7487 1903 6226 85368
cat_boundaries=0 1 2 3 4 5
cat_threshold=2 1249 2196 517 2048
is_linear=0
shrinkage=0.0714161


Tree=15
num_leaves=26
num_cat=7
split_feature=2 6 6 1 3 6 6 3 1 4 6 6 8 3 10 3 1 1 5 7 10 10 1 5 1
split_gain=468.737 223.442 136.755 81.1851 80.8486 47.7694 41.6875 70.6327 42.4864 41.468 39.0027 36.8024 30.9701 29.5191 27.5997 25.8558 22.0327 21.7431 19.2907 16.9445 11.1218 5.65293 10.9203 4.96653 2.41639
threshold=0 0.70771359247742616 2.600256520631667 1 0.30742580565962474 0.15122389670378855 -0.042431350998401542 -0.85815350829063208 2 0.36397210492499477 7.3025924090727505 2.1188061190719747 0.077333826550654447 -0.049768601538881373 -0.3056510856174191 -0.38257302301770829 3 4 -0.61464644797198986 2.6536002210051106 0.49712136558704922 -0.22242076420538923 5 2.9741376537549926 6
decision_type=1 2 2 1 2 2 2 2 1 2 2 2 2 2 2 2 1 1 2 2 2 2 1 2 1
left_child=2 3 4 12 6 15 8 -8 -1 14 17 16 -2 -14 -6 -5 -3 23 -7 -11 -19 24 -23 -4 -12
right_child=1 11 10 5 9 18 7 -9 -10 19 21 -13 13 -15 -16 -17 -18 20 -20 -21 -22 22 -24 -25 -26
leaf_value=0.0010279664403092016 0.011798833390629985 0.020044174934530055 -0.021109318750327243 -0.019745992064353884 -0.003844139666027709 0.0053197809169464602 0.012583472592666732 -0.00042162394765122961 0.0049720481446064585 -0.005756540643493048 -0.025987229258012366 0.038827273736442486 -0.0096829722251778778 -0.025755356374754752 0.0013835745471436557 -0.043127559944975753 -0.0075970304980199016 -0.013003130965695591 -0.024594112412334505 -0.023927238801462369 -0.00064712370434621622 -0.0069405267035803674 -0.037921393970400834 -0.041241240444659426 -0.054615762561784006
leaf_weight=23341.631412296607 185.57755536655168 263.05685555157834 116.2604897249912 281.2063054512837 7914.5870633775157 158.53945143651799 2263.8307297037172 36018.342798853017 34606.14559044558 7993.9272536674762 110.98549240082502 234.53893392271129 1061.9231346329652 1291.8175178484998 14750.053690915836 1696.1158606495374 312.0952390821185 969.37114711194317 358.74553496641602 270.60466335836099 602.45553500871665 109.41301616646524 177.41744553848912 135.15688583021984 95.923623782262439
leaf_count=177589 1015 916 812 1720 57481 692 11266 243645 272140 54173 861 588 6016 7512 104012 10368 1238 6135 1704 1441 3610 761 1293 927 766
internal_value=-5.093e-05 -0.0198359 0.000842019 -0.0254366 0.00115532 -0.0346089 0.00217623 0.000347437 0.00338439 -0.00202104 -0.0163523 0.0149844 -0.0162256 -0.0185041 -0.000441965 -0.0398023 0.00526162 -0.0115305 -0.015426 -0.0063515 -0.00821501 -0.0341579 -0.0276676 -0.0307103 -0.0431551
internal_weight=135320 5843.62 129476 5033.93 127159 2494.61 96230 38282.2 57947.8 30929.2 2316.98 809.691 2539.32 2353.74 22664.6 1977.32 575.152 1823.24 517.285 8264.53 1571.83 493.74 286.83 251.417 206.909
internal_count=968681 31769 936912 29027 921747 14484 704640 254911 449729 217107 15165 2742 14543 13528 161493 12088 2154 11484 2396 55614 9745 3681 2054 1739 1627
cat_boundaries=0 1 2 3 4 5 6 7
cat_threshold=1 1257 1291 2598 96 3093 2984
is_linear=0
shrinkage=0.0714161


Tree=16
num_leaves=31
num_cat=11
split_feature=3 5 5 0 3 6 1 1 1 3 5 1 1 4 1 1 6 3 6 3 10 6 1 5 5 8 1 4 10 1
split_gain=79.0279 63.4412 37.326 33.0939 45.1837 43.5778 29.4987 29.4614 27.4278 27.0557 31.147 33.8151 28.4789 38.9048 23.8022 23.6814 23.862 21.1603 15.4454 14.7206 14.2776 14.1516 14.1239 14.1088 13.0131 11.2571 11.0106 8.34626 6.25872 6.15557
threshold=-0.075670898677603585 0.59818227971438309 4.3181656603200009 0 0.31303776278663958 7.3025924090727505 1 2 3 -0.7143936972920818 0.69714663167720992 4 5 -0.42280185349125393 6 7 -0.33560079609267862 -2.2248905453196532 -0.30107650866981039 0.40721877912051002 0.5263799839848472 1.0000000180025095e-35 8 -0.023216155762883311 0.59818227971438309 0.85999998280000334 9 0.71399320027481139 -0.068121939479472371 10
decision_type=2 2 2 1 2 2 1 1 1 2 2 1 1 2 1 1 2 2 2 2 2 2 1 2 2 2 1 2 2 1
left_child=9 3 14 4 7 8 -6 -2 -5 10 12 25 13 -1 19 16 23 -14 -16 -3 26 -13 -4 -11 -18 -12 -17 -24 -7 -22
right_child=1 2 22 5 6 28 -8 -9 -10 15 11 21 17 -15 18 20 24 -19 -20 -21 29 -23 27 -25 -26 -27 -28 -29 -30 -31
leaf_value=0.018646258792464437 0.0075414432063714712 0.0023763876477870169 -0.042182368177482832 -0.0015947597822509943 -0.026848782179436027 -0.044402560347897309 -0.0070573057630471904 -0.0026017350768304665 0.0016795550397959631 0.0051835058167554182 0.022925236646994394 -0.0001034624738529307 0.011259961866039385 0.0038284523546491906 -0.011392519934087174 -0.00010740547577992821 0.00070293460795657463 -0.0017859414241088931 -0.0051117310857077486 -0.0073625383225696768 0.00060604623712128046 0.018968300605565393 -0.0056510326049615664 0.018105629053498017 0.010197629760032894 0.045493405707556146 0.0030440155685613111 -0.02852866513136551 -0.020035269788739506 -0.0029223285974702188
leaf_weight=1259.7651241750063 1901.3791659957151 2976.0982953415792 158.70084067894641 21023.250675358231 409.43382664932324 103.54441000815132 5138.8271065260842 6181.2984350324305 34360.959807578562 768.90938341244328 380.16951021573186 585.26602564566565 744.7881555198619 3197.4191711972253 2638.3631933544493 10608.296965723657 3649.8552625440334 4267.2434309747605 8213.9651524035235 1078.4167693204508 4055.7546770747294 300.22455602499394 191.2154878470792 980.41687582383565 922.25793384408098 160.24131913197198 12108.332131088671 141.53171637559717 111.81547444038006 6658.9256986800528
leaf_count=7202 14219 21507 1191 154411 2847 787 36936 47036 246830 6656 2106 3672 3184 20589 18685 78194 27060 27238 57198 7126 28806 1616 1291 8468 6856 803 87387 1017 731 47032
internal_value=-4.82388e-05 -0.00138359 -0.00552965 -0.000461424 -0.00361351 0.000311944 -0.00857893 -0.00020953 0.000436676 0.00218304 0.00533596 0.0151761 0.00385421 0.00799857 -0.00489122 0.00131891 0.00532378 0.000152376 -0.00663257 -0.000213438 0.000559882 0.00629174 -0.0248948 0.0124258 0.00261814 0.029079 0.00157365 -0.0149331 -0.031751 -0.00158892
internal_weight=135277 84628.8 15398.3 69230.5 13630.9 55599.6 5548.26 8082.68 55384.2 50647.9 10895.1 1425.9 9469.22 4457.18 14906.8 39752.7 6321.44 5012.03 10852.3 4054.52 33431.3 885.491 491.448 1749.33 4572.11 540.411 22716.6 332.747 215.36 10714.7
internal_count=968681 611812 108015 503797 101038 402759 39783 61255 401241 356869 66410 8197 58213 27791 104516 290459 49040 30422 75883 28633 241419 5288 3499 15124 33916 2909 165581 2308 1518 75838
cat_boundaries=0 1 2 3 4 5 6 7 8 9 10 11
cat_threshold=16 128 42 2195 101 2666 529 2176 104 1321 1793
is_linear=0
shrinkage=0.0714161


Tree=17
num_leaves=28
num_cat=14
split_feature=2 6 6 1 3 6 0 4 6 3 1 0 3 0 1 6 1 1 1 1 1 3 1 3 0 4 5
split_gain=405.263 196.708 110.949 87.9592 62.318 46.2236 35.6725 38.2951 35.3119 55.8273 35.0937 32.8786 71.3487 32.837 59.1986 31.9735 31.8916 29.6764 23.6302 19.21 18.4146 15.7049 10.7361 8.25295 6.86514 6.17057 3.16148
threshold=0 0.45187199028994457 2.600256520631667 1 0.30742580565962474 2.1188061190719747 2 0.92520940182849343 -0.042431350998401542 -0.85815350829063208 3 4 -0.40083588613889304 5 6 7.3025924090727505 7 8 9 10 11 0.11124428355940812 12 -0.11214864689352366 13 0.038873407402149236 2.0411362837056179
decision_type=1 2 2 1 2 2 1 2 2 2 1 1 2 1 1 2 1 1 1 1 1 2 1 2 1 2 2
left_child=1 3 4 13 8 17 16 -8 10 -10 -2 12 -5 14 -1 20 -6 -3 -13 -15 21 -4 -19 -22 25 -17 -26
right_child=2 5 15 11 6 -7 7 -9 9 -11 -12 18 -14 19 -16 24 -18 22 -20 -21 23 -23 -24 -25 26 -27 -28
leaf_value=0.011786673411319757 0.0009310810459071772 0.023658482895053561 -0.025975005087634222 0.019473527050694814 -0.00085675702929962391 0.03656062059064151 0.00044522540790507131 -0.0090975032500595267 0.011160529046228447 -0.00040596536733944049 0.0045157076304001469 -0.031479824318375517 -0.033439849494425036 -0.043927140736141533 -0.018379903327110959 -0.031057702669361101 -0.010979745687857331 0.0012420588454000782 -0.06077615301253847 -0.018987752868519149 0.0084642817680171002 0.0029137605649555858 -0.016818802845703387 -0.0076832592569182406 -0.047698829843494189 -0.0063303481732663765 -0.032471726345575845
leaf_weight=488.87633593291685 23341.108981510435 211.02098011935595 509.74310739200882 143.23223585559754 2880.779356414881 234.13198399325483 22117.185998065768 2375.1505375095803 2261.9793722446993 36017.118143332045 34603.711755163247 353.35003530090034 1403.8469514331082 233.46674469895515 994.60239918832485 103.80069464213011 3550.3135776713957 396.91021158991134 403.60865388499224 666.6490855864613 192.61784845692455 118.24072294778307 283.13404047535732 997.06779416403151 140.2395296290706 102.09748172543914 137.94811298840796
leaf_count=2789 177589 733 3363 851 20448 588 156085 14819 11266 243645 272140 2422 8371 1335 5765 760 25755 1694 2112 3952 1009 557 1157 6555 1132 735 1054
internal_value=-4.52278e-05 -0.0184925 0.000783136 -0.024929 0.00106445 0.00832234 -0.00172454 -0.000479987 0.00196074 0.000277519 0.0030727 -0.0348875 -0.0283577 -0.0150933 -0.00842623 -0.0147562 -0.00645357 0.000902587 -0.0476893 -0.025868 -0.0104125 -0.0202138 -0.00641228 -0.00502662 -0.0310664 -0.0179257 -0.0387549
internal_weight=135262 5812.83 129449 4687.63 127147 1125.2 30923.4 24492.3 96223.9 38279.1 57944.8 2304.04 1547.08 2383.59 1483.48 2301.76 6431.09 891.065 756.959 900.116 1817.67 627.984 680.044 1189.69 484.086 205.898 278.188
internal_count=968681 31769 936912 27597 921747 4172 217107 170904 704640 254911 449729 13756 9222 13841 8554 15165 46203 3584 4534 5287 11484 3920 2851 7564 3681 1495 2186
cat_boundaries=0 1 2 3 4 5 6 7 8 9 10 11 12 13 14
cat_threshold=2 1257 16 1291 14 22 33 1606 2308 772 33 108 738 18
is_linear=0
shrinkage=0.0714161


Tree=18
num_leaves=31
num_cat=9
split_feature=3 5 1 6 3 3 9 5 3 1 9 6 5 1 1 9 6 5 0 0 5 0 9 8 4 0 6 4 8 1
split_gain=63.3821 64.2516 32.9318 31.4184 29.2014 24.1176 19.844 19.6941 16.9988 20.898 29.4077 24.787 19.7199 34.4359 21.8792 30.6074 21.208 18.2733 17.406 13.2673 12.7401 11.5208 10.6407 10.4374 10.1839 9.87019 8.11699 6.39173 6.30666 5.66504
threshold=-0.07955714668911322 1.2526002673083958 0 -0.73082430217525862 0.17975631810179141 1.2638156745873903 0.024255320751079588 4.3181656603200009 -0.64787513166131483 1 0.26247384285698644 -0.32267654338504964 0.74002395316634828 2 3 0.23205722527797359 1.0000000180025095e-35 0.52496330990447582 4 5 -0.26336691772598492 6 4.0203412804365133 0.10526315697137666 -1.0906683165158502 7 -0.35231395148083228 2.1159171942348807 0.035294117231835349 8
decision_type=2 2 1 2 2 2 2 2 2 1 2 2 2 1 1 2 2 2 1 1 2 1 2 2 2 1 2 2 2 1
left_child=8 2 4 19 26 -5 -6 23 12 11 18 20 14 25 15 -1 -15 -13 -11 -4 -10 -12 29 28 -16 -14 -2 -25 -3 -9
right_child=1 7 3 5 6 -7 -8 22 9 10 21 17 13 16 24 -17 -18 -19 -20 -21 -22 -23 -24 27 -26 -27 -28 -29 -30 -31
leaf_value=0.011359700407084259 0.0044716972684307552 -0.0089503664722439934 -0.0036982191333589922 0.00044490251224543688 -0.0038200102578357098 -0.0066109642332716897 -0.011650284036760845 -0.0014965903091508342 0.0014775481564257577 -0.0028893888870247029 -0.0005792089789394202 -0.00013581528026314146 0.037080366026122837 -0.0048643555252408099 0.0093489443138223965 -0.0066526591047279563 0.017700441083814796 0.0074035497843124021 0.0022919937805561163 -0.014764725066168443 0.011078495033916023 -0.0078192546746627678 -0.037972646005378183 -0.0076977608706421431 0.00033886928511434625 0.015740567881673308 -0.0018721130775505705 -0.01599565231186718 0.01024587196456552 -0.022065730592896647
leaf_weight=2692.9062907451839 1337.6281301576382 134.84124547271904 1365.1624348444002 62922.748209911333 3674.0614276748929 2571.7172280201266 2997.3674523390182 114.12004865159543 956.15207793312402 4169.2876748004801 1834.0214121969129 7126.3468136184529 251.67448194271128 577.7499331844956 703.86726359812019 585.81700094178086 335.97157618629717 2129.5811979593382 15853.858964515255 945.27249550628949 2682.7826425101393 2912.4541035917046 161.30595155626361 3271.1789206883441 7030.1706505473485 293.1575335058842 4454.1098529480278 553.57225483149523 247.52056862908239 207.09834439149927
leaf_count=17634 11897 912 10107 455713 27847 13843 22774 782 7843 30539 12259 50825 1272 3685 3588 3464 1841 15405 116777 7207 22504 19564 1236 21926 44270 1707 34463 3512 1642 1486
internal_value=-2.77753e-05 -0.0012161 -0.000741382 -0.000120874 -0.00411381 0.000167846 -0.00733803 -0.00934139 0.0019859 0.0012292 1.47215e-05 0.00355932 0.00427119 0.0120745 0.00323771 0.00811664 0.00339546 0.00159882 0.00121281 -0.00830579 0.00855579 -0.00503942 -0.0230069 -0.00777405 0.00115737 0.0260887 -0.000406981 -0.00889875 0.00347625 -0.0154916
internal_weight=135094 84957.7 80268.1 67804.9 12463.2 65494.5 6671.43 4689.64 50135.8 37664.5 24769.6 12894.9 12471.3 1458.55 11012.8 3278.72 913.722 9255.93 20023.1 2310.43 3638.93 4746.48 482.524 4207.11 7734.04 544.832 5791.74 3824.75 382.362 321.218
internal_count=968524 615347 583851 486870 96981 469556 50621 31496 353177 275716 179139 96577 77461 8505 68956 21098 5526 66230 147316 17314 30347 31823 3504 27992 47858 2979 46360 25438 2554 2268
cat_boundaries=0 1 2 3 4 5 6 7 8 9
cat_threshold=2176 2704 101 2090 2 7 20 5 2581
is_linear=0
shrinkage=0.0714161


Tree=19
num_leaves=24
num_cat=7
split_feature=2 6 6 1 3 6 9 1 1 5 6 3 10 6 1 5 3 3 1 6 10 6 1
split_gain=325.171 227.008 105.767 62.5878 50.5468 42.6534 42.1246 39.3597 33.7694 33.4001 30.9702 29.2901 29.2233 25.6975 24.1418 23.6272 23.2785 20.7497 19.1033 16.658 13.6411 9.10715 8.93606
threshold=0 0.70771359247742616 3.3213679028906729 1 0.21415180898236327 0.14383573781040868 0.024255320751079588 2 3 0.1615845187298548 0.64361229531249475 -0.049768601538881373 0.77456831338187493 -0.30107650866981039 4 0.1926159133442803 -0.087661869103157306 -0.028881499819784776 5 1.6082094392889279 -0.91431086165485298 7.3025924090727505 6
decision_type=1 2 2 1 2 2 2 1 1 2 2 2 2 2 1 2 2 2 1 2 2 2 1
left_child=2 3 4 11 10 9 15 -3 -8 -5 12 14 -1 -13 -2 -6 -4 -12 -7 -9 22 -22 -18
right_child=1 7 16 5 6 18 8 19 -10 -11 17 13 -14 -15 -16 -17 20 -19 -20 -21 21 -23 -24
leaf_value=0.003083344207736159 0.0080895086736609972 0.04321169597236612 0.0037526803535133332 -0.026240310531671657 0.0022655741169758351 -0.00046531886638172655 -0.0079894512023170258 -0.0022922699652803895 -0.0014814795128941728 -0.043555495238380378 0.0011838833502341559 -0.034246304045136865 -0.0001786728642776952 -0.012228749435458791 -0.01672814080051354 -0.0031858077205074876 -0.051671759371960294 -0.0060742080736279451 -0.026049018884501618 0.021802643800200451 -0.013114514404264973 -0.027086337173673904 -0.020393471809503867
leaf_weight=61261.243507969732 484.21471355282847 222.70880581263918 228.97500392922666 1364.6945920723012 16728.524745137336 337.74554705560877 6167.1707415563105 335.1465010438551 11946.996731662879 973.48155046438546 4170.654758961824 404.16050939648085 18159.168962387237 816.67132215658239 326.06785717347429 5352.4474817419468 105.69088903946249 3875.7891430723721 263.86788117024116 259.76792916783597 786.9498934397925 341.06441464250747 167.75471379846203
leaf_count=457125 2963 634 1203 8375 118446 1552 45776 1355 82628 6033 25196 2503 131687 4565 1765 39110 802 25564 1292 764 5310 2657 1219
internal_value=-2.58177e-05 -0.0165857 0.000715582 -0.0223215 0.000946419 -0.0289872 -0.00114985 0.0182861 -0.00370242 -0.0334494 0.00190975 -0.0124695 0.0023375 -0.0195177 -0.00200404 0.000944154 -0.0173588 -0.00231217 -0.0121271 0.00809268 -0.020808 -0.017339 -0.0351185
internal_weight=135081 5788.53 129292 4970.9 127662 2939.79 40195.1 817.623 18114.2 2338.18 87466.9 2031.11 79420.4 1220.83 810.283 22081 1630.43 8046.44 601.613 594.914 1401.46 1128.01 273.446
internal_count=968524 31801 936723 29048 925532 17252 285960 2753 128404 14408 639572 11796 588812 7068 4728 157556 11191 50760 2844 2119 9988 7967 2021
cat_boundaries=0 1 2 3 4 5 6 7
cat_threshold=1 1249 2084 2272 161 2820 121
is_linear=0
shrinkage=0.0714161


Tree=20
num_leaves=23
num_cat=9
split_feature=2 6 6 1 3 6 8 0 9 1 0 5 0 6 3 1 3 1 6 1 6 10
split_gain=281.965 197.406 92.0198 55.1716 43.5915 37.6174 36.5314 44.2724 36.3353 34.3434 32.9894 29.9489 27.6028 26.8237 39.0714 27.8572 20.3412 17.3444 14.3873 13.3461 15.4522 6.13023
threshold=0 0.70771359247742616 3.3213679028906729 1 0.21415180898236327 0.14383573781040868 0.069565216786394227 2 0.024255320751079588 3 4 0.1615845187298548 5 0.14383573781040868 -0.82505889185664982 6 -0.087661869103157306 7 1.6082094392889279 8 7.3025924090727505 0.17298882079591246
decision_type=1 2 2 1 2 2 2 1 2 1 1 2 1 2 2 1 2 1 2 1 2 2
left_child=2 3 4 6 13 11 -2 -8 12 -3 -10 -5 -6 15 -15 -1 -4 -7 -11 21 -21 -18
right_child=1 9 16 5 8 17 7 -9 10 18 -12 -13 -14 14 -16 -17 19 -19 -20 20 -22 -23
leaf_value=0.0042275887419494628 0.024275439123470889 0.040350745067001835 0.0034831586850272438 -0.024545070936780794 -0.0011209237412990959 -0.029183034082201718 -0.00232519068264618 -0.02430866846562179 -0.0060549292342890132 -0.002128758696875318 0.00011200633361800637 -0.041032056070299985 0.004066197513071329 0.011258327824416202 -0.0011329635073451172 0.0012383049472792099 -0.039764391080968083 -0.0029114942587881091 0.020272234207804763 -0.0089359454438025093 -0.027907985628332733 -0.021266877034836269
leaf_weight=27595.687440721085 134.6113996881304 222.19403921757475 229.07122187025379 1355.1198033712064 13583.298265140393 179.90122374243219 879.25211420147571 1012.0774541295814 10418.980926978167 335.11716815491673 7692.4269318265524 960.05689829345806 8498.161599290981 1383.6686966834095 20920.627168902109 37565.247231445246 217.28970838548412 420.36985086360073 259.43867543429951 699.34567450946997 318.75084786359002 157.6944291511536
leaf_count=209015 739 634 1203 8375 97175 880 5156 5901 74923 1355 53481 6033 60381 6529 137893 286135 1714 1964 764 4619 2487 1168
internal_value=-2.46994e-05 -0.0154876 0.000664016 -0.0208635 0.000878796 -0.0271581 -0.0116139 -0.0142297 -0.00106798 0.0170373 -0.00343894 -0.0313819 0.0008767 0.0017734 -0.000364258 0.00250511 -0.0162384 -0.0113197 0.0075196 -0.0194813 -0.0147311 -0.0311547
internal_weight=135038 5758.14 129280 4941.39 127658 2915.45 2025.94 1891.33 40192.9 816.75 18111.4 2315.18 22081.5 87465.2 22304.3 65160.9 1622.15 600.271 594.556 1393.08 1018.1 374.984
internal_count=968524 31801 936723 29048 925532 17252 11796 11057 285960 2753 128404 14408 157556 639572 144422 495150 11191 2844 2119 9988 7106 2882
cat_boundaries=0 1 2 3 4 5 6 7 8 9
cat_threshold=1 1249 20 2084 25 26 2612 18 104
is_linear=0
shrinkage=0.0714161


Tree=21
num_leaves=26
num_cat=5
split_feature=2 6 6 5 3 0 3 10 6 8 5 3 0 6 6 10 3 0 5 0 5 9 5 9 8
split_gain=272.832 135.823 82.8027 35.9759 34.1015 29.2366 26.4637 29.103 26.5209 23.3044 22.7967 24.6753 21.728 20.9655 20.1541 19.486 16.8928 16.7361 8.95351 8.83015 8.71249 7.90851 6.7619 6.50914 6.50615
threshold=0 0.21755716831843866 2.600256520631667 -1.7676058025281092 1.2638156745873903 1 -0.47599125599391751 -0.7007203877427578 -0.12667560117455448 0.78021977378940144 0.46056176660727305 -0.1756094679261388 2 7.3025924090727505 -0.10395175617401138 1.1121526960268004 0.29689110514765149 3 0.52496330990447582 4 -0.087532805154175275 -0.90081472944908236 2.9741376537549926 -0.022254567609793195 0.15517241111771374
decision_type=1 2 2 2 2 1 2 2 2 2 2 2 1 2 2 2 2 1 2 1 2 2 2 2 2
left_child=2 5 4 -3 6 14 7 -1 -8 18 11 -7 -12 20 16 17 -2 -5 -6 -15 24 -22 -21 -11 -4
right_child=1 3 13 15 9 10 8 -9 -10 23 12 -13 -14 19 -16 -17 -18 -19 -20 22 21 -23 -24 -25 -26
leaf_value=0.0091103225543637516 -0.049944314892059201 0.028976762995856241 -0.017622101872315849 0.0052168143691242149 -0.0012146980414868207 -0.0053556793860377785 0.0017150786442247151 0.002069361823719534 -0.00054215408087595251 -0.0090801261265091859 -0.0062959729712104822 -0.020545528444090945 -0.035992048534128129 -0.005873045499694772 -0.018292113996402602 0.017671415092650022 -0.018733943687902162 -0.012419294267957624 -0.012924702294005249 -0.041540437981106071 -0.00168615456265973 -0.01659482317702355 -0.022099689547894458 -0.022936393395705103 0.00012330754103272377
leaf_weight=3824.5322093772047 413.13806102964008 223.50390936901385 129.45626364147756 442.17604682651836 2054.5419113885255 786.30454704953991 54192.636619092096 13789.37506358543 52042.056765932532 280.1006792799144 179.72636741137831 1780.6003703458264 609.89604548965144 108.14757095920504 240.18039346059595 217.18175182671985 112.54500524858304 701.44121181678202 397.44268195538461 190.04270915786037 230.58844121656148 851.96018167040529 175.53515061124199 451.8427196566754 566.52723220867847
leaf_count=25177 2684 633 701 1792 11254 4571 432608 90160 355975 1587 1190 11088 3695 732 1409 866 748 3197 2067 1568 1498 5945 1397 2467 3256
internal_value=-6.84205e-05 -0.0153501 0.000606122 0.0024223 0.000846777 -0.0221804 0.00103439 0.00359818 0.00060931 -0.00645098 -0.0190999 -0.0158925 -0.0297685 -0.0129674 -0.0349749 -0.00193913 -0.0432624 -0.00566333 -0.00311278 -0.0263182 -0.00941134 -0.0134192 -0.0313483 -0.0176339 -0.00317742
internal_weight=134991 5706.69 129285 1584.3 127033 4122.39 123849 17613.9 106235 3183.93 3356.53 2566.9 789.622 2252.26 765.863 1360.8 525.683 1143.62 2451.98 473.725 1778.53 1082.55 365.578 731.943 695.983
internal_count=968265 31873 936392 6488 921295 25385 903920 115337 788583 17375 20544 15659 4885 15097 4841 5855 3432 4989 13321 3697 11400 7443 2965 4054 3957
cat_boundaries=0 1 2 3 4 5
cat_threshold=1 1 16 6 16
is_linear=0
shrinkage=0.0714161


Tree=22
num_leaves=28
num_cat=5
split_feature=3 5 10 1 5 1 8 8 6 3 1 3 9 6 9 9 1 5 1 8 6 8 3 4 3 9 8
split_gain=42.4043 48.5672 35.9027 28.2179 25.548 23.1474 25.149 22.9626 22.444 20.3605 19.6674 21.3783 19.5234 18.2271 17.3028 15.9031 15.5338 15.0319 46.5582 18.5698 13.1553 11.653 13.6087 9.36523 9.2667 6.67876 5.54906
threshold=-0.19071868421577545 0.75560223889617795 0.57972762100369291 0 0.1615845187298548 1 0.069565216786394227 0.17599999859199986 7.3025924090727505 0.51335421753870769 2 1.0296312107797922 -0.58030662811180822 -0.038588351157905716 0.14153332236371674 1.5003936590004012 3 -0.77268611905074136 4 0.27700762030705744 0.83878776170138536 0.10526315697137666 -0.94081412808290132 2.3348102339463344 -0.514070702569699 0.11465905375970699 0.39999999926101554
decision_type=2 2 2 1 2 1 2 2 2 2 1 2 2 2 2 2 1 2 1 2 2 2 2 2 2 2 2
left_child=2 8 4 7 17 6 -6 25 10 13 11 -2 -7 -5 -11 -9 21 18 -1 -19 -12 -4 -23 24 -18 -3 -10
right_child=1 3 16 9 5 12 -8 15 26 14 20 -13 -14 -15 -16 -17 23 19 -20 -21 -22 22 -24 -25 -26 -27 -28
leaf_value=-0.011745597348505337 0.0017959063925491816 -0.003571529195557956 0.010178238703515585 0.0050167596789072793 -0.0097196953238729601 0.027498420905771336 0.010601324859127306 -0.0086149389701360712 -0.033496622102562032 -0.021421203868608334 -0.00070289548392556936 -0.0065255600003244771 0.0016245817968353162 -0.0031766923135446569 -0.0020023786807885457 -0.020653641812062355 0.0016563676916023745 -0.0037536218601719731 0.010163471648672108 0.0022750436297852479 -0.0057737513367062615 -0.030313302629286405 -0.0082186380812579139 0.019672262605311578 -0.0026746877273861832 0.0089266758027053382 -0.01257080728875646
leaf_weight=602.6138473110841 27991.482452376425 451.14120763012579 137.19183489799616 2201.1962861150687 330.44722106821337 153.88928656934149 5175.5316327822302 4886.5008335820285 105.6319895630586 456.55545344986604 51429.120945871764 1668.4401634536844 4444.6489816644134 3733.5100467817365 480.13942289362512 632.03503498791542 4597.3811958448132 3633.3027479787706 2601.4437821198917 9215.4885415756071 2748.8095508658953 171.72277501248755 826.40432310887991 116.20643126731738 5574.9327999703455 422.09881708877219 166.51680870453129
leaf_count=3310 201631 3183 853 16690 2088 894 36754 33269 776 3071 385702 9470 32038 26360 2937 4110 28782 25142 16313 66817 16620 1045 5900 638 40048 2648 1176
internal_value=-6.4109e-05 -0.000850563 0.0019736 -0.00486707 0.00343236 0.00624553 0.00936473 -0.00827802 -0.000217206 -0.00167971 -0.000150739 0.00132736 0.00248504 -0.000137722 -0.0114673 -0.00999373 -0.00136655 0.0016616 0.00603791 0.000570294 -0.000959997 -0.00925596 -0.0120199 -0.000486498 -0.000717266 0.00246974 -0.020693
internal_weight=134954 97373.2 37581.2 13263.2 26157.4 10104.5 5505.98 6391.78 84110 6871.4 83837.9 29659.9 4598.54 5934.71 936.695 5518.54 11423.8 16052.8 3204.06 12848.8 54177.9 1135.32 998.127 10288.5 10172.3 873.24 272.149
internal_count=968265 707643 260622 92268 183356 71774 38842 43210 615375 49058 613423 211101 32932 43050 6008 37379 77266 111582 19623 91959 402322 7798 6945 69468 68830 5831 1952
cat_boundaries=0 1 2 3 4 5
cat_threshold=1134 215 1572 16 36
is_linear=0
shrinkage=0.0714161


Tree=23
num_leaves=26
num_cat=8
split_feature=2 6 6 1 1 3 5 1 3 1 8 1 5 3 10 8 6 6 1 10 9 1 10 8 6
split_gain=236.222 119.788 66.4979 63.3447 39.8257 37.6366 36.7705 31.5461 27.2248 64.895 25.2677 24.1624 22.6224 21.4074 28.0118 21.0433 20.7354 18.772 17.3998 17.0553 14.898 10.1589 7.27656 6.92857 5.6589
threshold=0 0.21755716831843866 2.600256520631667 1 2 -1.0000000180025095e-35 -0.80606400340423423 3 1.2638156745873903 4 0.73033707044565033 5 0.29742401825927672 -0.74169652351682525 0.80892108642520244 0.15517241111771374 0.14383573781040868 7.3025924090727505 6 0.53591554678757791 -1.1022113952520167 7 -0.52023217442364789 0.89333332439999769 4.5161484880466043
decision_type=1 2 2 1 1 2 2 1 2 1 2 1 2 2 2 2 2 2 1 2 2 1 2 2 2
left_child=1 3 8 10 5 -3 -6 15 13 23 -1 20 -9 14 -2 -5 -15 21 -11 -8 -4 -13 -19 -10 -22
right_child=2 4 11 7 6 -7 19 12 9 18 -12 17 -14 16 -16 -17 -18 22 -20 -21 24 -23 -24 -25 -26
leaf_value=-0.0064806243263905933 0.0061847412582898709 0.0029455444932117601 -0.0086146651839225687 0.0018016140569967122 0.028265606646480149 -0.036586242033765988 -0.0081241319984830824 -0.024504259669046336 -0.019089647011228252 0.0068608184412827615 0.03409655528749464 0.014679070049221154 -0.040781156992211937 0.0012130162018836133 -0.0028192938978395953 -0.01960528316211009 -0.0010437722321466896 -0.036955302242102424 -0.0057169833447825516 0.014621434414143946 -0.028844641299430616 -0.0066180911605890572 -0.015832132834498261 -0.037022847057843519 -0.052041199195759266
leaf_weight=195.98954810280611 7690.643572937417 278.90316733552027 106.84999694691214 276.93995088624069 373.12090783155872 219.50218203663826 439.08847249705286 1328.4063966965623 822.94233581444132 1183.7058696909316 130.31034510105383 115.39705580420559 647.9079590160618 86544.256215711066 2286.0308239528567 1517.830442745998 27319.345087894297 123.45202549747773 1048.6635002241983 272.46767842472764 100.47387682297267 1423.3407372917027 254.95148158566371 126.81283209268076 115.0690241673874
leaf_count=1157 47178 1123 771 1629 1282 956 2058 8430 4977 6168 703 714 4169 666599 13436 9297 176707 1049 5498 1069 702 8954 1911 732 996
internal_value=-5.95787e-05 -0.0143132 0.000566803 -0.0207595 0.00237126 -0.0141801 0.010015 -0.0233353 0.000781884 -0.00574057 0.00943503 -0.0116323 -0.0296902 0.000949482 0.00412158 -0.0162118 0.000671544 -0.00842901 0.000953205 0.000585555 -0.0295041 -0.00496853 -0.0227234 -0.0212603 -0.0412283
internal_weight=134942 5680.47 129262 4097.38 1583.08 498.405 1084.68 3771.08 127022 3182.12 326.3 2239.53 1976.31 123840 9976.67 1794.77 113864 1917.14 2232.37 711.556 322.393 1538.74 378.404 949.755 215.543
internal_count=968265 31873 936392 25385 6488 2079 4409 23525 921295 17375 1860 15097 12599 903920 60614 10926 843306 12628 11666 3127 2469 9668 2960 5709 1698
cat_boundaries=0 1 2 3 4 5 6 7 8
cat_threshold=2 1 57 1256 2848 96 1105 512
is_linear=0
shrinkage=0.0714161


Tree=24
num_leaves=27
num_cat=9
split_feature=3 3 1 6 1 0 6 10 10 5 9 0 10 0 9 1 1 5 6 10 9 1 4 1 6 9
split_gain=40.2192 29.3536 36.6553 25.575 24.7638 43.5578 23.2009 22.3887 19.9025 25.722 19.6286 19.28 17.9237 15.0033 35.5208 14.5549 11.9055 18.5143 17.3307 10.0986 8.68749 7.99313 6.29295 8.94329 6.23972 8.17999
threshold=-0.34078401045986079 1.5974004507645196 0 -0.75223358771189786 1 2 0.53606832134352567 1.1765046041557439 1.1582396847791896 0.5441833862079144 -0.14758603314743565 3 -0.29544434917901102 4 0.03921364482198874 5 6 -1.0159283202796234 0.36838302404312034 -0.71378606484550322 0.64308986582052297 7 -1.4001770758970367 8 0.12874510281860579 -0.048045189088637315
decision_type=2 2 1 2 1 1 2 2 2 2 2 1 2 1 2 1 1 2 2 2 2 1 2 1 2 2
left_child=8 3 24 4 11 -6 12 -8 9 16 21 -2 -5 14 -4 -12 18 -18 -1 -15 22 -11 -10 -24 25 -3
right_child=1 2 13 6 5 -7 7 -9 20 10 15 -13 -14 19 -16 -17 17 -19 -20 -21 -22 -23 23 -25 -26 -27
leaf_value=0.0012410682946147945 -0.018613458122502386 -0.0077947238613144476 0.021110323048709252 -0.0011747471007531793 0.0091262176479557314 -0.014895748747568341 -0.0042520543899169884 0.0041550830391074581 -0.014291860143049505 0.03263957673567728 -0.0060936392148291585 0.0084286458706230236 0.00091650931246254469 0.0067743065394886299 -0.014810683558316206 0.0082733587862774891 0.013808260108716414 0.0028702956904111134 -0.0096216840590821768 -0.012517329513437554 -0.016282474343161352 0.011804959715395672 -0.0063858919195130875 0.0022601127003971187 -0.034848460555133326 -0.025079232428527432
leaf_weight=7554.9117312500275 154.3845647082926 224.2804260001285 352.36654583414838 32641.942809583335 472.6464335438759 1985.0907014709883 11259.406639695619 1886.2150662014465 191.20345417469343 209.22270434768484 400.38509519773288 739.72027025516945 58123.1879789382 176.98761219950393 233.40676780868671 3206.4022737578853 864.67231320754945 9051.3715511333394 831.52925314319145 634.66928928145444 227.82169352211349 237.88982297328789 945.97149958474438 1678.4552795237896 150.20457937405445 370.06747933337465
leaf_count=53013 1400 1284 1715 246969 3494 14793 70635 11133 1023 1318 2576 6101 430963 882 1211 21269 4991 62687 4148 3067 1295 1573 6128 11145 705 2072
internal_value=-1.06796e-05 -0.000605052 -0.00888305 -0.000439744 -0.00657975 -0.0102578 -0.000241686 -0.00304575 0.00254946 0.00328705 0.00843419 0.00360507 0.000164429 -0.00196368 0.00668318 0.00668454 0.00214699 0.00382023 0.000163813 -0.0082095 -0.00286871 0.0225484 -0.00178336 -0.00087205 -0.021554 -0.0185568
internal_weight=134804 109405 2141.98 107263 3351.84 2457.74 103911 13145.6 25399.8 22356.4 4053.9 894.105 90765.1 1397.43 585.773 3606.79 18302.5 9916.04 8386.44 811.657 3043.45 447.113 2815.63 2624.43 744.552 594.348
internal_count=967590 796424 10936 785488 25788 18287 759700 81768 171166 151575 26736 7501 677932 6875 2926 23845 124839 67678 57161 3949 19591 2891 18296 17273 4061 3356
cat_boundaries=0 1 2 3 4 5 6 7 8 9
cat_threshold=2852 2384 1 1 5 512 309 1506 786
is_linear=0
shrinkage=0.0714161


end of trees

feature_importances:
month=129
lag_20d_volatility_z=120
gap_sigma=96
lag_20_day_log_ret_z=81
dow=43
hurst_z=41
interaction_z=36
prev_close_loc=35
lag_5_day_log_ret_z=26
is_month_end=16
rel_vol_z=9

parameters:
[boosting: gbdt]
[objective: binary]
[metric: binary_logloss]
[tree_learner: serial]
[device_type: cpu]
[data_sample_strategy: bagging]
[data: ]
[valid: ]
[num_iterations: 100]
[learning_rate: 0.0714161]
[num_leaves: 47]
[num_threads: 0]
[seed: 42]
[deterministic: 0]
[force_col_wise: 0]
[force_row_wise: 0]
[histogram_pool_size: -1]
[max_depth: 5]
[min_data_in_leaf: 725]
[min_sum_hessian_in_leaf: 0.001]
[bagging_fraction: 0.803243]
[pos_bagging_fraction: 1]
[neg_bagging_fraction: 1]
[bagging_freq: 3]
[bagging_seed: 400]
[bagging_by_query: 0]
[feature_fraction: 0.784776]
[feature_fraction_bynode: 1]
[feature_fraction_seed: 30056]
[extra_trees: 0]
[extra_seed: 12879]
[early_stopping_round: 0]
[early_stopping_min_delta: 0]
[first_metric_only: 0]
[max_delta_step: 0]
[lambda_l1: 0]
[lambda_l2: 0]
[linear_lambda: 0]
[min_gain_to_split: 0]
[drop_rate: 0.1]
[max_drop: 50]
[skip_drop: 0.5]
[xgboost_dart_mode: 0]
[uniform_drop: 0]
[drop_seed: 17869]
[top_rate: 0.2]
[other_rate: 0.1]
[min_data_per_group: 100]
[max_cat_threshold: 32]
[cat_l2: 10]
[cat_smooth: 10]
[max_cat_to_onehot: 4]
[top_k: 20]
[monotone_constraints: ]
[monotone_constraints_method: basic]
[monotone_penalty: 0]
[feature_contri: ]
[forcedsplits_filename: ]
[refit_decay_rate: 0.9]
[cegb_tradeoff: 1]
[cegb_penalty_split: 0]
[cegb_penalty_feature_lazy: ]
[cegb_penalty_feature_coupled: ]
[path_smooth: 0]
[interaction_constraints: ]
[verbosity: 1]
[saved_feature_importance_type: 0]
[use_quantized_grad: 0]
[num_grad_quant_bins: 4]
[quant_train_renew_leaf: 0]
[stochastic_rounding: 1]
[linear_tree: 0]
[max_bin: 255]
[max_bin_by_feature: ]
[min_data_in_bin: 3]
[bin_construct_sample_cnt: 200000]
[data_random_seed: 175]
[is_enable_sparse: 1]
[enable_bundle: 1]
[use_missing: 1]
[zero_as_missing: 0]
[feature_pre_filter: 1]
[pre_partition: 0]
[two_round: 0]
[header: 0]
[label_column: ]
[weight_column: ]
[group_column: ]
[ignore_column: ]
[categorical_feature: 0,1,2]
[forcedbins_filename: ]
[precise_float_parser: 0]
[parser_config_file: ]
[objective_seed: 16083]
[num_class: 1]
[is_unbalance: 0]
[scale_pos_weight: 1]
[sigmoid: 1]
[boost_from_average: 1]
[reg_sqrt: 0]
[alpha: 0.9]
[fair_c: 1]
[poisson_max_delta_step: 0.7]
[tweedie_variance_power: 1.5]
[lambdarank_truncation_level: 30]
[lambdarank_norm: 1]
[label_gain: ]
[lambdarank_position_bias_regularization: 0]
[eval_at: ]
[multi_error_top_k: 1]
[auc_mu_weights: ]
[num_machines: 1]
[local_listen_port: 12400]
[time_out: 120]
[machine_list_filename: ]
[machines: ]
[gpu_platform_id: -1]
[gpu_device_id: -1]
[gpu_use_dp: 0]
[num_gpu: 1]

end of parameters

pandas_categorical:[[0, 1, 2, 3, 4], [1, 2, 3, 4, 5, 6, 7, 8, 9, 10, 11, 12], [0, 1]]
