tree
version=v4
num_class=1
num_tree_per_iteration=1
label_index=0
max_feature_idx=10
objective=binary sigmoid:1
feature_names=dow month is_month_end gap_sigma lag_5_day_log_ret_z lag_20_day_log_ret_z lag_20d_volatility_z rel_vol_z prev_close_loc interaction_z hurst_z
feature_infos=-1:1:2:3:4:0 -1:9:7:2:5:6:4:3:8:1:11:10:0 -1:0:1 [-162.28367684806474:109.47327120525041] [-21.517605587435579:19.213095291420451] [-17.793813094771696:18.101728225256821] [-2.6217265377471448:20.313166899695641] [-3.0021469100847114:19.276933558904041] [-3.5647058404152503:1.9206348901486563] [-22.290623753088475:22.141372243702467] [-6.1472312669439111:3.6473252033010093]
tree_sizes=2547 2966 2716 2819 2960 3075 3004 2703 3009 2872 3016 2757 2905 2935 3047 2901 2672 3016 2987 2989 3521 3593

Tree=0
num_leaves=22
num_cat=2
split_feature=2 3 5 5 5 3 5 9 3 5 3 0 3 10 5 8 5 10 10 10 9
split_gain=2059.88 436.623 405.977 341.645 287.423 99.9925 82.9619 82.1912 70.6979 53.2284 44.6094 40.969 45.1278 39.7434 34.7531 33.2084 26.5521 24.2537 14.653 12.8929 10.9676
threshold=0 -0.1916927127279148 2.3709109709284824 -1.3468028818057276 -3.2720052311163399 0.23738481346030496 4.2957574312294655 1.1461603304254908 -0.71348962089058221 0.63460498092562534 0.1008551458036112 1 -0.025324380985295311 0.74360367726314214 0.10031886507274149 0.11320754610181315 -0.49856458666481818 1.139635437239749 1.2679748369647721 0.80285860942971665 4.1018099975966571
decision_type=1 2 2 2 2 2 2 2 2 2 2 1 2 2 2 2 2 2 2 2 2
left_child=3 8 4 -1 10 -6 18 11 9 13 -3 12 -5 -2 19 -11 -13 -16 -4 -10 -8
right_child=1 2 6 7 5 -7 20 -9 14 15 -12 16 -14 -15 17 -17 -18 -19 -20 -21 -22
leaf_value=-0.024595453852024263 -0.033356985178469883 -0.10506987146404254 -0.074775456655046035 -0.079294926101219965 -0.045209509190718131 -0.050014585577698223 -0.098620039725287226 -0.054519106884868988 -0.042025031293797026 -0.053716539873454448 -0.057689832259648959 -0.087245566741173619 -0.096385321262657572 -0.044353158376678886 -0.036587972025385024 -0.018507202776157777 -0.10707195067619268 -0.047096186819407679 -0.047117597793737274 -0.047076282729426579 -0.11926524806212534
leaf_weight=402.00550170900533 6750.6994803859416 504.31643044213524 859.67943274578283 1386.3406742756843 53641.496162452779 37550.474190823617 377.00731225022173 273.11828977952246 11328.739588938673 151.06656189419846 126.84218719547971 430.29325899360992 1825.8429027654875 2230.2114046956503 9483.9999072095598 1429.0074664036256 1728.1404814592315 1270.2878658137615 110.22377989112283 3336.1334753003684 201.32071629519487
leaf_count=1397 41949 3124 5716 7167 404271 266405 2457 1136 82744 803 615 2250 10099 13363 71230 8370 9739 9238 746 23483 1301
internal_value=-0.0474607 -0.0455563 -0.048132 -0.0882056 -0.0475205 -0.0471881 -0.0843979 -0.0927366 -0.0388723 -0.033961 -0.095548 -0.0946801 -0.0888803 -0.0360876 -0.0409128 -0.0218735 -0.102863 -0.0378292 -0.0716323 -0.0431741 -0.105807
internal_weight=135397 129352 93371.4 6045.74 91823.1 91192 1548.23 5643.74 35980.1 10561 631.159 5370.62 3212.18 8980.91 25419.2 1580.07 2158.43 10754.3 969.903 14664.9 578.328
internal_count=967603 935815 684635 31788 674415 670676 10220 30391 251180 64485 3739 29255 17266 55312 186695 9173 11989 80468 6462 106227 3758
cat_boundaries=0 1 2
cat_threshold=2 22
is_linear=0
shrinkage=1


Tree=1
num_leaves=26
num_cat=8
split_feature=6 3 6 3 9 1 3 0 10 6 1 0 1 10 1 9 6 1 3 7 4 3 1 9 10
split_gain=567.707 340.504 109.653 85.7352 94.5264 78.5674 58.2058 54.3521 48.1381 47.6962 54.289 39.304 33.0975 27.966 27.4485 25.4578 22.1206 17.6203 10.6873 9.16131 9.02918 8.90426 11.8366 9.21514 7.99432
threshold=3.3622042641528487 -0.25386710643565108 7.0742976379071747 0.21925595639317594 0.043597246704217281 0 -0.82737881608632891 1 0.73255201317402419 1.0000000180025095e-35 2 3 4 0.44927440946264957 5 0.22720572568297023 -0.21659691389656324 6 -0.031792672553314881 -0.66498160633043502 0.92480055222324509 -0.028520232012554724 7 -0.41564302928754643 -0.28143734893934352
decision_type=2 2 2 2 2 1 2 1 2 2 1 1 1 2 1 2 2 1 2 2 2 2 1 2 2
left_child=1 6 5 9 7 19 8 -5 16 10 -3 -6 -10 14 -8 -11 -1 -15 -4 -2 24 22 -7 -23 -20
right_child=2 3 18 4 11 21 13 -9 12 15 -12 -13 -14 17 -16 -17 -18 -19 20 -21 -22 23 -24 -25 -26
leaf_value=0.011019925749250165 -0.073707040383384367 0.0046577178133876164 -0.043773468661466391 -0.0077096288385315381 -0.0041305189280389596 0.0084978340862692948 0.0025008300910472985 0.00055796231501110938 0.013197016016935646 -0.00070242470865026271 -0.00086153414388705858 -0.011150180246066345 -0.0044305847639559814 0.0058192862388110481 0.0090520458587954149 -0.0057483643686648293 0.01935728075175993 -0.00096426627989209168 -0.073677304801972293 -0.048757794551753539 -0.083223611980837817 -0.0087931353639814584 -0.019665549661375879 -0.026740955134134377 -0.053105628348216784
leaf_weight=3353.3942513820202 121.00619722019837 17935.92065978577 124.59469447452284 5118.690500347524 7174.4508700394799 155.17816901719198 4850.0336037437519 19381.486032196539 916.77884142782023 16815.075496510079 18417.936309675162 9512.9762787231848 1305.8468087583497 3233.3908374981165 10119.491120408251 7319.2122378627173 3145.4858918277423 4906.8171676996899 164.73760281442082 197.71422314256051 131.74850438832073 232.28551791766949 133.10721414652653 392.35472240714444 232.07376266189021
leaf_count=21694 769 145522 686 37286 48964 883 35484 136585 5033 113358 140987 67235 7678 22735 73435 48579 16875 34776 1051 1250 863 1237 738 2528 1372
internal_value=-1.41431e-05 0.000535326 -0.0389349 -0.00148268 -0.00399584 -0.0263909 0.00698128 -0.00117226 0.0119524 0.000228572 0.00186255 -0.00814136 0.00287981 0.0051052 0.00693721 -0.00223271 0.0150552 0.00173621 -0.0625891 -0.0564587 -0.0670244 -0.0151097 -0.00489316 -0.0200667 -0.061646
internal_weight=135392 133507 1884.8 101676 41187.6 1231.65 31831.2 24500.2 8721.51 60488.1 36353.9 16687.4 2222.63 23109.7 14969.5 24134.3 6498.88 8140.21 653.155 318.72 528.56 912.926 288.285 624.64 396.811
internal_count=967603 956226 11377 738516 290070 7405 217710 173871 51280 448446 286509 116199 12711 166430 108919 161937 38569 57511 3972 2019 3286 5386 1621 3765 2423
cat_boundaries=0 1 2 3 4 5 6 7 8
cat_threshold=104 16 2992 6 2094 297 3713 3602
is_linear=0
shrinkage=0.0714161


Tree=2
num_leaves=24
num_cat=7
split_feature=2 3 5 5 5 1 9 5 3 5 0 1 5 1 3 10 5 5 1 1 5 10 9
split_gain=1773.01 327.189 327.982 301.202 228.756 173.459 108.302 95.6787 66.1409 47.401 45.958 103.4 45.835 44.3555 40.3278 32.7726 32.5696 27.8454 40.0123 26.5912 16.3556 13.5253 9.39557
threshold=0 -0.12493937210780176 2.9935381027039059 -1.551445514273081 -3.2720052311163399 1 1.1461603304254908 0.73930808254219882 -0.71348962089058221 -0.5489880919126553 2 3 0.63460498092562534 4 0.1008551458036112 -0.66493703891560274 4.2957574312294655 0.094428880732883899 5 6 0.11818619173288694 0.27556718499637362 4.1018099975966571
decision_type=1 2 2 2 2 1 2 2 2 2 1 1 2 1 2 2 2 2 1 1 2 2 2
left_child=1 8 4 -2 14 10 9 -6 12 -7 11 -5 15 -14 -3 -1 21 19 -19 -10 -12 -4 -18
right_child=3 2 16 5 7 6 -8 -9 17 -11 20 -13 13 -15 -16 -17 22 18 -20 -21 -22 -23 -24
leaf_value=0.017748841659895338 0.03117374206671952 -0.053557252595823487 -0.038226655329666258 0.0059488272801870804 0.0009499855244591124 -0.036748782644973312 0.004386097254918191 -0.0061585650931557734 0.0067171743241373951 -0.058809898013538142 -0.031255248233492482 -0.032963873427307375 0.038089660066839628 0.013091203404330207 -0.0082416662364843442 0.0074539805638717174 -0.045815515502785863 0.012947205143462046 0.0048483813473274347 0.0011958989878031246 -0.051586927531583747 -0.013847988278022765 -0.065279011360900252
leaf_weight=2040.5983766397549 306.13551572890719 477.97683471840537 252.61461272468841 566.03103500018915 73833.171726281464 610.4399966977071 166.24067400430795 11110.252746988132 7493.0877268365894 2666.7907184184151 466.34291435347677 898.74692302714629 604.82451756218438 976.01642681179942 126.7153456024771 6943.6143783245097 363.66679307081722 4797.2662410582197 8955.1717395747255 10966.321555621294 355.7251266353378 214.73610898123843 193.961411771641
leaf_count=12636 991 3018 1694 3063 545460 3073 641 78006 53850 14555 2572 4883 3256 5917 615 42676 2394 36658 66675 80272 2010 1423 1265
internal_value=-1.32476e-05 0.00175227 -0.000772523 -0.037845 -0.000291371 -0.0415323 -0.051698 2.02162e-05 0.00686202 -0.0547006 -0.0258857 -0.0179885 0.0117654 0.0229793 -0.0440612 0.00979227 -0.0409311 0.00525376 0.00768644 0.0034414 -0.0395718 -0.0270253 -0.0525856
internal_weight=135386 129350 86573.1 6036.45 85548.1 5730.32 3443.47 84943.4 42776.9 3277.23 2286.85 1464.78 10565.1 1580.84 604.692 8984.21 1024.98 32211.8 13752.4 18459.4 822.068 467.351 557.628
internal_count=967603 935815 633875 31788 627099 30797 18269 623466 301940 17628 12528 7946 64485 9173 3633 55312 6776 237455 103333 134122 4582 3117 3659
cat_boundaries=0 1 2 3 4 5 6 7
cat_threshold=1 1249 22 33 101 2194 3652
is_linear=0
shrinkage=0.0714161


Tree=3
num_leaves=25
num_cat=8
split_feature=2 3 9 1 9 9 9 9 3 8 3 0 9 0 1 9 9 10 1 3 9 4 1 0
split_gain=1490.26 336.727 210.994 143.009 125.79 89.0586 82.8009 67.8592 61.589 43.5509 58.0433 67.5954 32.0334 30.7677 26.9068 39.9145 29.4667 22.7703 21.0701 20.3624 19.3086 19.2939 15.3465 8.26143
threshold=0 -0.12071796434196079 2.6951541368484762 1 1.2455855509716753 -3.7011419257597109 0.66987063305646466 -1.2996150628250847 -0.57469347320195763 0.081081079985380056 -0.045682963211726581 2 4.1018099975966571 3 4 0.29015138121556477 -0.10923048658437857 0.43948061722527915 5 0.13787809657293637 0.24933211153941373 1.9665452880028538 6 7
decision_type=1 2 2 1 2 2 2 2 2 2 2 1 2 1 1 2 2 2 1 2 2 2 1 1
left_child=1 8 5 9 7 19 -7 -5 14 -2 11 -11 23 -9 16 -16 -1 18 -10 -3 -12 -14 -19 -4
right_child=3 2 12 4 -6 6 -8 13 17 10 20 -13 21 -15 15 -17 -18 22 -20 -21 -22 -23 -24 -25
leaf_value=0.022579600270724698 0.012173666395452776 -0.036165097040013007 -0.011388087757935731 0.0018991688530839276 0.013642443493512537 0.00014293089606536293 -0.0084535762959583854 -0.064919001764484105 0.0027289382427155076 0.020335081259505887 -0.038441678815423257 -0.022243828050180492 -0.06929471972775926 -0.04500536714500699 0.0059019476427681012 0.018501445650710106 0.011041418245396306 0.0054962324291643562 0.0078994085180088044 -0.0051006892165579767 -0.018312563972602253 -0.038266038663226608 -0.00010632200965967009 -0.033195308191782819
leaf_weight=1637.9928368730889 184.58168004304298 438.35120952855505 269.96037047314076 138.23933747108094 183.12271436548326 78611.521511424507 6162.5533348795725 631.99229548178823 5887.2570416162962 260.3566734361666 992.31676773551953 643.50353541091226 142.81628887081752 2644.7122998669893 7294.9434007405735 1555.8891497121976 3632.0526568989208 4130.4378562209658 12912.055973134658 142.64019529183861 321.88997749962437 359.46005469338343 6277.5889788177356 159.36331238968432
leaf_count=10115 956 2522 1691 517 627 581545 40487 3342 43990 1434 5422 3575 952 14263 46341 8933 24355 30477 96408 665 1548 2218 45108 1011
internal_value=-7.33003e-05 0.00153752 -0.0010419 -0.0348668 -0.0438997 -0.000672956 -0.000481982 -0.0471139 0.00667433 -0.0210692 -0.0239306 -0.0100001 -0.0348452 -0.0491817 0.0105467 0.00810765 0.0145999 0.00480215 0.00628586 -0.0285384 -0.0335114 -0.0470887 0.00212224 -0.0205213
internal_weight=135616 129615 86286.7 6000.72 3598.07 85355.1 84774.1 3414.94 43328.2 2402.65 2218.07 903.86 931.6 3276.7 14120.9 8850.83 5270.05 29207.3 18799.3 580.991 1314.21 502.276 10408 429.324
internal_count=968502 936818 631091 31684 18749 625219 622032 18122 305727 12935 11979 5009 5872 17605 89744 55274 34470 215983 140398 3187 6970 3170 75585 2702
cat_boundaries=0 1 2 3 4 5 6 7 8
cat_threshold=1 1249 16 1 2154 297 2945 22
is_linear=0
shrinkage=0.0714161


Tree=4
num_leaves=26
num_cat=6
split_feature=6 3 5 6 1 1 5 3 0 3 1 3 6 1 8 6 5 9 5 6 8 9 8 9 0
split_gain=390.541 272.116 80.9226 79.0141 67.9041 60.4734 55.8634 53.4017 64.9216 52.234 42.5039 50.2663 44.5184 37.0219 35.7954 35.0994 30.9366 16 10.7177 9.78987 7.83074 15.3987 7.57745 6.48303 5.94404
threshold=3.3622042641528487 -0.23578077281217877 0.64681486421063927 7.0742976379071747 0 1 0.094428880732883899 0.1848621319056544 2 0.32348175203959617 3 -0.55836432517427681 -0.091189041990600059 4 0.18749999511718787 -0.066099664542634537 -0.92144909800980634 0.64386711716087996 2.040599591762922 4.5148148924585039 0.17902023855423035 1.7416103498174293 0.28260869506572911 -0.70289761055121514 5
decision_type=2 2 2 2 1 1 2 2 1 2 1 2 2 1 2 2 2 2 2 2 2 2 2 2 1
left_child=1 6 7 4 19 14 13 15 -9 -7 12 -12 -8 16 -4 -3 -1 -15 22 -2 -5 24 -6 -20 -22
right_child=3 2 5 20 18 9 10 8 -10 -11 11 -13 -14 17 -16 -17 -18 -19 23 -21 21 -23 -24 -25 -26
leaf_value=0.022659818208733539 -0.037253542339478057 0.0028193548848759664 0.001994253805394774 -0.068544578427580119 -0.017055542196210052 -0.00026188921293033576 -0.0035659194409637177 -0.008287389639748342 -0.0010522471654596233 -0.011394904248877992 0.016855480438490528 0.0070868586811800964 0.013122377620744984 0.002223261978756874 -0.015224100458209955 -0.0011810216790546679 0.0065427941039627856 -0.01019099018024312 -0.004109266369759796 -0.062387637769637579 -0.020743889798853905 -0.063256364296770881 0.0030730091951130458 -0.023751958010539111 -0.047788346441362768
leaf_weight=738.23669258524751 142.89638281983207 25581.188269865583 720.91916975650474 127.39369157830515 140.4849289686681 8173.2457663987007 2244.0520639720316 7949.7986092734591 30854.070127840278 2916.3641447290138 4951.9186423851688 5872.8194734597118 1280.4964923276675 14363.446009114747 4222.9832915778006 19879.579672698019 3428.1139901430579 549.77280698984941 113.33639492129441 176.87050176617049 130.74532590355739 217.7683875800285 297.14345991249138 351.41443234915278 170.76709752465831
leaf_count=4328 894 205662 4840 775 712 59777 16305 58005 218374 19252 32006 43615 8043 98624 28378 133453 23303 3165 691 1150 696 1434 1566 2387 1067
internal_value=-6.9075e-05 0.000384011 -0.00147584 -0.0324905 -0.0218087 -0.00612627 0.00596421 -0.000590976 -0.00253693 -0.00318679 0.00933063 0.011545 0.00249001 0.0034324 -0.0126877 0.00107003 0.00937607 0.00176443 -0.0112842 -0.0496045 -0.052678 -0.0487856 -0.00338854 -0.0189618 -0.038334
internal_weight=135596 133727 100298 1868.82 1222.15 16033.5 33428.9 84264.6 38803.9 11089.6 14349.3 10824.7 3524.55 19079.6 4943.9 45460.8 4166.35 14913.2 902.379 319.767 646.675 519.281 437.628 464.751 301.512
internal_count=968502 957130 727741 11372 7400 112247 229389 615494 276379 79029 99969 75621 24348 129420 33218 339115 27631 101789 5356 2044 3972 3197 2278 3078 1763
cat_boundaries=0 1 2 3 4 5 6
cat_threshold=104 108 16 1792 3584 24
is_linear=0
shrinkage=0.0714161


Tree=5
num_leaves=27
num_cat=6
split_feature=6 3 5 6 1 1 3 5 3 0 8 1 1 3 6 1 10 5 5 6 10 10 9 7 8 7
split_gain=338.701 234.638 70.2736 69.5513 61.5621 59.1305 51.1803 48.1688 38.5626 57.7287 38.4005 37.847 36.648 43.3551 38.3833 32.319 18.6311 17.9964 9.2682 8.62856 8.1647 7.93959 9.87322 5.75289 3.40351 3.17977
threshold=3.3622042641528487 -0.23578077281217877 0.50716752570034374 7.0742976379071747 0 1 0.1848621319056544 0.094428880732883899 0.19310218682992386 2 0.19540229791473954 3 4 -0.55836432517427681 -0.091189041990600059 5 0.21046497007797363 -0.70068061661128311 2.040599591762922 4.5148148924585039 0.29509256203500894 -1.0560676743496271 0.24933211153941373 0.14671596128305242 0.43209876009754861 -0.38993409976663357
decision_type=2 2 2 2 1 1 2 2 2 1 2 1 1 2 2 1 2 2 2 2 2 2 2 2 2 2
left_child=1 7 8 5 10 19 -6 15 11 -10 -4 -3 14 -14 -9 17 -17 -1 20 -2 -7 -5 24 -20 -23 -24
right_child=3 2 4 21 6 18 -8 12 9 -11 -12 -13 13 -15 -16 16 -18 -19 23 -21 -22 22 25 -25 -26 -27
leaf_value=0.01457879334322728 -0.034713331185753329 0.0039534707757767785 0.0019675262396711877 -0.065929033858994637 0.0011839371677442542 -0.011381409128340868 -0.0074471823388939963 -0.0033113899453711612 -0.0077895680253275788 -0.00067614252765212123 -0.013046333146194725 -0.00048632162524139035 0.015652336693277685 0.0065801678642545929 0.012184041783843526 0.0036921935255370868 -0.0016613900334378994 0.0053582954196714295 -0.022967963286439026 -0.058369855388577516 0.0084109994429022311 -0.044197288052362241 -0.046667302057073784 -0.0057786831556813009 -0.028114882294313377 -0.062747389283307267
leaf_weight=1446.5888834863581 142.41888336796546 14870.71078861081 1027.4868513889496 119.62911372852977 8418.5019022073247 255.51665319855238 6002.2577486893679 2243.9640729848961 7310.4652920822627 28396.860790983897 5627.4888247378904 28638.813182392321 4951.7286099273033 5873.3125388667786 1280.6158761800834 7311.6830611975638 6066.0752111783768 4255.8351901959759 320.08798557929913 175.59094161224857 182.02849175075244 131.44968120543126 112.61817056378641 143.96737012515223 137.12916902008146 141.56036725829836
leaf_count=8751 894 109119 7015 796 62528 1307 41504 16305 53284 200647 38600 215044 32006 43615 8043 50360 40626 29683 2195 1150 971 770 723 883 757 926
internal_value=-6.46715e-05 0.000356527 -0.00137061 -0.0303138 -0.00503562 -0.0202965 -0.00240687 0.0055381 -0.000395527 -0.00213487 -0.0107122 0.00103191 0.00866406 0.0107202 0.00231214 0.00318716 0.00126369 0.00768387 -0.0104879 -0.0463189 -0.00314733 -0.0493321 -0.045534 -0.0176352 -0.035986 -0.0556228
internal_weight=135584 133722 100293 1862 21075.7 1219.61 14420.8 33429.8 79216.9 35707.3 6654.98 43509.5 14349.6 10825 3524.58 19080.2 13377.8 5702.42 901.601 318.01 437.545 642.387 522.757 464.055 268.579 254.179
internal_count=968502 957130 727741 11372 149647 7400 104032 229389 578094 253931 45615 324163 99969 75621 24348 129420 90986 38434 5356 2044 2278 3972 3176 3078 1527 1649
cat_boundaries=0 1 2 3 4 5 6
cat_threshold=108 104 16 804 1792 3648
is_linear=0
shrinkage=0.0714161


Tree=6
num_leaves=26
num_cat=1
split_feature=2 6 6 3 6 3 6 6 6 10 3 3 5 5 3 3 8 4 3 3 7 5 9 3 5
split_gain=1273.62 594.581 465.008 154.877 83.5706 85.0735 81.8997 67.5209 46.7461 41.2883 45.3797 35.9087 30.161 29.808 23.4119 19.8364 29.1565 18.5611 18.3087 14.2594 9.7346 9.2472 8.015 7.64878 6.34994
threshold=0 0.44403001963311245 3.3622042641528487 -0.1916927127279148 0.69113937203855802 0.30655706572989266 7.0742976379071747 2.1819420310116353 -0.19989827770443189 0.7200033320324627 -0.79637686248788653 -0.64796063507695412 0.15452594073493983 -0.47986466182063742 -0.10748024884355788 -0.25386710643565108 0.28260869506572911 1.9665452880028538 0.11514391480354856 -0.015614013663116386 0.014904532374432856 0.31171008994295285 -0.084948454453838917 -0.025324380985295311 0.058879748563548884
decision_type=1 2 2 2 2 2 2 2 2 2 2 2 2 2 2 2 2 2 2 2 2 2 2 2 2
left_child=2 8 3 9 5 -5 14 13 11 10 -1 -2 -13 22 -4 20 -17 -6 -16 -15 -10 -11 -3 -8 -25
right_child=1 7 6 4 17 -7 23 -9 15 21 -12 12 -14 19 18 16 -18 -19 -20 -21 -22 -23 -24 24 -26
leaf_value=0.012504667468175175 -0.022035559747082035 0.01038107837561663 0.0016866426500019482 0.0027547325635049013 -0.0056488180192901189 -0.0019929874701413164 -0.041391301094768324 0.050355603422620833 -0.032094841745355422 0.00034288082631620166 0.0056989113965926893 -0.044753263253511165 -0.061432329679114037 0.007363454610995716 -0.032556451649339804 -0.025892985371672658 -0.044918918849838597 -0.017736974158535004 -0.0068052352266655975 -0.017150040991122197 -0.012634472296273359 0.0053205166212535052 0.030210986322414281 -0.0692049730888743 -0.052462852393233325
leaf_weight=6644.2201118728881 217.32670462602982 208.57259375916328 155.49273076769896 54643.438315568026 6722.3007494980811 29718.310608148633 128.39111213313299 219.90849999777856 301.10635893794824 6406.2218039451873 20154.467404636613 1198.3290123912523 1026.7461612528284 225.82738118967609 818.29383603409224 588.82303714609134 1358.8109365155324 716.9483450402804 170.08677981235087 260.79438604746974 232.20290966657922 2708.2257332287045 207.26044974068645 238.47538470197469 224.1384610736277
leaf_count=40027 1202 836 768 416916 42226 210715 778 550 1665 43514 149037 7293 5919 976 5539 3250 7212 4423 889 1127 1103 18528 687 1588 1487
internal_value=2.67295e-06 -0.0320365 0.00149901 0.00199789 0.000442373 0.00108224 -0.035226 0.014871 -0.0427299 0.00597408 0.00738627 -0.0497434 -0.0524497 0.00622412 -0.0240726 -0.0358253 -0.0391669 -0.0068138 -0.028125 -0.00577402 -0.0236218 0.00182191 0.0202647 -0.0568132 -0.0610933
internal_weight=135495 6045.71 129449 127714 91801 84361.7 1734.88 1122.36 4923.35 35913.1 26798.7 2442.4 2225.08 902.455 1143.87 2480.94 1947.63 7439.25 988.381 486.622 533.309 9114.45 415.833 591.005 462.614
internal_count=968255 31820 936435 925386 674280 627631 11049 4176 27644 251106 189064 14414 13212 3626 7196 13230 10462 46649 6428 2103 2768 62042 1523 3853 3075
cat_boundaries=0 1
cat_threshold=1
is_linear=0
shrinkage=0.0714161


Tree=7
num_leaves=24
num_cat=9
split_feature=6 9 0 6 1 1 6 0 5 4 1 1 1 1 6 10 6 5 5 4 8 8 1
split_gain=266.534 51.2814 31.7865 31.1744 34.6067 25.4974 55.5684 75.4715 26.4109 24.7202 44.2607 24.262 20.0808 11.7705 25.2081 11.7508 10.6746 9.7973 8.30171 6.46847 9.32867 9.29238 2.91134
threshold=4.5148148924585039 0.69605485930777411 0 7.0742976379071747 1 2 -0.80735127143197483 3 0.58822429549127009 -0.2601035847418634 4 5 6 7 -0.58128132367244223 -0.4094138322459403 -0.091189041990600059 0.088520473903527727 -1.0152913980504534 1.7314593718745275 0.29553099798506771 0.54666665937777814 8
decision_type=2 2 1 2 1 1 2 1 2 2 1 1 1 1 2 2 2 2 2 2 2 2 1
left_child=1 5 12 4 -2 6 7 -1 -8 10 -7 -11 15 16 -15 -3 -4 -14 -6 20 -5 -22 -20
right_child=3 2 13 19 18 9 8 -9 -10 11 -12 -13 17 14 -16 -17 -18 -19 22 -21 21 -23 -24
leaf_value=0.0079533594349678431 -0.047532650068684318 -0.01785527220429306 0.0077867606667233486 -0.055162511571725255 0.002543143873533884 -0.0053662910646210607 0.0028978873056244147 -0.024959928379081849 -0.0015886109941392994 0.0027541093047541215 0.00058731216740431013 -0.00063313669732291931 -0.027449443687538419 -0.035806997759334824 -0.0041871118034907829 0.0053951492548544562 -0.0017265432559873816 -0.013976634600096073 -0.0086458216064807889 -0.059024398801159221 -0.018096117328171877 -0.042286682611396266 -0.025412551022929917
leaf_weight=589.52247408590847 172.81373401299788 156.63946867857157 782.1462148410892 154.5676555223472 166.89799554730416 11083.979774580719 45219.512323919938 877.97473457911474 7854.455403787535 18954.006454481419 14954.26563556246 25003.595505295805 396.27681264813873 132.53496265059312 4321.8087525329274 379.3856834485955 2605.4931625461245 901.62413672854564 147.86467004842052 117.3748092004098 121.46388473777552 243.0478443572938 127.41368285252247
leaf_count=4148 1142 1006 4713 972 805 77879 321770 6068 54401 141206 106302 188023 2546 884 27573 2240 15921 5863 925 768 726 1487 887
internal_value=2.09545e-06 0.000307987 -0.00470022 -0.0328038 -0.0213371 0.0006971 0.00185454 -0.0118539 0.00223393 -0.000205024 -0.00194886 0.000827887 -0.01314 -0.00270628 -0.00511645 -0.00137356 0.000468528 -0.0179519 -0.00980249 -0.0438838 -0.0404602 -0.0342258 -0.0176436
internal_weight=135465 134213 9675.91 1251.44 614.99 124537 54541.5 1467.5 53074 69995.8 26038.2 43957.6 1833.93 7841.98 4454.34 536.025 3387.64 1297.9 442.176 636.454 519.079 364.512 275.278
internal_count=968255 960543 60746 7712 3759 899797 386387 10216 376171 513410 184181 329229 11655 49091 28457 3246 20634 8409 2617 3953 3185 2213 1812
cat_boundaries=0 1 2 3 4 5 6 7 8 9
cat_threshold=1 104 1636 5 273 273 1043 1573 279
is_linear=0
shrinkage=0.0714161


Tree=8
num_leaves=26
num_cat=1
split_feature=2 6 6 3 6 3 6 6 3 5 6 10 8 5 5 3 3 3 6 10 3 6 3 9 5
split_gain=1099.01 519.823 367.798 133.424 69.9009 73.368 63.3755 60.6423 41.1329 38.0653 37.7341 29.3906 25.8918 25.4667 25.4104 20.4282 17.764 17.1647 16.3425 15.5734 15.2755 12.7316 7.01477 6.9714 5.87828
threshold=0 0.44403001963311245 3.3622042641528487 -0.1916927127279148 0.69113937203855802 0.30655706572989266 7.0742976379071747 2.1819420310116353 -0.25386710643565108 0.094428880732883899 -0.20530115294570597 1.139635437239749 0.19999999428571499 -0.47986466182063742 0.16083446903785684 -0.059547673326984026 0.11514391480354856 -0.94160607495042947 -0.030442811967805249 1.3335123535075259 -0.62777996718869222 0.69113937203855802 -0.025324380985295311 -0.084948454453838917 0.058879748563548884
decision_type=1 2 2 2 2 2 2 2 2 2 2 2 2 2 2 2 2 2 2 2 2 2 2 2 2
left_child=1 8 3 9 5 -5 15 13 18 17 14 -11 -12 23 -10 -4 -17 -2 20 -6 -1 -15 -8 -3 -24
right_child=2 7 6 4 19 -7 22 -9 10 11 12 -13 -14 21 -16 16 -18 -19 -20 -21 -22 -23 24 -25 -26
leaf_value=-0.020744490156458507 0.0077924523061633361 0.0095724406189009788 -0.0033801581744363988 0.0025252232113469118 -0.0073781256256458304 -0.0018838203732449946 -0.03578791061732594 0.047621801184612705 -0.043100987073027612 0.0093440663011674467 -0.021406955642444228 -0.00027851754959877918 -0.04099890602456769 -0.020328149523870742 -0.060100384514126741 -0.031533379314832806 -0.0058717587839901934 0.0025055502836595204 -0.013397707377935981 0.003219149404750573 -0.040658144758732494 0.0035948114014187722 -0.062705117647715677 0.028058175616085174 -0.0464271872023111
leaf_weight=319.59667494214955 3859.6886134371562 208.67457493708935 245.03087998996489 54646.860366391091 6645.5201904841379 29716.657295619108 126.46736727454117 220.21272307939944 980.90976822056882 13601.905062169764 444.03831462128437 1837.6010677090744 1527.5612067850543 180.32845341129723 826.22805579884835 723.92110000069079 169.86709283990785 16613.264338599387 294.29664833965944 791.51403107475198 509.94034396711504 305.98295059896918 233.31142286409158 207.52568549959688 219.6881491116219
leaf_count=1748 22004 836 1356 416916 41959 210715 778 550 5996 96982 2457 12509 8175 858 4726 4951 889 119611 1436 4690 3106 1245 1588 687 1487
internal_value=1.30254e-06 -0.0298132 0.00138923 0.00183081 0.000387048 0.000972158 -0.0314317 0.0140208 -0.0398515 0.0055214 -0.0434189 0.00819879 -0.0365865 0.00582211 -0.0508732 -0.0216482 -0.0266563 0.00350227 -0.0278564 -0.00625027 -0.032986 -0.00527603 -0.0506592 0.0187898 -0.0548109
internal_weight=135457 6025.3 129431 127713 91800.6 84363.5 1718.29 1122.72 4902.57 35912.5 3778.74 15439.5 1971.6 902.512 1807.14 1138.82 893.788 20473 1123.83 7437.03 829.537 486.311 579.467 416.2 453
internal_count=968255 31820 936435 925386 674280 627631 11049 4176 27644 251106 21354 109491 10632 3626 10722 7196 5840 141615 6290 46649 4854 2103 3853 1523 3075
cat_boundaries=0 1
cat_threshold=2
is_linear=0
shrinkage=0.0714161


Tree=9
num_leaves=25
num_cat=3
split_feature=2 6 6 3 6 6 3 6 3 6 5 6 5 0 0 9 3 3 5 8 10 3 3 5
split_gain=1003.81 385.392 291.292 119.884 78.3052 66.6396 55.5943 53.6214 33.6221 49.0837 43.6537 31.3583 30.6606 32.0888 23.4756 23.1866 20.741 21.3803 16.5558 13.6126 8.45252 7.05137 8.31016 4.84809
threshold=0 0.44403001963311245 4.5148148924585039 -0.059547673326984026 1.2185877349046035 1.2185877349046035 0.88751486292157244 -0.17644969985173645 -0.57469347320195763 -0.11158657970106657 0.85645565607487295 7.0742976379071747 0.46144600305077549 1 2 0.23407271891269379 -0.35924522257163333 0.45028815670166489 2.3709109709284824 0.65408804722915004 0.79095410766542085 -0.025324380985295311 0.02711420306054212 0.43582731617217446
decision_type=1 2 2 2 2 2 2 2 2 2 2 2 2 1 1 2 2 2 2 2 2 2 2 2
left_child=1 7 3 8 6 14 -5 12 10 -10 -2 21 15 -14 -3 -1 19 -18 -6 -9 23 -4 -23 -13
right_child=2 5 11 4 18 -7 -8 16 9 -11 -12 20 13 -15 -16 -17 17 -19 -20 -21 -22 22 -24 -25
leaf_value=-0.042759232639393609 0.0061847125670228672 0.006822524786543745 -0.010283334813816575 0.0010703784162457422 -0.0084145306741048448 0.02978555894737173 -0.0059167848315726098 -0.0253758309578145 0.0058516654739176116 0.00058561068340683251 0.020022685725282856 -0.058567200172878031 -0.03386761810867811 -0.072059949080851296 -0.020490445140154079 -0.018424464223703082 -0.035318109588076615 -0.014355007404857071 -0.021427057029762303 0.003574010086097504 -0.03025109777844236 -0.039158921696105083 -0.01852400849171142 -0.043486143572765638
leaf_weight=1707.8818053875527 12816.626703249123 347.34875093551818 161.58830531506101 68381.52177617079 2587.6474678106438 472.1687346621402 6346.9988863160252 193.49441909248708 18839.390349294237 17332.713333122501 1278.7055215699147 229.55487756613002 257.5084651487341 370.18677951366408 284.1377323060442 226.14056379151339 1641.0500105314732 292.34450788988033 617.71911176720687 144.85731598269194 123.35911947634304 183.29702241812993 217.83607573446352 206.53116858539943
leaf_count=10416 82075 1433 993 511304 15850 1430 38409 1003 150601 118348 7444 1589 1707 1927 1324 1333 8941 1507 4178 744 789 1303 1357 1436
internal_value=0.000126701 -0.0285868 0.00144491 0.00176202 8.09066e-06 0.00949102 0.00047693 -0.0372814 0.00448128 0.00332831 0.00744007 -0.0347827 -0.0443649 -0.0580793 -0.0056834 -0.0399138 -0.0292937 -0.0321483 -0.0109222 -0.0129816 -0.0467559 -0.0228791 -0.0279531 -0.0514248
internal_weight=135261 5937.12 129323 128201 77933.9 1103.66 74728.5 4833.46 50267.4 36172.1 14095.3 1122.17 2561.72 627.695 631.486 1934.02 2271.75 1933.39 3205.37 338.352 559.445 562.721 401.133 436.086
internal_count=967441 31765 935676 928209 569741 4187 549713 27578 358468 268949 89519 7467 15383 3634 2757 11749 12195 10448 20028 1747 3814 3653 2660 3025
cat_boundaries=0 1 2 3
cat_threshold=2 24 7
is_linear=0
shrinkage=0.0714161


Tree=10
num_leaves=27
num_cat=9
split_feature=2 6 6 1 3 6 5 3 8 0 1 3 6 5 1 6 1 5 9 1 1 8 5 9 1 8
split_gain=870.315 342.462 253.119 173.907 103.376 88.4343 70.9417 52.439 64.3729 59.9795 51.0291 44.1116 35.2116 30.2959 49.8659 27.9484 31.4683 27.7815 43.1444 23.0975 21.9778 14.0862 6.89524 7.10246 5.37078 2.93956
threshold=0 0.21544413027125478 4.5148148924585039 1 -0.059547673326984026 1.2185877349046035 0.80317910886480925 -0.049048906787223713 0.14942528621130813 2 3 1.6254086309023468 2.1819420310116353 0.094428880732883899 4 7.0742976379071747 5 0.16687675619583645 -0.1808801462876867 6 7 0.14942528621130813 0.058879748563548884 2.0841386576082894 8 0.47169811061172751
decision_type=1 2 2 1 2 2 2 2 2 1 1 2 2 2 1 2 1 2 2 1 1 2 2 2 1 2
left_child=2 3 4 7 13 10 11 9 -9 -2 -3 -6 -8 19 -15 16 -4 21 -19 -1 -12 -5 25 -24 -18 -17
right_child=1 5 15 17 6 -7 12 8 -10 -11 20 -13 -14 14 -16 22 24 18 -20 -21 -22 -23 23 -25 -26 -27
leaf_value=0.0062411825843183295 0.028558654711697502 -0.036148650594625423 -0.048145186624013972 -0.054492908962358436 0.0010894758502169948 0.027638279153379186 -0.0046401847116487325 0.018807395375973559 -0.03606683878742506 -0.018883100610687899 0.015507002855074059 -0.010263467921385593 -0.021490098138597771 0.010811515232753539 0.0036254060279608744 -0.060503285417607779 0.001362636272301488 -0.084420625737956723 -0.048831789078998107 0.0015016767267221705 -0.0085817693677795945 -0.0378395093196306 -0.024568238169868351 -0.047414468211801952 -0.015920627356345134 -0.045585461693189958
leaf_weight=6902.8760118349819 234.64028571662493 261.72947454085806 151.10266684868111 315.58255006052809 66984.844204601759 472.49827837594785 8471.608954246014 131.09255247974397 647.9529028510824 296.05378082726384 280.51701847351978 1792.2368750832684 683.57120904254771 7655.1941393423886 13883.505938083403 117.67740311397938 142.67317213560455 208.13050113519421 1051.3226079866233 21824.964314408113 566.60016507862019 1446.045799798565 138.55649291009104 139.05282502842601 266.93691643863349 157.58794817071612
leaf_count=48871 1366 1254 1095 1804 497205 1430 58657 787 3768 1792 1123 9207 4672 56092 99990 864 924 1007 6318 153515 2651 8465 913 971 1634 1066
internal_value=0.000116656 -0.0266783 0.00134172 -0.0370645 0.0016362 0.00176633 7.4932e-06 -0.0149247 -0.026833 0.00227505 -0.00925814 0.000793634 -0.00589828 0.00416133 0.00618617 -0.0325597 -0.0213252 -0.0464597 -0.054713 0.00264321 -0.000517084 -0.0408228 -0.0439535 -0.0360118 -0.0100116 -0.0519629
internal_weight=135225 5912.17 129312 4330.82 128199 1581.34 77932.3 1309.74 779.045 530.694 1108.85 68777.1 9155.18 50266.5 21538.7 1113.59 560.713 3021.08 1259.45 28727.8 847.117 1761.63 552.875 277.609 409.61 275.265
internal_count=967441 31765 935676 25307 928209 6458 569741 7713 4555 3158 5028 506412 63329 358468 156082 7467 3653 17594 7325 202386 3774 10269 3814 1884 2558 1930
cat_boundaries=0 1 2 3 4 5 6 7 8 9
cat_threshold=1 1185 18 19 2196 104 2592 324 2576
is_linear=0
shrinkage=0.0714161


Tree=11
num_leaves=25
num_cat=13
split_feature=2 6 6 1 6 6 8 1 1 9 0 0 6 1 1 1 0 0 1 6 4 10 7 1
split_gain=754.436 298.155 220.604 152.557 76.3426 61.2285 44.6171 53.1507 44.4862 30.9472 30.7395 24.9967 24.7246 27.9753 19.9666 19.7813 49.3979 30.8718 19.4916 9.91009 9.02866 8.1952 6.51997 4.67296
threshold=0 0.21544413027125478 4.5148148924585039 1 1.2185877349046035 0.69113937203855802 0.18296222938804627 2 3 0.22008337506620407 4 5 7.0742976379071747 6 7 8 9 10 11 1.2185877349046035 -3.3785327023502343 -0.99521875200176224 0.18440213769154587 12
decision_type=1 2 2 1 2 2 2 1 1 2 1 1 2 1 1 1 1 1 1 2 2 2 2 1
left_child=1 3 5 6 8 9 -1 -8 -3 11 -11 -2 13 -4 20 16 -5 -17 -10 -16 -7 -14 -23 -15
right_child=2 4 12 15 -6 14 7 -9 18 10 -12 -13 21 23 19 17 -18 -19 -20 -21 -22 22 -24 -25
leaf_value=0.015739378592187173 0.0001953356131031098 -0.033789823370201012 -0.045419821174957194 0.0025835547272843877 0.025657642155128162 -0.01551717258322443 0.0063477464911272721 -0.029209186756448367 0.017609981656509139 -0.0056545648628598504 0.00090725088081807805 0.0031197422531162836 -0.05907650655704097 0.0012714857584431548 -0.0039498398130439665 -0.040687151599063526 -0.041192509119686867 -0.061395241835484983 -0.0068115600734995957 -0.010274770446713251 4.6042075569525705e-05 -0.029644516537080175 -0.047281405967220726 -0.014853903909980848
leaf_weight=214.92620227165753 18547.814952001027 260.73882954279543 149.39451548725265 168.48963428934803 472.61807938892161 198.22349001611292 293.35329313427246 797.87422529653486 215.16640000704865 4489.0498060810005 19087.217385816686 76168.070627925772 106.83191764331423 142.69750131870387 2602.2700562610516 1433.6236425490206 701.32012720897183 694.13845606001269 631.87030741652416 2455.7782816268736 4647.925080232515 255.5555528628538 183.78516147960181 266.41219641112184
leaf_count=1276 139600 1254 1095 977 1430 1034 1653 4784 821 31464 132502 563874 799 924 15735 8376 4104 4137 2953 14826 29174 1776 1239 1634
internal_value=0.000107558 -0.0249019 0.00124566 -0.0346436 0.00162686 0.0015195 -0.0138957 -0.01986 -0.00862556 0.00197111 -0.000344168 0.00254742 -0.030532 -0.0199664 -0.00387442 -0.0434928 -0.0327797 -0.0476983 -0.000474848 -0.00700686 -0.000589329 -0.0413362 -0.0370224 -0.00933323
internal_weight=135185 5884.12 129301 4303.73 1580.39 128196 1306.15 1091.23 1107.78 118292 23576.3 94715.9 1104.68 558.504 9904.2 2997.57 869.81 2127.76 847.037 5058.05 4846.15 546.173 439.341 409.11
internal_count=967441 31765 935676 25307 6458 928209 7713 6437 5028 867440 163966 703474 7467 3653 60769 17594 5081 12513 3774 30561 30208 3814 3015 2558
cat_boundaries=0 1 2 3 4 5 6 7 8 9 10 11 12 13
cat_threshold=2 1185 1 19 1 16 104 1923 72 16 14 68 2576
is_linear=0
shrinkage=0.0714161


Tree=12
num_leaves=26
num_cat=10
split_feature=2 6 6 1 3 6 3 0 8 9 6 3 6 1 1 0 5 1 0 1 6 3 0 5 7
split_gain=597.501 322.38 192.032 133.64 89.9765 63.3451 58.1033 74.437 66.0521 45.2825 43.2708 64.0808 40.172 39.6832 38.488 38.0876 35.9088 31.011 29.3031 16.9881 16.6398 10.3589 8.82881 6.60618 4.57459
threshold=0 0.69113937203855802 3.3622042641528487 1 0.19729232995375459 0.20676227714152812 -0.049048906787223713 2 0.1416666654861046 -1.0000000180025095e-35 0.14209606140169917 -0.82737881608632891 7.0742976379071747 3 4 5 0.29770165414690963 6 7 8 1.3319520902283799 -0.031792672553314881 9 -0.92144909800980634 -0.66498160633043502
decision_type=1 2 2 1 2 2 2 1 2 2 2 2 2 1 1 1 2 1 1 1 2 2 1 2 2
left_child=1 3 4 6 10 16 7 -1 -8 18 14 -12 17 -3 -2 -11 -5 24 -6 -7 -15 -14 -23 -19 -4
right_child=2 13 12 5 9 19 8 -9 -10 15 11 -13 21 20 -16 -17 -18 23 -20 -21 -22 22 -24 -25 -26
leaf_value=0.031547062856239511 0.0018318220249588786 0.041457944020168162 -0.047907486615410194 -0.035386011500389968 0.0066444029074914854 0.0014582728047984619 0.022019664507668929 -0.016700475242539561 -0.031026617844789505 -0.0063104347350778165 0.014750020583934164 -0.0010674230993415075 -0.018947019985854414 -0.005250589629393833 0.005343192756070256 -0.00016414354310161108 -0.052216223302480914 0.00023876294295283905 -0.00026687099290345829 -0.024029529232262297 0.019640789378977265 -0.018429678793657468 -0.049905211645583092 -0.013024074479770052 -0.029404736003282587
leaf_weight=288.93882331419445 31353.728461021754 267.73129691393115 109.28786579983716 2026.7578984740212 3810.2803645072026 215.73783789179652 141.8469116884371 350.04692318901652 767.50745693242152 12087.708067774651 1395.1197424096135 20522.271722450361 102.68200602089928 257.55935546742694 32411.908007965401 8955.7596738210759 949.46310910448392 305.55534129169246 17290.917193962388 358.09370011117426 292.56963583419565 99.934111157308507 330.82989829481448 513.35148044651214 181.0563194522183
leaf_count=1639 235226 919 739 11999 27065 877 828 2063 4332 87356 6578 135467 639 1048 248646 62756 5587 1692 122954 1727 839 650 2508 3483 1218
internal_value=2.20466e-05 -0.0221722 0.00103623 -0.0288491 0.00134802 -0.0364636 -0.0110836 0.00534861 -0.0227521 -0.0013536 0.00267686 -6.05867e-05 -0.023226 0.0194509 0.00361777 -0.00369775 -0.0407551 -0.0154813 0.000984132 -0.0148405 0.00784455 -0.0393306 -0.0441895 -0.00797794 -0.0351584
internal_weight=135387 5916.25 129470 5098.39 127828 3550.05 1548.34 638.986 909.354 42144.7 85683 21917.4 1642.7 817.86 63765.6 21043.5 2976.22 1109.25 21101.2 573.832 550.129 533.446 430.764 818.907 290.344
internal_count=968835 31858 936977 29052 926048 20190 8862 3702 5160 300131 625917 142045 10929 2806 483872 150112 17586 7132 150019 2604 1887 3797 3158 5175 1957
cat_boundaries=0 1 2 3 4 5 6 7 8 9 10
cat_threshold=2 1185 18 452 1355 25 104 1 324 16
is_linear=0
shrinkage=0.0714161


Tree=13
num_leaves=26
num_cat=6
split_feature=2 6 6 6 9 0 5 9 6 5 0 0 6 4 0 8 5 0 9 7 5 4 7 10 5
split_gain=517.93 280.324 167.921 54.5451 45.4094 34.544 30.8322 26.7669 24.6349 23.4445 20.9764 20.3601 20.0247 18.0223 22.4842 15.9976 14.4465 14.0677 12.2239 9.0125 7.74828 6.86186 6.43389 4.37334 6.06935
threshold=0 0.69113937203855802 4.5148148924585039 -0.17644969985173645 0.22008337506620407 1 -1.2947623748553896 0.20656932866661151 1.117667801942811 0.17875679746025039 2 3 7.0742976379071747 -0.25301194320315451 4 0.26966291831839734 0.094428880732883899 5 0.79661281621677615 0.48510983192048457 0.058879748563548884 0.080317160178356675 0.06925982381397057 0.79095410766542085 0.19180115358877625
decision_type=1 2 2 2 2 1 2 2 2 2 1 1 2 2 1 2 2 1 2 2 2 2 2 2 2
left_child=2 3 4 5 8 7 -3 -2 10 -7 -1 18 23 14 -5 -15 -13 -8 -6 -10 22 -22 -14 24 -4
right_child=1 6 12 13 11 9 17 -9 19 -11 -12 16 20 15 -16 -17 -18 -19 -20 -21 21 -23 -24 -25 -26
leaf_value=0.0042856550145466922 -0.031882145352411878 0.037596609153368786 -0.010095448650905841 0.010318033934075993 -0.0032818185600273346 -0.036526580158206423 0.018725691781458786 -0.0077824321340878976 -0.0069336332243605699 -0.059463369469208917 0.0015952066914403896 -0.0028569651083266401 -0.031745673661302688 -0.010889468727757779 -0.0171194635881417 -0.027925451323777672 0.00093525040823203335 -0.004093197041429123 -0.011034298992365955 0.0017026899218323859 -0.014134156224566258 -0.037660248248524528 -0.054741708439372101 -0.0065753948637169964 -0.028008435910140423
leaf_weight=18153.369658887637 1291.8920058939402 274.7458165185526 154.5627345106077 186.65985264292249 3850.4586906063341 539.53581760707289 286.95922683062963 287.33272596475422 2151.0935691220657 392.71905937309293 79685.090995302206 7996.0377272150708 101.46107627471793 361.32509809675503 741.56850421229319 1266.7449315641452 14262.154137100371 255.97330462200625 1419.8583333249771 863.74261378654046 103.61245882116418 162.24551563514979 159.76127385362634 137.79793924982732 256.68060517128833
leaf_count=136234 7935 738 889 977 27269 3316 1042 1698 13719 2454 586318 54659 751 1965 3956 6751 97827 1026 9172 4381 703 1174 1169 900 1812
internal_value=1.98945e-05 -0.0207 0.000961869 -0.0269607 0.00119735 -0.0344356 0.018102 -0.0273243 0.00189907 -0.0456987 0.00209501 -0.00137346 -0.0271316 -0.0196168 -0.0116753 -0.0241446 -0.000426874 0.00823691 -0.00536022 -0.00445935 -0.0370745 -0.0284915 -0.0458098 -0.0175864 -0.021276
internal_weight=135343 5885.46 129458 5067.78 128382 2511.48 817.678 1579.22 100853 932.255 97838.5 27528.5 1076.12 2556.3 928.228 1628.07 22258.2 542.933 5270.32 3014.84 527.08 265.858 261.222 549.041 411.243
internal_count=968835 31858 936977 29052 929579 15403 2806 9633 740652 5770 722552 188927 7398 13649 4933 8716 152486 2068 36441 18100 3797 1877 1920 3601 2701
cat_boundaries=0 1 2 3 4 5 6
cat_threshold=1 26 1 1 2 7
is_linear=0
shrinkage=0.0714161


Tree=14
num_leaves=27
num_cat=8
split_feature=2 6 6 1 3 1 6 1 3 6 1 0 6 9 8 3 1 6 10 10 9 3 10 3 0 10
split_gain=448.857 246.514 148.892 127.42 81.785 51.3473 40.4158 40.2167 37.4741 49.7588 36.9331 109.127 33.1403 32.0394 32.0241 28.3256 28.2994 28.2095 27.4887 26.0932 25.4742 16.2613 11.9706 9.42995 8.67076 2.02904
threshold=0 0.46306425988861716 2.6602238121644604 1 0.24230145073224449 2 7.0742976379071747 3 -0.44392296397142844 0.0657438405761374 4 5 -0.32478514855933999 -0.40278512543080908 0.097285067653202079 -0.40238797708283092 6 1.3319520902283799 0.65151313187535165 1.139635437239749 0.024454772687102732 -0.018957317564539222 0.38870295001595428 -0.031792672553314881 7 0.15020248480218298
decision_type=1 2 2 1 2 1 2 1 2 2 1 1 2 2 2 2 1 2 2 2 2 2 2 2 1 2
left_child=2 3 4 12 8 -3 16 20 19 -10 11 -5 13 -2 -12 -14 25 21 -9 -1 -6 -7 -18 -8 -25 -4
right_child=1 5 6 10 7 17 23 18 9 -11 14 -13 15 -15 -16 -17 22 -19 -20 -21 -22 -23 -24 24 -26 -27
leaf_value=0.0061911746657838619 -0.082835741514529271 0.036502394516425896 -0.041622749821696642 -0.033380388612720871 -0.0027808558954720026 0.0051829867743693704 -0.015295561883173551 -0.0019055025585944154 0.0029312971459748518 -0.0011075093358365634 0.0086671520827471225 0.042102161298437704 -0.0064338416264426435 -0.043879957715371141 -0.021419790328830512 -0.035854491466231077 -0.013640343666613795 0.018470342082892048 0.0028257451448983387 -0.0018262490206233258 -0.012495616034961949 -0.020793871811966163 -0.00046594128439886285 -0.015054664612816163 -0.045211058392764181 -0.028556945571168224
leaf_weight=16636.774461629615 128.80370322731324 287.94109505601227 131.51627924924105 177.70554701444053 3012.5245272310603 226.96594351992826 101.10633135733951 23051.312520963293 48023.228637519424 23013.948512870425 200.19827453349762 194.26367370704156 189.76890032857773 656.57709830135491 1827.4543406403345 1385.2331106558049 846.21975008132131 314.39946066372795 8599.8022888181513 2364.6525406649562 2535.2211616127115 268.07262571463798 602.0067568532163 98.144151970835082 321.35691779186891 112.4511904603678
leaf_count=110532 590 889 889 1012 22792 1016 639 162790 378485 154996 1138 1084 1033 4264 10723 7910 5416 972 58808 14892 19138 1227 3680 650 2508 762
internal_value=1.82054e-05 -0.0193188 0.000893168 -0.0263534 0.00121257 0.0111946 -0.0174729 -0.00160435 0.00237637 0.00162284 -0.0145559 0.00611112 -0.0381238 -0.0502688 -0.0183586 -0.0323097 -0.0121195 0.00171967 -0.000619798 0.00519344 -0.00720734 -0.00888397 -0.00810795 -0.0348738 -0.0395924 -0.0341986
internal_weight=135308 5857.38 129450 4760 127237 1097.38 2212.8 37198.9 90038.6 71037.2 2399.62 371.969 2360.38 785.381 2027.65 1575 1692.19 809.438 31651.1 19001.4 5547.75 495.039 1448.23 520.607 419.501 243.967
internal_count=968835 31858 936977 27754 922433 4104 14544 263528 658905 533481 13957 2096 13797 4854 11861 8943 10747 3215 221598 125424 41930 2243 9096 3797 3158 1651
cat_boundaries=0 1 2 3 4 5 6 7 8
cat_threshold=1 2838 1284 2176 1 10 96 16
is_linear=0
shrinkage=0.0714161


Tree=15
num_leaves=25
num_cat=1
split_feature=2 6 6 3 3 6 6 3 5 9 3 10 5 3 8 5 8 5 6 8 4 8 5 6
split_gain=410.975 186.774 138.791 73.438 48.1717 48.1753 40.8186 40.7697 38.4362 29.4276 28.6257 27.4815 27.6613 20.9624 21.1625 18.1408 16.882 13.0537 12.818 10.1987 9.18305 6.91349 5.07666 4.72782
threshold=0 0.44403001963311245 4.5148148924585039 -0.34316576022934869 1.2722806152483808 0.14209606140169917 -0.4077280767010244 -0.090770983396316757 -1.7608294079321107 -0.4714154505362213 0.043194158852679673 0.49030707545553848 0.85645565607487295 -0.40238797708283092 0.6913580161560734 0.16687675619583645 0.78107980380642472 -0.065512787874398626 7.0742976379071747 0.91718560606768085 -0.40922749966688082 0.29999999250000559 0.17875679746025039 0.90693909690840813
decision_type=1 2 2 2 2 2 2 2 2 2 2 2 2 2 2 2 2 2 2 2 2 2 2 2
left_child=1 6 3 11 5 -5 9 -4 -3 -1 23 12 -2 14 -8 -15 -6 -12 22 -11 -13 -20 -9 -10
right_child=2 8 7 4 16 -7 13 18 10 19 17 20 -14 15 -16 -17 -18 -19 21 -21 -22 -23 -24 -25
leaf_value=-0.065368711022518927 0.0053336468267420022 0.035172775085141231 0.016999137416605622 0.0013686043474434165 -0.0056409446687670402 -0.0022139959631321477 -0.019263461965389965 -0.010732910478877365 0.0043092857853519418 -0.034552571373540029 -0.00087722107064721732 0.0050413202227477067 0.015776094336532188 -0.018873020825265045 0.010779785822911418 -0.030219082196994901 -0.018036810123441993 -0.028473097120854725 -0.050934640806239891 -0.012066740610731585 -0.00027534591970778283 -0.032064907256766181 -0.026168757395376874 0.017397723944282139
leaf_weight=155.20424821099732 14699.277681672504 209.29673700034618 108.17043708974961 75044.057776879403 2465.5109843964965 25699.249059892958 305.33429424546193 163.30732923467076 267.68183495591802 898.18245835170205 173.16443574347068 2288.9382027262254 1418.6454263198793 1861.3438485579791 196.56592326349346 1170.800181092578 725.17054605671001 176.57025131431874 137.47847077214101 116.18460317914355 6000.7144445902686 354.0734932571213 324.80730609225793 296.86468712444912
leaf_count=778 101028 552 569 579704 13359 167107 1693 936 1145 5936 723 14191 9071 10562 1055 6951 3996 766 1066 674 40809 2616 2372 1052
internal_value=-4.16627e-05 -0.0185946 0.000793629 0.00100894 0.000181077 0.000454696 -0.0248436 -0.024608 0.0075655 -0.0364082 0.00124566 0.00453418 0.00625276 -0.0210163 -0.00749722 -0.0232541 -0.00845825 -0.0148095 -0.0292021 -0.0319771 0.00119269 -0.0373424 -0.0210044 0.0111918
internal_weight=135257 5827.19 129429 128342 103934 100743 4703.62 1087.84 1123.58 1169.57 914.281 24407.6 16117.9 3534.04 501.9 3032.14 3190.68 349.735 979.667 1014.37 8289.65 491.552 488.115 564.547
internal_count=968711 31887 936824 929265 764166 746811 27649 7559 4238 7388 3686 165099 110099 20261 2748 17513 17355 1489 6990 6610 55000 3682 3308 2197
cat_boundaries=0 1
cat_threshold=2
is_linear=0
shrinkage=0.0714161


Tree=16
num_leaves=24
num_cat=10
split_feature=2 6 6 1 0 3 1 3 1 6 1 3 6 0 8 10 5 10 1 1 6 0 10
split_gain=356.222 164.061 120.667 109.364 143.466 63.3324 57.0104 43.434 47.821 42.9343 41.9253 35.8493 34.0979 33.6027 26.9843 23.7043 24.77 22.4985 19.2581 18.6599 14.8956 14.0875 6.95676
threshold=0 0.21544413027125478 4.5148148924585039 1 2 -0.34316576022934869 3 0.81787960830618223 4 0.14209606140169917 5 -0.078723682457833025 2.1819420310116353 6 0.19999999428571499 0.49030707545553848 0.536072123460824 -0.86895440601700347 7 8 7.0742976379071747 9 -0.99521875200176224
decision_type=1 2 2 1 1 2 1 2 1 2 1 2 2 1 2 2 2 2 1 1 2 1 2
left_child=1 3 5 4 -1 15 -3 9 -9 -7 21 -4 17 -12 -6 16 -2 -8 20 -17 -13 -5 -20
right_child=2 6 11 10 14 7 12 8 -10 -11 13 18 -14 -15 -16 19 -18 -19 22 -21 -22 -23 -24
leaf_value=-0.05297382443332295 0.0044750167065243643 0.038864961749230806 0.013172881617122325 -0.011585263757949571 0.052420825748963083 0.0014705940604057013 -0.030176792193148654 -0.014623082139130335 -0.0016791418855951084 -0.0019696199403833382 -0.029553494139413657 0.0051454314129705508 0.024811546154269306 -0.050475695499061307 0.013135138944854166 -0.0091273697183185346 0.011691973292717249 -0.0032099067771689184 -0.049576896161803712 0.0022244577907893962 -0.02770726874452524 -0.026277821482910316 -0.031157966767922259
leaf_weight=164.76311042312591 13140.890785968713 179.00103398156352 123.45642150030471 635.08150035549625 118.98202660384413 71344.731391865746 185.64493253998808 1954.9298394169905 5652.3848537618451 24980.7550327434 1394.8033299380477 142.97851355973398 195.89328983821906 657.01869374982562 355.93717780851784 809.55479906638902 2974.6109687329026 1051.6957207070936 129.43678196332621 7480.0486708214776 138.64698870727807 860.31902182926297 544.72504664745429
leaf_count=836 90430 495 668 3716 699 553808 909 12797 34134 163427 8479 947 509 4095 2223 5549 19669 4630 958 49451 1083 5296 3903
internal_value=-3.90067e-05 -0.0173554 0.000736933 -0.0248093 0.00254671 0.000936909 0.00200214 0.00016814 -0.00502691 0.00057842 -0.029666 -0.0230431 -0.00285304 -0.0364654 0.0225036 0.00421083 0.00580713 -0.00725589 -0.0277211 0.00110752 -0.0106501 -0.0201564 -0.0341872
internal_weight=135216 5799.14 129417 4186.9 639.682 128338 1612.23 103933 7607.31 96325.5 3547.22 1079.24 1433.23 2051.82 474.919 24405.1 16115.5 1237.34 955.787 8289.6 281.626 1495.4 674.162
internal_count=968711 31887 936824 25344 3758 929265 6543 764166 46931 717235 21586 7559 6048 12574 2922 165099 110099 5539 6891 55000 2030 9012 4861
cat_boundaries=0 1 2 3 4 5 6 7 8 9 10
cat_threshold=2 33 8 4 2592 1224 14 2577 16 24
is_linear=0
shrinkage=0.0714161


Tree=17
num_leaves=27
num_cat=11
split_feature=2 6 6 1 3 1 5 3 0 1 0 1 6 0 6 6 1 3 6 3 1 3 5 1 3 3
split_gain=309.504 144.318 108.298 100.327 60.1148 56.889 43.1025 38.3763 37.471 69.7319 34.7403 30.6176 28.8482 26.8014 26.7774 25.3667 51.3207 40.7088 24.7496 22.6576 21.7913 21.3801 16.2072 15.4933 9.97907 4.9775
threshold=0 0.44403001963311245 2.1819420310116353 1 0.19310218682992386 2 0.81948025971437055 -0.10748024884355788 3 4 5 6 -0.34793333876241861 7 7.0742976379071747 -0.042740174770504839 8 -0.54324274278835116 1.3319520902283799 -0.12923465401527151 9 -0.3758566662123457 0.30499198407833505 10 0.024133025388048682 -0.2188602944057845
decision_type=1 2 2 1 2 1 2 2 1 1 1 1 2 1 2 2 1 2 2 2 1 2 2 1 2 2
left_child=2 3 4 8 15 -3 10 23 9 -2 -6 24 13 -5 -13 16 -1 -17 19 -7 -8 -14 -10 -4 -9 -25
right_child=1 5 7 12 6 18 20 11 22 -11 -12 14 21 -15 -16 17 -18 -19 -20 -21 -22 -23 -24 25 -26 -27
leaf_value=0.00033535597538724359 0.018135391020435612 0.040723283641997093 -0.012154728052388191 -0.024893127094127523 -0.0046936171612602445 0.012124486187073376 -0.0021861505612233933 -0.047002450319798751 -0.016624889741774101 -0.014911701017302135 0.00063177395352027302 -0.0091620954903733464 -0.006191074026795613 -0.056672642475599964 -0.029964146909565757 0.0068041001724879818 0.0049585543022809082 -0.00043424182787102518 0.01417752607857979 -0.018998195836681435 -0.012784440882925437 -0.030531169911412945 -0.03740237453981924 0.025652565974561226 -0.022715973297921351 0.0070181294954228908
leaf_weight=20509.334559413095 473.59691940449693 195.57378807663918 150.79091186536243 287.50963451632879 7852.3607826285333 168.47040484202444 1764.6322406134723 209.24171725098131 629.73387396207545 990.10078403659509 30417.020434228751 1624.7238757326268 212.59684622759232 408.15227083409263 391.69629143208658 4596.5800539588454 30418.614881103058 28741.281944295268 348.90092022996396 408.79248870885203 2288.3357692705385 1371.1763945590942 275.13185622208402 139.99291176255792 146.84626785150249 153.0229298773047
leaf_count=155665 2759 579 775 2141 58035 714 11366 1625 3745 5775 217538 10473 1193 2321 2966 25343 238523 196739 1080 1865 15220 8087 1628 679 1003 874
internal_value=-3.74245e-05 -0.0162212 0.000684158 -0.0217699 0.000992318 0.00677029 -0.00120368 -0.0131671 -0.0113105 -0.00416842 -0.000461986 -0.0167727 -0.0324462 -0.044711 -0.0131378 0.00209525 0.00309777 0.000563771 -0.000830144 -0.00991524 -0.00820696 -0.0272639 -0.0226917 0.00610793 -0.0359767 0.0153956
internal_weight=135174 5769.74 129404 4648 126588 1121.74 42322.3 2816.31 2368.56 1463.7 38269.4 2372.51 2279.44 695.662 2016.42 84265.8 50927.9 33337.9 926.164 577.263 4052.97 1583.77 904.866 443.807 356.088 293.016
internal_count=968711 31887 936824 27649 918429 4238 302159 18395 13907 8534 275573 16067 13742 4462 13439 616270 394188 222082 3659 2579 26586 9280 5373 2328 2628 1553
cat_boundaries=0 1 2 3 4 5 6 7 8 9 10 11
cat_threshold=1 1257 260 22 33 16 96 24 1291 837 2085
is_linear=0
shrinkage=0.0714161


Tree=18
num_leaves=27
num_cat=13
split_feature=2 6 1 6 3 4 0 0 1 0 6 3 1 0 3 1 1 10 10 1 0 6 3 9 0 7
split_gain=303.241 142.8 91.1593 87.2928 48.3997 42.4135 47.8045 38.4615 51.731 38.2931 34.443 49.5199 29.9619 27.0685 79.125 29.8826 24.5838 19.7905 17.5993 15.2065 12.2416 12.0388 10.6655 9.27392 7.62329 4.62884
threshold=0 0.46306425988861716 1 2.6602238121644604 0.21494115973986028 0.92480055222324509 2 3 4 5 0.14209606140169917 -0.79637686248788653 6 7 -0.40238797708283092 8 9 0.5002669454865879 0.30564797958129569 10 11 -0.51584267470496725 -0.074755208524745625 -1.0957841535575255 12 -0.45427413451568882
decision_type=1 2 1 2 2 2 1 1 1 1 2 2 1 1 2 1 1 2 2 1 1 2 2 2 1 2
left_child=3 2 7 4 10 6 -6 8 -2 -3 12 -12 -1 14 -4 -15 23 19 22 -11 -7 -9 -18 -5 -20 -25
right_child=1 9 13 16 5 20 -8 21 -10 17 11 -13 -14 15 -16 -17 18 -19 24 -21 -22 -23 -24 25 -26 -27
leaf_value=0.0053901754887742759 0.014564787622912669 0.032253513150828209 0.025126564597969997 -0.015057580597844395 -0.0054193572750964166 -0.0034951827025037001 0.0010048828265254543 -0.039525217481323156 -0.013701214164111908 0.0040201301595846756 0.012089600318743156 -0.0014564277785970954 0.0018450857502641336 -0.026274095056904392 -0.030989620916459404 -0.057765676528316851 -0.0006179719215671617 0.013592723591082486 0.0033063020063382378 -0.020619807255949103 -0.011517026333902567 -0.019112386674954143 -0.019403881162359717 -0.051142340287873893 -0.010779767419053366 -0.030444841574864611
leaf_weight=16191.24768716325 487.09685137793622 234.72380725026596 140.98430079795071 108.45860065605666 7434.6181095491738 1743.8364998511788 28607.063008656402 186.72833124702447 977.80137519881828 245.46188219994656 1475.7305531299207 20451.415520151349 48918.232382356073 355.94718511178962 1408.1331043071114 391.87576927189366 186.90822406782536 332.28274719390902 502.04314265811672 255.71834510832559 2265.0576084912718 698.86066624364685 879.12160249937324 107.82586393917882 308.62724854725457 112.72214316114332
leaf_count=123096 2796 748 836 759 54825 11091 204446 1218 5772 1042 7061 135060 371341 2497 8405 2104 1046 1200 3170 1072 14662 4125 6039 784 1977 852
internal_value=1.82193e-06 -0.0160959 -0.0215078 0.000713451 0.000957919 -0.00109662 -0.000321524 -0.0114516 -0.00426739 0.00744978 0.00190333 -0.000544759 0.00272778 -0.031611 -0.0257165 -0.0433209 -0.0133721 7.65374e-05 -0.0100258 -0.00888317 -0.00806504 -0.023155 -0.0161101 -0.0312071 -0.00214854 -0.0405638
internal_weight=135009 5715.61 4647.43 129293 127087 40050.6 36041.7 2350.49 1464.9 1068.19 87036.6 21927.1 65109.5 2296.94 1549.12 747.823 2205.71 833.463 1876.7 501.18 4008.89 885.589 1066.03 329.007 810.67 220.548
internal_count=968024 31815 27753 936209 921582 285024 259271 13911 8568 4062 636558 142121 494437 13842 9241 4601 14627 3314 12232 2114 25753 5343 7085 2395 5147 1636
cat_boundaries=0 1 2 3 4 5 6 7 8 9 10 11 12 13
cat_threshold=1 1257 16 22 33 2 2084 14 772 96 474 18 22
is_linear=0
shrinkage=0.0714161


Tree=19
num_leaves=27
num_cat=13
split_feature=2 6 1 6 3 0 0 1 5 0 1 6 3 1 0 3 1 1 1 5 3 9 6 8 0 3
split_gain=263.282 124.427 80.4813 75.5451 41.7477 34.5926 33.5013 44.7775 32.7649 41.0831 39.3408 30.2871 45.7264 32.9897 24.3993 68.8758 26.9935 21.6413 14.5594 12.1688 10.1402 9.47686 9.15013 7.79701 7.17123 6.72432
threshold=0 0.46306425988861716 1 2.6602238121644604 0.21494115973986028 2 3 4 0.24356087162198478 5 6 -0.042740174770504839 -0.94160607495042947 7 8 -0.40238797708283092 9 10 11 0.31171008994295285 -0.063394860533665984 2.6951541368484762 7.0742976379071747 0.5116279020191129 12 -0.067134781173993144
decision_type=1 2 1 2 2 1 1 1 2 1 1 2 2 1 1 2 1 1 1 2 2 2 2 2 1 2
left_child=1 2 6 4 11 -3 7 -1 9 -6 -10 13 -13 -2 15 -4 -16 20 -7 -8 -5 -22 23 -19 -24 -20
right_child=3 5 14 17 8 18 19 -9 10 -11 -12 12 -14 -15 16 -17 -18 22 25 -21 21 -23 24 -25 -26 -27
leaf_value=0.013526440164539617 0.005358768872447202 0.023084728075350974 0.023192470875937423 -0.003963301568574557 0.0026536700452742638 0.013310533969792213 -0.016442861266725298 -0.012772844730852998 0.00050110289287026006 -0.0030520643768071191 -0.007386626182583571 0.010765345285664635 -0.0004958277189818876 0.00156729883333823 -0.024649637852130864 -0.029047686438734725 -0.054720929329424961 -0.010202413649666614 -0.019701506811518048 -0.034846273001791335 -0.020941502994943257 -0.040736916290316262 -0.004426730358734466 0.0015279672028791155 -0.026675218174412017 -0.0025968885752565497
leaf_weight=487.77288396302674 17720.736566906413 404.28514357621316 141.80137546520564 119.35703225998441 16328.536179397586 185.77820872736629 620.19749215162301 974.80573821396183 5725.5457615227797 10609.923230695622 7384.0133984208142 1948.1440059901652 32838.822378218407 34526.634374940579 353.07686721368418 1395.4645224761625 384.95138443543647 588.03867674228104 206.26475332086557 260.10328028865842 418.41687280175029 174.90900846079603 143.62997785014159 568.29554393745775 186.03098505931484 271.54841182837845
leaf_count=2796 138195 1445 836 687 115657 649 3757 5772 39812 76628 52927 9472 222385 266506 2497 8405 2104 3660 916 1586 2928 1312 1003 3578 1459 1052
internal_value=8.92015e-07 -0.0150394 -0.0201195 0.000662394 0.000889469 0.00693026 -0.0106708 -0.00396969 -0.00101874 0.000406274 -0.00394695 0.00176751 0.000134822 0.00285458 -0.0296715 -0.0240723 -0.0408565 -0.0124624 -0.00321114 -0.0216348 -0.0226387 -0.0267771 -0.00737992 -0.00443736 -0.0179252 -0.00977609
internal_weight=134967 5686.05 4618.17 129281 127082 1067.88 2342.88 1462.58 40048 26938.5 13109.6 87034.3 34787 52247.4 2275.29 1537.27 738.028 2198.68 663.591 880.301 712.683 593.326 1486 1156.33 329.661 477.813
internal_count=968024 31815 27753 936209 921582 4062 13911 8568 285024 192285 92739 636558 231857 404701 13842 9241 4601 14627 2617 5343 4927 4240 9700 7238 2462 1968
cat_boundaries=0 1 2 3 4 5 6 7 8 9 10 11 12 13
cat_threshold=2 1257 6 22 33 7 1797 2148 14 772 106 2338 24
is_linear=0
shrinkage=0.0714161


Tree=20
num_leaves=31
num_cat=6
split_feature=3 5 1 8 3 5 1 8 1 3 9 1 3 1 3 3 5 3 10 9 8 0 9 9 5 7 7 8 4 7
split_gain=47.6097 45.4943 40.9209 32.6171 32.2317 28.3858 41.8304 27.8123 27.3865 27.0827 27.064 23.829 44.2577 64.4169 23.363 22.4464 22.6647 20.6282 20.2 16.0262 15.5335 14.5543 12.8786 12.6158 10.5937 10.5114 9.2992 9.10029 5.35014 4.64435
threshold=-0.34316576022934869 0.81948025971437055 0 0.18749999511718787 0.68265441433118002 0.12374310284134304 1 0.02799999991600154 2 -2.233732349236782 -0.1808801462876867 3 1.1717259305533665 4 -0.067134781173993144 -0.66853588020524801 -0.78985490927089153 -0.8995563866379791 -0.32276267619990207 0.12354534992344386 0.66666665432099126 5 0.55769092773691542 0.69605485930777411 1.8388049176219794 -0.90665386057186159 -0.13392934690256253 0.92045454022469209 1.1513322818185763 -0.32602923455443467
decision_type=2 2 1 2 2 2 1 2 1 2 2 1 2 1 2 2 2 2 2 2 2 1 2 2 2 2 2 2 2 2
left_child=5 11 3 24 14 8 10 -8 9 21 29 12 22 -14 -4 16 -10 -9 -11 -5 -12 -1 -2 26 -3 -17 -13 -25 -6 -7
right_child=1 2 4 19 28 6 7 17 15 18 20 23 13 -15 -16 25 -18 -19 -20 -21 -22 -23 -24 27 -26 -27 -28 -29 -30 -31
leaf_value=0.030178993180862573 0.0019960555741085476 0.010450016906691222 0.0054774773344832542 -0.0076616576662965211 -0.013463969302840552 0.030970438763817991 -0.015737168385503732 0.014607025207899152 0.019245030142681148 0.0019426774744518071 -0.010061360035574807 -0.001746272687835039 0.016088668456359083 -0.018587114088915078 -0.0030168933116537645 0.012272786244170582 0.004998096871698404 0.0065286924809360037 -0.0065462267063554807 -0.017562341493744464 0.0018986722525258411 0.0029953409287270956 -0.0028027442462293822 -0.0072005209743924489 -0.011696556745546226 -0.00088171026887032483 0.0001711096243287325 0.0041645709070267448 -0.028354220567879007 0.011426582322446957
leaf_weight=173.37926140241325 37210.5605741045 440.19298028804269 2247.9306722830352 1459.4016772729556 493.59405944007995 107.89657708065351 239.23674371902689 2319.8305921646152 700.22944015898247 2155.8542227031303 1274.625819870138 26965.790081485302 347.46367325825645 1184.5295396971799 6223.431153947311 335.56782133096613 3050.6615678018725 5284.9353632509965 4244.4868380628177 1945.397330721491 979.45593309646574 243.1688661192311 3089.0864970349576 2562.9170746555319 146.93057229240367 4037.3552676343866 24734.253345800385 417.93380820991297 163.94845135111245 145.83668440360452
leaf_count=713 273354 2924 16125 10168 2961 764 1397 13678 3780 15070 8584 210559 1709 6930 44058 2483 19179 38563 28694 12666 6636 1087 19824 16709 983 28610 175213 2784 859 960
internal_value=1.19505e-07 -0.000644229 -0.00458984 -0.0106113 -0.00194299 0.00279312 0.0056674 0.00822824 0.000801656 -0.00253479 -0.00236585 -0.000107825 0.00117502 -0.0107388 -0.000762857 0.00360003 0.00765776 0.00899298 -0.00368687 -0.0133186 -0.00486442 0.0151064 0.00162821 -0.00108923 0.00490773 0.000127735 -0.000828962 -0.00560706 -0.0171766 0.0197373
internal_weight=134926 109633 13120.8 3991.92 9128.9 25292.5 10351.8 7844 14940.7 6816.89 2507.82 96512.5 41831.6 1531.99 8471.36 8123.81 3750.89 7604.77 6400.34 3404.8 2254.08 416.548 40299.6 54680.9 587.124 4372.92 51700 2980.85 657.543 253.733
internal_count=968024 797826 90744 26741 64003 170198 70582 53638 99616 45564 16944 707082 301817 8639 60183 54052 22959 52241 43764 22834 15220 1800 293178 405265 3907 31093 385772 19493 3820 1724
cat_boundaries=0 1 2 3 4 5 6
cat_threshold=108 1792 405 1828 1024 1
is_linear=0
shrinkage=0.0714161


Tree=21
num_leaves=32
num_cat=11
split_feature=3 5 5 1 1 1 3 9 1 0 1 4 6 3 8 0 6 8 6 6 1 6 9 1 0 6 6 0 3 3 9
split_gain=40.0538 44.7876 30.6146 35.7498 29.9559 25.2907 25.3326 23.9171 43.8177 30.1562 23.4597 30.678 22.7358 22.0785 40.3389 24.2649 20.3306 19.7714 19.2964 18.4293 53.0847 17.6574 15.811 15.7658 14.2354 14.0472 13.2483 11.0763 10.52 8.49872 7.48314
threshold=-0.2188602944057845 0.93681753301081716 0.094428880732883899 0 1 2 0.05580749323267143 0.058485241156343119 3 4 5 -0.18730163159071814 -0.091189041990600059 -0.74000675290438944 0.065789473527914324 6 -0.69554256906274159 0.26153845852071206 2.6602238121644604 0.14209606140169917 7 -0.004297507168185913 -0.21142255252444317 8 9 2.1819420310116353 -0.4396405231161909 10 0.059274629401422793 -1.8060784057473711 0.1996436170281051
decision_type=2 2 2 1 1 1 2 2 1 1 1 2 2 2 2 1 2 2 2 2 1 2 2 1 1 2 2 1 2 2 2
left_child=2 7 3 21 12 6 25 10 9 -9 16 -12 24 14 -6 -15 -2 -10 26 23 -21 29 -14 -5 -4 -3 -7 -23 -20 -1 -8
right_child=1 5 4 19 13 18 30 8 17 -11 11 -13 22 15 -16 -17 -18 -19 28 20 -22 27 -24 -25 -26 -27 -28 -29 -30 -31 -32
leaf_value=-0.011668828304188637 -0.0087485564143921449 0.0065872852120671269 0.0011405724448428573 0.0023559489608400699 -0.01657513706061383 -0.018248804856780459 -0.010101520024357177 0.0055571783126080552 0.00065557289310860334 -0.001472970136163782 -0.0018758510219500978 0.0022886133758097723 0.03112056141179393 0.011722257298060684 0.012797285068696602 0.002263235799016721 0.0031070216140242318 -0.0051263818780554679 -0.025196008260043069 0.0049898108231298663 -0.013315485547565229 0.017152424690014285 0.0029595800114485113 -0.0027985751748887053 -0.012657242650191776 -0.0071337176646264827 -0.0056045453491797605 0.0040557486455449114 -0.0035346029403782319 0.0038955302576490535 -0.002774673469336535
leaf_weight=191.62644511658436 765.86447647396562 1839.0280434716242 614.76633466828207 6797.7694334904982 256.28447431509267 483.57631010771001 1372.5903235671472 5410.9524587883143 3801.901419467571 7301.5178995177275 23919.870013541 14485.590518302302 115.14020956167951 1722.3818898294212 3431.1099910567245 6947.9448518331665 20081.471464307677 14598.325340104666 515.84413221644354 1353.4675357342451 1985.8927829173233 929.04462741592215 870.14960633189162 5438.7077463706019 1008.32584634621 479.84385032283308 3353.7795929403874 541.03756770597829 146.91715683252551 2700.6086808227265 1474.9085912597402
leaf_count=896 5803 13367 4557 48435 1419 2788 9802 39041 27219 53473 172392 113051 674 12643 21076 51680 144589 105382 3781 7925 10843 5255 5631 39657 7338 3343 22789 3143 928 19872 9499
internal_value=0.000132829 -0.000593986 0.00221581 0.000383351 0.00465704 -0.00521431 -0.00179016 -9.97444e-05 -0.00170312 0.00152137 0.000742162 -0.000305039 -0.0022984 0.00612205 0.0107558 0.00415842 0.0026702 -0.00392956 -0.00912118 -0.00121795 -0.00592114 0.00608968 0.00625045 6.45724e-05 -0.0075021 0.003748 -0.00719795 0.0124767 -0.0203942 0.00286431 -0.00630646
internal_weight=134936 100032 34904.3 19938.2 14966.1 9666.49 5166.37 90365.5 31112.7 12712.5 59252.8 38405.5 2608.38 12357.7 3687.39 8670.33 20847.3 18400.2 4500.12 15575.8 3339.36 4362.32 985.29 12236.5 1623.09 2318.87 3837.36 1470.08 662.761 2892.24 2847.5
internal_count=968291 727247 241044 136026 105018 66297 36011 660950 225115 92514 435835 285443 18200 86818 22495 64323 150392 132601 30286 106860 18768 29166 6305 88092 11895 16710 25577 8398 4709 20768 19301
cat_boundaries=0 1 2 3 4 5 6 7 8 9 10 11
cat_threshold=3584 768 2707 817 6 1124 16 387 110 6 26
is_linear=0
shrinkage=0.0714161


end of trees

feature_importances:
lag_20d_volatility_z=99
gap_sigma=97
month=94
lag_20_day_log_ret_z=66
dow=52
interaction_z=43
prev_close_loc=31
hurst_z=31
is_month_end=16
lag_5_day_log_ret_z=12
rel_vol_z=12

parameters:
[boosting: gbdt]
[objective: binary]
[metric: binary_logloss]
[tree_learner: serial]
[device_type: cpu]
[data_sample_strategy: bagging]
[data: ]
[valid: ]
[num_iterations: 100]
[learning_rate: 0.0714161]
[num_leaves: 47]
[num_threads: 0]
[seed: 46]
[deterministic: 0]
[force_col_wise: 0]
[force_row_wise: 0]
[histogram_pool_size: -1]
[max_depth: 5]
[min_data_in_leaf: 725]
[min_sum_hessian_in_leaf: 0.001]
[bagging_fraction: 0.803243]
[pos_bagging_fraction: 1]
[neg_bagging_fraction: 1]
[bagging_freq: 3]
[bagging_seed: 10626]
[bagging_by_query: 0]
[feature_fraction: 0.784776]
[feature_fraction_bynode: 1]
[feature_fraction_seed: 28005]
[extra_trees: 0]
[extra_seed: 28586]
[early_stopping_round: 0]
[early_stopping_min_delta: 0]
[first_metric_only: 0]
[max_delta_step: 0]
[lambda_l1: 0]
[lambda_l2: 0]
[linear_lambda: 0]
[min_gain_to_split: 0]
[drop_rate: 0.1]
[max_drop: 50]
[skip_drop: 0.5]
[xgboost_dart_mode: 0]
[uniform_drop: 0]
[drop_seed: 23790]
[top_rate: 0.2]
[other_rate: 0.1]
[min_data_per_group: 100]
[max_cat_threshold: 32]
[cat_l2: 10]
[cat_smooth: 10]
[max_cat_to_onehot: 4]
[top_k: 20]
[monotone_constraints: ]
[monotone_constraints_method: basic]
[monotone_penalty: 0]
[feature_contri: ]
[forcedsplits_filename: ]
[refit_decay_rate: 0.9]
[cegb_tradeoff: 1]
[cegb_penalty_split: 0]
[cegb_penalty_feature_lazy: ]
[cegb_penalty_feature_coupled: ]
[path_smooth: 0]
[interaction_constraints: ]
[verbosity: 1]
[saved_feature_importance_type: 0]
[use_quantized_grad: 0]
[num_grad_quant_bins: 4]
[quant_train_renew_leaf: 0]
[stochastic_rounding: 1]
[linear_tree: 0]
[max_bin: 255]
[max_bin_by_feature: ]
[min_data_in_bin: 3]
[bin_construct_sample_cnt: 200000]
[data_random_seed: 188]
[is_enable_sparse: 1]
[enable_bundle: 1]
[use_missing: 1]
[zero_as_missing: 0]
[feature_pre_filter: 1]
[pre_partition: 0]
[two_round: 0]
[header: 0]
[label_column: ]
[weight_column: ]
[group_column: ]
[ignore_column: ]
[categorical_feature: 0,1,2]
[forcedbins_filename: ]
[precise_float_parser: 0]
[parser_config_file: ]
[objective_seed: 24573]
[num_class: 1]
[is_unbalance: 0]
[scale_pos_weight: 1]
[sigmoid: 1]
[boost_from_average: 1]
[reg_sqrt: 0]
[alpha: 0.9]
[fair_c: 1]
[poisson_max_delta_step: 0.7]
[tweedie_variance_power: 1.5]
[lambdarank_truncation_level: 30]
[lambdarank_norm: 1]
[label_gain: ]
[lambdarank_position_bias_regularization: 0]
[eval_at: ]
[multi_error_top_k: 1]
[auc_mu_weights: ]
[num_machines: 1]
[local_listen_port: 12400]
[time_out: 120]
[machine_list_filename: ]
[machines: ]
[gpu_platform_id: -1]
[gpu_device_id: -1]
[gpu_use_dp: 0]
[num_gpu: 1]

end of parameters

pandas_categorical:[[0, 1, 2, 3, 4], [1, 2, 3, 4, 5, 6, 7, 8, 9, 10, 11, 12], [0, 1]]
