tree
version=v4
num_class=1
num_tree_per_iteration=1
label_index=0
max_feature_idx=10
objective=binary sigmoid:1
feature_names=dow month is_month_end gap_sigma lag_5_day_log_ret_z lag_20_day_log_ret_z lag_20d_volatility_z rel_vol_z prev_close_loc interaction_z hurst_z
feature_infos=-1:2:3:1:4:0 -1:7:9:2:6:5:4:3:8:1:11:10:0 -1:0:1 [-260.22336822609861:158.14149839942451] [-21.63637862683477:19.734218696427071] [-17.892529957011767:18.985695436288015] [-2.6367060850308528:20.420393905368151] [-3.1234602861399647:19.276933558904041] [-2.6179774986743487:1.7924528132787541] [-22.290594635460486:22.099812633620044] [-8.7086674430388538:3.6473252033010093]
tree_sizes=3027 2947 2898 3135 2725 2818 2910 2949 2936 2934 2303 2888 2985 2934 3094 2922 2831 2623 2901 2961 2933 3264 2682 3391

Tree=0
num_leaves=27
num_cat=6
split_feature=2 6 6 3 1 6 1 5 3 3 6 1 0 6 1 10 5 6 6 6 3 7 5 3 6 4
split_gain=1988.05 846.784 617.919 373.715 229.092 145.642 92.8672 89.7707 85.085 83.0327 65.0457 61.7095 157.045 61.4368 60.9991 59.0227 50.6441 44.0076 38.5197 33.2224 14.2539 13.76 11.7512 10.8137 9.12417 5.02239
threshold=0 3.3493900070397014 0.45887738565278297 -0.12483675142519877 1 7.2392209599176125 2 0.91830122962507266 0.21927384974965039 -0.7290163208917132 1.3272748019700746 3 4 0.20518874386106936 5 0.73778944832046844 0.1633406331239626 -0.26849312656402829 0.14907659042538027 2.1588972630547292 -0.015378902493437653 -0.21725981449956286 2.0469707452451105 -0.025022644972448351 4.5642557845031879 0.92498688676479623
decision_type=1 2 2 2 1 2 1 2 2 2 2 1 1 2 1 2 2 2 2 2 2 2 2 2 2 2
left_child=1 3 4 9 11 14 -4 8 -5 15 20 12 -2 16 24 -1 -6 -13 -11 -9 -8 -15 -16 -7 -3 -25
right_child=2 5 6 7 13 23 10 19 -10 18 -12 17 -14 21 22 -17 -18 -19 -20 -21 -22 -23 -24 25 -26 -27
leaf_value=-0.030655843684898043 -0.0093742653866037279 -0.095759070122509504 -0.0036696801623670242 -0.044628682307371367 -0.10605457091589117 -0.10541678816689291 -0.054433812733391533 -0.053711058505200221 -0.049370293125821647 -0.039848563295950913 -0.026614762599931372 -0.099825857611229113 -0.10001225396156893 -0.096875461317286207 -0.060988893586312473 -0.043164772424738013 -0.12603514314560965 -0.075601962833537456 -0.045710041521941427 -0.072753314407626404 -0.078411887791235396 -0.068069816356096574 -0.077714771979067815 -0.12463218698186231 -0.12029089120939557 -0.1415846861762578
leaf_weight=7642.6211906496501 198.20161533754617 141.58534921653336 270.37740759493317 40710.798971177064 1520.836299152681 124.8263655165938 236.70324826683282 7251.2472852298815 36703.174180831978 25009.793570468319 332.49454488625634 628.92294143920299 173.54132559522714 166.45083597279154 402.46833509482894 2571.0557463631558 1126.0549953837017 976.22809591117311 7413.1777288806443 499.47841785644414 271.44728407308139 171.94953148328932 458.07730202335006 335.61368802900688 170.37637145537155 121.36456937540788
leaf_count=46896 1090 884 863 308274 8648 757 1037 49992 262613 192082 1024 3829 995 792 2225 15284 6274 5346 47051 3361 1225 733 3097 2195 1127 799
internal_value=-0.0474264 -0.0455544 -0.0873613 -0.0448779 -0.0981403 -0.0948342 -0.0392189 -0.0476104 -0.0468768 -0.0394199 -0.0511295 -0.0787265 -0.0519555 -0.11068 -0.0803392 -0.0338047 -0.114555 -0.0848602 -0.0411887 -0.0549382 -0.0672426 -0.0822386 -0.0696344 -0.124046 -0.10724 -0.129134
internal_weight=135629 129556 6073.21 127801 4962.19 1754.31 1111.02 85164.7 77414 42636.6 840.645 1976.89 371.743 2985.29 1172.51 10213.7 2646.89 1605.15 32423 7750.73 508.151 338.4 860.546 581.805 311.962 456.978
internal_count=968493 936637 31856 925553 27707 11084 4149 624240 570887 301313 3286 11260 2085 16447 7333 62180 14922 9175 239133 53353 2262 1525 5322 3751 2011 2994
cat_boundaries=0 1 2 3 4 5 6
cat_threshold=1 1249 2308 1 20 104
is_linear=0
shrinkage=1


Tree=1
num_leaves=26
num_cat=7
split_feature=2 6 6 3 1 6 3 6 1 8 3 5 6 5 6 1 1 5 1 3 7 1 3 10 10
split_gain=1716.89 731.513 535.103 323.441 198.749 126.541 92.6846 115.706 80.4302 70.5329 68.6322 66.1621 56.098 55.8211 53.3877 52.8756 50.9889 44.3561 43.4598 12.3146 11.9581 10.9185 9.43704 8.64592 4.92765
threshold=0 3.3493900070397014 0.45887738565278297 -0.22129212379669413 1 7.2392209599176125 0.24163300791908093 0.59225490126054681 2 0.070226015491503466 -0.049185406097995418 0.089998607095519753 1.3272748019700746 0.34260447805661992 0.20518874386106936 3 4 0.29365314999648734 5 -0.015378902493437653 -0.17891562143356612 6 -0.025022644972448351 0.16289295317726718 -0.50734175579383611
decision_type=1 2 2 2 1 2 2 2 1 2 2 2 2 2 2 1 1 2 1 2 2 1 2 2 2
left_child=2 3 4 11 9 15 7 -5 -4 -1 -11 18 19 -8 17 23 -13 -6 -2 -10 -16 -17 -7 -3 -24
right_child=1 5 8 6 14 22 13 -9 12 10 -12 16 -14 -15 20 21 -18 -19 -20 -21 -22 -23 24 -25 -26
leaf_value=0.021287463756084195 0.009988791832001671 -0.067922482412673485 0.040738115878254308 0.0032530871498885438 -0.055984241221580515 -0.053954380029044291 -0.00083140023823602166 -0.0065833140647175619 -0.0064902760612475909 -0.016424776015712166 -0.044410181340828879 0.018129299618036891 0.019335471739973888 -0.0070447506732424442 -0.045472161248726412 -0.010338171570950301 0.0090552682544351969 -0.075660144601131157 0.0029479242897849202 -0.028783741243437355 -0.0185992114845892 -0.02764545355009447 -0.086136815677847187 -0.043919462150569306 -0.070618103164885176
leaf_weight=131.54701944794306 7284.4924277881928 175.41916298127035 270.52868627541466 50266.626633045351 1766.4166518681122 124.5502847697353 27219.459175715336 6941.525458584656 236.66113101676092 761.9512510293689 1081.1111003440292 4781.2036136813003 332.62279316416243 10115.126848395976 172.927248932363 359.19167289655161 9570.313894997078 873.23119148204569 11629.201531370136 271.18302518057317 165.07431760735926 500.77276611034176 161.98047097024391 135.77869475615444 293.34781732905685
leaf_count=740 50360 1133 863 385086 10067 757 193874 45424 1037 4410 6110 34011 1024 70226 825 2324 67260 4855 79312 1225 700 2998 1090 878 1904
internal_value=1.78157e-05 0.0017561 -0.0371257 0.00238422 -0.0471746 -0.0440902 0.000253162 0.00205956 0.00766697 -0.0290873 -0.0328406 0.00844089 -0.00342193 -0.00251479 -0.0588737 -0.0305812 0.0120972 -0.0624933 0.00566651 -0.0183947 -0.0323479 -0.0206184 -0.0713739 -0.0556611 -0.0761388
internal_weight=135622 129559 6063.25 127808 4952.26 1751.04 94542.7 57208.2 1111 1974.61 1843.06 33265.2 840.467 37334.6 2977.65 1171.16 14351.5 2639.65 18913.7 507.844 338.002 859.964 579.879 311.198 455.328
internal_count=968493 936637 31856 925553 27707 11084 694610 430510 4149 11260 10520 230943 3286 264100 16447 7333 101271 14922 129672 2262 1525 5322 3751 2011 2994
cat_boundaries=0 1 2 3 4 5 6 7
cat_threshold=2 1249 2308 104 2244 3904 2577
is_linear=0
shrinkage=0.0714161


Tree=2
num_leaves=26
num_cat=10
split_feature=2 3 5 5 5 1 4 3 0 1 5 5 5 1 5 10 1 1 3 5 1 1 4 1 4
split_gain=1484.2 349.585 322.096 268.53 247.305 132.32 72.623 69.9817 63.4747 70.2997 53.2548 53.1704 47.9252 47.6691 41.7133 40.8585 38.2777 31.7932 26.676 26.5641 41.0901 24.7988 12.0105 11.8282 8.4014
threshold=0 -0.12483675142519877 3.0332769785044387 -1.2567448432533423 -3.365136860069192 1 0.8833830847321531 -0.7290163208917132 2 3 -0.48479641367087462 0.69870858943943126 1.5784566432352527 4 4.3975730510432038 0.73778944832046844 5 6 0.081252215127004881 0.089998607095519753 7 8 -0.54247001083490332 9 0.72873592757750505
decision_type=1 2 2 2 2 1 2 2 1 1 2 2 2 1 2 2 1 1 2 2 1 1 2 1 2
left_child=1 7 4 13 18 8 -6 11 9 -5 17 15 -12 -2 23 -1 -13 -7 -3 21 -21 -9 -10 -4 -16
right_child=3 2 14 5 6 10 -8 19 22 -11 12 16 -14 -15 24 -17 -18 -19 -20 20 -22 -23 -24 -25 -26
leaf_value=0.012868139298103638 0.040134697610926355 -0.055182734632969584 -0.010900294328052848 0.0072096921903542933 0.00058403582175915476 -0.0029809058702401563 -0.0058089408589031494 0.0061680089306208989 -0.021624960993672698 -0.030254825355039049 -0.052358184529417935 0.040715007898153015 -0.010340072877182358 -0.0051979139270329775 -0.047351336438187563 0.0016994688574241404 0.015207979289765531 -0.037562463513547757 -0.018756626877115472 0.012903547765433825 0.0047805209852285983 0.00094538960695061123 -0.044327821847617147 -0.03567699220332031 -0.065519813743183636
leaf_weight=6674.9613890547535 225.8843112741888 449.77517299883766 204.42360562504473 545.27489212279033 74867.03118622092 192.51197177279391 10310.907647995875 9147.8324516954854 153.39695307990041 468.22860581770146 2987.8639109194492 508.70428631593268 145.17386436591187 239.22970848702244 305.99325648829836 2228.291205536927 822.41033502360233 561.93184200950782 132.81852546194568 4910.4114447998236 9091.3059015444978 9420.9368347878299 527.68180037351976 256.93923062548856 225.45191923773382
leaf_count=41305 731 2862 1374 2983 554753 807 69706 66096 852 2583 16538 2679 639 947 2029 13361 4902 2905 638 37431 67735 68577 2871 1722 1467
internal_value=1.64357e-05 0.0016306 -0.000975214 -0.0345664 -0.00050701 -0.0389105 -0.000189843 0.00691185 -0.021808 -0.010225 -0.0461906 0.0120632 -0.0504112 0.0175692 -0.0414195 0.0100729 0.025376 -0.0292757 -0.0468784 0.00529317 0.0076419 0.00352212 -0.0386471 -0.0257083 -0.0550588
internal_weight=135605 129558 86753.3 6047.18 85760.5 5582.06 85177.9 42804.9 1694.58 1013.5 3887.48 10234.4 3133.04 465.114 992.808 8903.25 1331.11 754.444 582.594 32570.5 14001.7 18568.8 681.079 461.363 531.445
internal_count=968493 936637 634551 31856 627959 30178 624459 302086 9289 5566 20889 62247 17177 1678 6592 54666 7581 3712 3500 239839 105166 134673 3723 3096 3496
cat_boundaries=0 1 2 3 4 5 6 7 8 9 10
cat_threshold=1 1185 22 33 2405 101 516 2194 3908 2695
is_linear=0
shrinkage=0.0714161


Tree=3
num_leaves=28
num_cat=8
split_feature=2 6 6 1 6 6 1 6 1 6 1 8 1 9 6 6 1 5 7 6 1 9 7 4 5 9 8
split_gain=1334.55 543.204 417.659 158.747 93.9727 86.0041 54.3108 54.1411 51.5323 44.418 43.7665 59.845 35.8433 42.4724 28.52 28.0042 25.1449 25.0261 23.8741 22.4443 21.8678 15.3034 13.3806 11.446 10.3841 8.25754 7.04516
threshold=0 3.3493900070397014 0.44039393787623077 1 7.2392209599176125 0.14179986221497928 2 1.8472002081501413 3 -0.19953261764722544 4 0.21212120730026682 5 0.19060463752186249 0.22356742125998616 1.0326061033433656 6 0.34260447805661992 0.20321411309616516 -0.15929926933899913 7 -0.1139439802851198 -0.77605568824402182 -1.2645299741257507 1.0122787981018717 3.9393037662512538 0.45454544628098986
decision_type=1 2 2 1 2 2 1 2 1 2 1 2 1 2 2 2 1 2 2 2 1 2 2 2 2 2 2
left_child=2 5 3 10 8 12 -4 21 22 17 11 -1 19 -14 -12 16 -7 -5 -11 -2 -17 -8 -3 -10 26 -26 -6
right_child=1 4 6 9 24 15 7 -9 23 18 14 -13 13 -15 -16 20 -18 -19 -20 -21 -22 -23 -24 -25 25 -27 -28
leaf_value=0.025241281965137131 0.0058850222087857389 -0.067641820417997045 0.032983131603749397 -0.057165974133110052 -0.084892372173138303 0.0024885029128891732 0.00012593203910048198 0.028839332858704179 0.0042545971549133943 -0.051966929853335959 -0.038072605112789468 -0.024366714408845021 0.0028176829767556405 -0.0021778939254636543 -0.006645204009824799 -0.012265766696461251 -0.0021453999351469938 -0.078618276459298558 -0.030338998135382548 0.0024258743967100747 -0.0026672877897696416 -0.022666214369048945 -0.039391829010432998 -0.018875720280486511 -0.041239795860377904 -0.065748983466734634 -0.062193158336184738
leaf_weight=158.36930714576761 26432.126183106368 119.72785562002173 283.39077129089856 793.78873970228256 116.42778965845355 9887.4642454980094 254.30675255785172 206.87433728692122 132.64089380443329 865.02634221997846 1563.7235392720947 571.95593882563207 45324.160531267087 10736.325374950327 162.58616755006369 1846.461893385811 15050.635324293751 426.31458961678436 372.36238894437702 14993.230014779983 3534.4352903871004 367.18872378903325 299.23004364669032 615.20089417285999 158.34183047668921 125.82319580198964 173.89430255250772
leaf_count=898 205447 785 925 4806 813 63087 1070 574 725 4746 9026 3222 343995 77566 765 10783 95765 2340 1873 106503 21999 1623 1799 4032 1026 804 1103
internal_value=-6.22239e-05 0.00146597 -0.0329157 -0.0418586 -0.0381531 0.00200576 0.00661321 -0.0027728 -0.0265117 -0.0547697 -0.0286036 -0.0134255 0.00303892 0.00186063 -0.0349105 -0.00131621 -0.000308011 -0.0646616 -0.0454585 0.00463192 -0.00598877 -0.01334 -0.0463585 -0.0145783 -0.061797 -0.052092 -0.0712962
internal_weight=135572 129546 6025.89 4914.13 1741.29 127805 1111.76 828.37 1166.8 2457.49 2456.63 730.325 97485.8 56060.5 1726.31 30319 24938.1 1220.1 1237.39 41425.4 5380.9 621.495 418.958 747.842 574.487 284.165 290.322
internal_count=968100 936232 31868 27676 11087 925145 4192 3267 7341 13765 13911 4120 733511 421561 9791 191634 158852 7146 6619 311950 32782 2693 2584 4757 3746 1830 1916
cat_boundaries=0 1 2 3 4 5 6 7 8
cat_threshold=2 1257 324 108 33 2612 3338 2124
is_linear=0
shrinkage=0.0714161


Tree=4
num_leaves=24
num_cat=7
split_feature=2 6 6 3 1 6 3 6 10 3 3 3 8 1 3 6 1 1 1 6 6 1 8
split_gain=1155.33 473.202 364.649 246.692 122.537 102.471 88.9046 73.6066 59.8007 50.5781 49.8667 49.3311 49.1171 41.2617 37.5479 31.9429 33.8647 30.3088 27.9494 24.2243 20.6867 19.2166 7.03513
threshold=0 4.5642557845031879 0.72057826370162437 -0.18944435613779828 1 0.68446548269380214 0.30631914223893469 0.20518874386106936 0.71499326307050015 -0.049185406097995418 -0.7290163208917132 -0.075095963284780465 0.10144927389204438 2 -0.39083561944903061 7.2392209599176125 3 4 5 2.1588972630547292 1.4621910145112738 6 0.296874997680662
decision_type=1 2 2 2 1 2 2 2 2 2 2 2 2 1 2 2 1 1 1 2 2 1 2
left_child=1 3 4 8 9 6 -5 14 10 17 -1 -3 -11 -4 -6 16 -13 -2 -9 -7 -15 -10 -17
right_child=2 11 13 5 7 19 -8 18 21 12 -12 15 -14 20 -16 22 -18 -19 -20 -21 -22 -23 -24
leaf_value=0.013379209104290584 -0.034231652645542461 -0.0021697320871476803 0.040871569464515929 0.0022602846755970236 -0.031211050683864514 -0.0059417201441870002 -0.0025963008052582565 -0.0018038275432660257 0.014325478179461067 0.0054697146126737916 0.006543890916198003 -0.064637350881176558 -0.037990172374385088 -0.0087655288669874504 -0.055041323778987017 -0.074871064259286191 -0.02195570823850073 -0.0023330705083344531 -0.035828462285035133 -0.015767637467149903 0.018749408965750732 0.00095954585713868936 -0.056582629133233524
leaf_weight=7565.0693269361109 191.60054003052846 125.81463609798811 214.87188423908083 54367.125349572656 397.49248309482937 6462.6322816492066 29741.086398473839 221.86897177566425 576.00782742078445 150.60554039268027 19411.572594079855 147.04349449947404 1111.3509787917619 290.58277536660898 2224.1854419036426 149.96815336542204 344.69725487183314 640.21215714378923 291.54804397220141 1595.6201588069052 267.79723124735756 8679.2921255651818 376.86508343714013
leaf_count=46338 1081 691 609 414928 2225 40327 210750 960 4071 837 143448 1013 6237 1202 12788 1008 2191 3710 1386 10039 833 58925 2503
internal_value=-5.81337e-05 0.0013611 -0.0306893 0.00176859 -0.0374585 -0.000194105 0.000542972 -0.0464376 0.00676128 -0.0236788 0.00846072 -0.0443589 -0.0328035 0.0150854 -0.0514282 -0.0495701 -0.0364796 -0.0101202 -0.021858 -0.00788736 0.0043526 0.0018079 -0.0617886
internal_weight=135545 129543 6002.12 128398 5228.86 92166.5 84108.2 3135.09 36231.9 2093.77 26976.6 1144.39 1261.96 773.252 2621.68 1018.57 491.741 831.813 513.417 8058.25 558.38 9255.3 526.833
internal_count=968100 936232 31868 928826 29224 676044 625678 17359 252782 11865 189786 7406 7074 2644 15013 6715 3204 4791 2346 50366 2035 62996 3511
cat_boundaries=0 1 2 3 4 5 6 7
cat_threshold=1 1249 2084 104 64 772 2048
is_linear=0
shrinkage=0.0714161


Tree=5
num_leaves=25
num_cat=8
split_feature=2 6 6 3 1 6 3 5 1 0 1 3 1 6 6 1 6 1 5 9 5 3 3 8
split_gain=1001.17 411.851 319.385 212.723 123.605 88.5681 80.8342 57.0622 46.6133 43.7617 82.7266 43.3066 41.625 40.2687 37.0734 28.6133 28.1814 30.2417 26.9847 23.6701 20.5557 20.2572 15.7969 6.29826
threshold=0 4.5642557845031879 0.45887738565278297 -0.18944435613779828 1 0.54278951871438941 0.30631914223893469 0.13257604229354861 2 3 4 -0.075095963284780465 5 -0.19953261764722544 1.8472002081501413 6 7.2392209599176125 7 1.3529480096235982 -0.39574591230381523 0.63570177145458484 -0.36380159128481598 -0.075095963284780465 0.296874997680662
decision_type=1 2 2 2 1 2 2 2 1 1 1 2 1 2 2 1 2 1 2 2 2 2 2 2
left_child=1 3 4 7 9 6 -5 15 -4 10 -2 -3 -9 19 22 -1 17 -13 -7 -6 -11 -15 -10 -18
right_child=2 11 8 5 13 18 -8 12 14 20 -12 16 -14 21 -16 -17 23 -19 -20 -21 -22 -23 -24 -25
leaf_value=0.0067325230539717028 0.0070768995742578264 -0.0020151777193346343 0.035437844526832497 0.0022703287606807418 -0.081590650212448657 -0.0045377921677203321 -0.0024135787440334069 0.0050246630133145434 0.0054446915829906165 -0.03296070545092103 -0.028483883494780714 -0.060889379920578648 0.012830033049606761 -0.015580688897740242 0.023803833395329075 0.0015183497451628732 -0.070470653197118968 -0.020466768211865719 -0.013495599166048247 -0.053218075117181837 -0.062639895704099988 -0.042574845498942339 -0.018044525731946537 -0.05306204216823026
leaf_weight=10042.920276062867 493.37597388422182 125.79059489897918 214.47716114704963 52750.176934194707 175.68738575320458 8043.0483280701956 29191.074239364461 5847.956292447162 224.31530492542879 800.14528188756503 1020.5133119396196 145.61480065711658 8782.3724882459064 163.31283544650069 225.60087922631647 11560.225868506453 148.02503814762167 344.11514868388622 2180.0655316445991 1024.3551082940603 139.81815022876253 1075.6388252326724 418.3900202960358 373.30174631451519
leaf_count=70178 2813 691 672 404182 796 49379 207682 41262 967 4580 5796 1013 62037 843 627 79305 1008 2191 14801 6350 777 5837 1810 2503
internal_value=-5.50033e-05 0.00126345 -0.0286353 0.00164237 -0.0364022 -0.000180261 0.000601715 0.00627844 0.00646189 -0.0247264 -0.0169242 -0.0415324 0.00972232 -0.0478516 -0.00109091 0.00394615 -0.0464489 -0.0341471 -0.00644803 -0.0573718 -0.036982 -0.0390166 -0.00984638 -0.058005
internal_weight=135510 129535 5975.63 128398 4892.85 92164.4 81941.3 36233.5 1082.78 2453.85 1513.89 1136.85 14630.3 2438.99 868.306 21603.1 1011.06 489.73 10223.1 1200.04 939.963 1238.95 642.705 521.327
internal_count=968100 936232 31868 928826 27792 676044 611864 252782 4076 13966 8609 7406 103299 13826 3404 149483 6715 3204 64180 7146 5357 6680 2777 3511
cat_boundaries=0 1 2 3 4 5 6 7 8
cat_threshold=1 1257 68 22 33 1832 3688 104
is_linear=0
shrinkage=0.0714161


Tree=6
num_leaves=26
num_cat=9
split_feature=2 6 6 3 1 6 3 0 1 6 3 0 1 10 6 1 6 1 10 3 1 6 4 10 9
split_gain=884.497 366.129 318.056 212.293 109.582 71.9835 83.2966 53.4676 71.9844 48.9728 36.6344 69.5235 36.5649 35.1981 28.1169 26.7368 25.8404 23.2804 23.1755 19.2658 14.999 14.0645 10.8309 3.97741 3.12705
threshold=0 4.5642557845031879 0.45887738565278297 -0.34749456474758306 1 0.68446548269380214 0.21927384974965039 2 3 2.1588972630547292 -0.38180278834777343 4 5 1.0112486640277056 7.2392209599176125 6 -0.009170322956599546 7 0.47735666476539856 -0.031744165397421364 8 -0.52218695819749839 0.92498688676479623 0.48675241911524875 -0.62869421465246267
decision_type=1 2 2 2 1 2 2 1 1 2 2 1 1 2 2 1 2 1 2 2 1 2 2 2 2
left_child=1 3 4 13 7 6 -5 8 -2 12 11 -6 -4 15 17 -1 -12 -3 -14 -7 -15 -9 23 -16 -19
right_child=2 14 9 5 10 19 -8 21 -10 -11 16 -13 18 20 22 -17 -18 24 -20 -21 -22 -23 -24 -25 -26
leaf_value=0.0045494937108702168 0.0072591575447506522 -0.046040089359792175 0.027739584785274978 0.0025482959616597509 0.01128303849689072 -0.0010317944790391347 -0.0017686208304086774 -0.054976020283659666 -0.025924931018568683 0.037426940955883031 -0.054259866228809857 -0.053344297361579855 -0.019037419630989205 -0.011729277084743727 -0.049234647196127752 0.010448660365787904 -0.036675437177322544 -0.0065401177433587121 0.0076833526734367674 -0.0081551628549495526 0.0029250625166903554 -0.033196709052369565 -0.066405774815174096 -0.034272081808199337 -0.020523183953888136
leaf_weight=5390.4813277659787 492.36473782137841 217.66183360147261 182.31106955691939 57603.991914663769 158.35425793551258 2847.5489405900462 37727.260370681266 190.32432530181541 1019.0249753774531 228.46387014348875 1488.6670339482682 171.83055435158894 386.96181706726929 387.56724369905396 271.55320240207948 14890.927215999545 597.20931404943963 125.47043522022432 289.32504796280409 6052.2787736346345 3432.6709207250638 736.15262943022481 155.30689713144966 135.98665926343529 233.11986762863671
leaf_count=36444 2814 1404 604 439116 901 18236 271205 1171 5757 576 8869 970 1811 2572 1836 101337 3026 742 1129 37516 22392 4173 1047 868 1536
internal_value=6.90052e-05 0.0013054 -0.0268757 0.0016632 -0.0346955 0.000266441 0.00083988 -0.0236662 -0.0151379 0.00804146 -0.045538 -0.0236234 0.000222294 0.00770367 -0.0390047 0.00888815 -0.0492253 -0.0279158 -0.00749507 -0.005876 0.00141532 -0.0372685 -0.0503577 -0.044242 -0.0152065
internal_weight=135413 129472 5940.99 128333 4853.93 104231 95331.3 2437.87 1511.39 1087.06 2416.06 330.185 858.598 24101.6 1139.1 20281.4 2085.88 576.252 676.287 8899.83 3820.24 926.477 562.847 407.54 358.59
internal_count=968052 936251 31801 928818 27681 766073 710321 13915 8571 4120 13766 1871 3544 162745 7433 137781 11895 3682 2940 55752 24964 5344 3751 2704 2278
cat_boundaries=0 1 2 3 4 5 6 7 8 9
cat_threshold=1 1257 22 33 14 68 769 108 16
is_linear=0
shrinkage=0.0714161


Tree=7
num_leaves=26
num_cat=5
split_feature=2 6 6 3 3 5 9 6 5 0 3 5 8 0 0 8 10 0 10 10 3 9 4 8 6
split_gain=767.178 322.214 277.145 178.853 65.7967 55.9715 52.4208 51.1809 48.8568 47.8433 47.516 47.7243 40.0819 31.0163 30.1361 27.2089 22.4388 21.1487 18.7788 18.479 17.9766 10.9992 9.72796 8.7846 6.7126
threshold=0 3.3493900070397014 0.45887738565278297 -0.34749456474758306 0.81777381439687458 -1.7560549903168521 0.23146789466002574 7.2392209599176125 0.6019676609149941 1 -0.39083561944903061 0.21925091715049191 0.035714285289117319 2 3 0.84210526209127767 0.78564169375743809 4 0.4975264088192311 0.48675241911524875 -0.059902750832360761 -0.14649583099199573 0.92498688676479623 0.296874997680662 4.5642557845031879
decision_type=1 2 2 2 2 2 2 2 2 1 2 2 2 1 1 2 2 1 2 2 2 2 2 2 2
left_child=1 3 10 8 6 -4 -5 19 16 -7 15 17 -10 -6 -13 21 -1 -12 -11 20 -3 -2 23 -9 -21
right_child=2 7 5 4 13 9 -8 22 12 18 11 14 -14 -15 -16 -17 -18 -19 -20 24 -22 -23 -24 -25 -26
leaf_value=0.0070607705819740281 -0.0043185525985217094 -0.0057950284245219426 0.041383775925464064 0.0017012073811413209 -0.0022795964635623413 0.029668317500445313 -0.0024021887773791242 -0.057226899841256604 -0.02424234843099218 -0.019156743865613619 -0.023506375451675162 -0.020782763344794036 0.015880472289458335 -0.011581776928630463 -0.049863381600557088 0.011773090481573559 0.0014022802100630788 -0.037741511331761769 0.0049462445150561841 -0.0013315483588862433 -0.033570312298507501 -0.027985214386242883 -0.062637154171362536 -0.034437069453608644 -0.019241827050942323
leaf_weight=15568.283039311551 129.81909868936054 149.37214616069105 202.2483171391068 75982.392244684655 4532.1718294328002 199.36976349819452 20073.350907369648 124.92107644024873 131.44875862938261 407.82928159707808 1540.6173572760745 269.18893710381553 3740.8086621549892 3073.3658043295163 1282.9999460462868 148.30635581034585 4639.4818775483654 1014.5760852083581 276.72439763409784 240.80470153089846 581.53055311518256 438.3351400787069 152.97866655841062 278.77003346693891 191.68617820364307
leaf_count=106597 722 799 539 573898 27874 659 141658 860 734 1853 8771 1656 24624 19047 7250 812 30696 5944 1069 1454 3880 2526 1047 1844 1239
internal_value=6.32322e-05 0.00121193 -0.0250994 0.00162536 0.000337413 0.00749192 0.000843696 -0.0294918 0.00716981 -0.00026279 -0.032438 -0.0353982 0.0145185 -0.00605679 -0.0452752 -0.015467 0.00576164 -0.0293983 -0.00927781 -0.0209704 -0.027894 -0.0225776 -0.047301 -0.0414893 -0.00926964
internal_weight=135371 129461 5910.01 127741 103661 1086.17 96055.7 1720.06 24080 883.923 4823.84 4107.38 3872.26 7605.54 1552.19 716.461 20207.8 2555.19 684.554 1163.39 730.903 568.154 556.67 403.691 432.491
internal_count=968052 936251 31801 925128 762477 4120 715556 11123 162651 3581 27681 23621 25358 46921 8906 4060 137293 14715 2922 7372 4679 3248 3751 2704 2693
cat_boundaries=0 1 2 3 4 5
cat_threshold=1 2 7 16 22
is_linear=0
shrinkage=0.0714161


Tree=8
num_leaves=26
num_cat=7
split_feature=2 6 6 3 3 6 0 5 6 5 3 5 0 0 10 8 8 0 10 10 3 0 4 0 7
split_gain=665.604 279.396 241.525 154.234 59.5951 88.9362 59.8368 48.3205 45.4744 43.103 41.7573 42.2746 41.5018 26.646 23.882 23.5597 20.4696 18.6627 16.2082 16.0584 15.6463 9.56394 8.76976 9.26547 8.35514
threshold=0 3.3493900070397014 0.45887738565278297 -0.34749456474758306 0.35222438428523478 -0.040131821414417304 1 -1.7560549903168521 7.2392209599176125 0.72660817967097002 -0.39083561944903061 0.21925091715049191 2 3 -0.61906083442864634 0.84210526209127767 0.047058822975777674 4 0.4975264088192311 0.48675241911524875 -0.059902750832360761 5 0.92498688676479623 6 0.16503331066943411
decision_type=1 2 2 2 2 2 1 2 2 2 2 2 1 1 2 2 2 1 2 2 2 1 2 1 2
left_child=1 3 10 9 5 -5 -6 -4 19 14 15 17 -9 -13 -1 21 -11 -12 -14 20 -3 -2 23 -10 -21
right_child=2 8 7 4 6 -7 -8 12 22 16 11 13 18 -15 -16 -17 -18 -19 -20 24 -22 -23 -24 -25 -26
leaf_value=0.0097735919481165313 -0.0088008937025993699 -0.0053837860646145834 0.038508364790724621 0.0034211086017243448 -0.009064014274543699 -0.0015093887213982061 -0.00083260296098234805 0.027660975185086013 -0.022016333271078017 -0.013479347024218238 -0.021923263928822326 -0.019414089005097116 -0.017802870340041882 -0.046801700525830936 0.0041794306482191828 0.010915737601242545 0.016076261972376462 -0.035322629434822804 0.0045923688274705707 -0.015550356002153395 -0.03131262878517227 -0.028811604730352151 -0.059146206489759004 -0.049114625207499374 0.00561134360739181
leaf_weight=5140.4006565653945 238.64278611386544 149.30223123414908 201.84233521134593 44099.697813364292 5688.1604977600291 32344.295933432186 21528.952574149262 199.29446881858166 176.61320744981276 124.87357363785941 1534.8385266950136 268.32445751700993 407.51497615798144 1270.4339405784415 16028.697299190491 148.52300432221091 2784.9649078755347 1007.5825043356381 276.76115980054601 290.48459091331461 579.02844285391257 327.53900723502738 150.52899287860782 223.13611332254004 141.5164496159814
leaf_count=35305 1361 799 539 352466 40486 220632 148893 659 1095 682 8771 1656 1853 7250 108611 812 18053 5944 1069 1858 3880 1887 1047 1609 835
internal_value=5.77265e-05 0.00112528 -0.0234397 0.00150922 0.000313214 0.00133496 -0.00255654 0.00698164 -0.0275457 0.00665809 -0.0303247 -0.0331133 -0.000220308 -0.0424562 0.00553784 -0.0144005 0.0148079 -0.0274587 -0.00861897 -0.019527 -0.0259974 -0.0210415 -0.0444541 -0.0389217 -0.00861813
internal_weight=135332 129451 5881.3 127740 103661 76444 27217.1 1085.41 1710.61 24078.9 4795.88 4081.18 883.571 1538.76 21169.1 714.705 2909.84 2542.42 684.276 1160.33 728.331 566.182 550.278 399.749 432.001
internal_count=968052 936251 31801 925128 762477 573098 189379 4120 11123 162651 27681 23621 3581 8906 143916 4060 18735 14715 2922 7372 4679 3248 3751 2704 2693
cat_boundaries=0 1 2 3 4 5 6 7
cat_threshold=1 16 2 16 22 10 24
is_linear=0
shrinkage=0.0714161


Tree=9
num_leaves=26
num_cat=7
split_feature=2 6 6 3 1 5 5 3 3 5 1 8 3 1 1 3 3 6 1 3 1 5 8 10 7
split_gain=582.88 265.545 214.085 126.063 110.478 82.7671 57.8522 49.2219 44.7966 42.2901 33.1823 33.0376 32.7949 30.9482 29.8633 26.2678 25.0927 21.6743 27.8371 20.9463 34.7864 17.8866 15.8861 9.96387 6.61706
threshold=0 4.5642557845031879 0.24282534686895338 -0.075095963284780465 1 0.74093483935592075 -1.3572147312420018 -0.7290163208917132 1.5865454584138079 0.57927931255384213 2 0.077922077163097528 -0.079252207989399387 3 4 0.060163071208647896 0.68147638425288959 7.2392209599176125 5 -0.36380159128481598 6 0.36520831429952777 0.73134327266652477 0.55746487715329074 1.1405223977062848
decision_type=1 2 2 2 1 2 2 2 2 2 1 2 2 1 1 2 2 2 1 2 1 2 2 2 2
left_child=1 3 4 7 10 8 -4 9 -5 -1 22 -12 -3 -9 23 -16 -7 18 -14 20 -6 -21 -2 -8 -19
right_child=2 12 6 5 19 16 14 13 -10 -11 11 -13 17 -15 15 -17 -18 24 -20 21 -22 -23 -24 -25 -26
leaf_value=0.0064834710452694056 -0.01069219077478994 0.00094192126358980967 0.028246322869559835 0.00075585680028096016 0.0059960087496417243 -0.0050997656415776218 -0.00022344011397493405 0.00051664472272875501 -0.0105208568604128 0.018672171190729885 0.0092617760021772213 -0.02545029676422211 -0.053177030663114237 0.0046635429643314746 -0.0049819666572571385 -0.033900652398281772 -0.016301152590215393 -0.04451954266730912 -0.014754260081421312 -0.040396209320446928 -0.042859231887072961 -0.055984129078630207 0.020570664686811454 0.020913386171143886 -0.064757609239832731
leaf_weight=8473.3669596583004 206.27883172600536 122.18443387292791 317.54032014188124 67477.31813035933 121.62554451063625 9542.2551130037773 314.63335014733093 15390.702827745987 1845.8361514987919 1752.0284630966253 152.31285273817798 1708.1048094574844 142.17850966885453 22773.098527964936 424.96747853805573 257.12687169085257 1142.0707746329845 392.0231167510392 339.44441754182844 1273.1711016213367 188.97106465525576 532.46039061687043 138.60025570075959 178.15419372770702 104.32688525127014
leaf_count=52055 1213 650 997 500753 729 67711 1383 112864 9537 10223 855 10190 1034 169554 1845 1172 6603 2790 2201 7709 1154 3143 737 683 704
internal_value=1.59033e-06 0.000994765 -0.0221199 0.00129412 -0.0301733 -0.00044617 0.0012 0.00417154 0.000455597 0.00857189 -0.0186953 -0.0224875 -0.0339422 0.00299254 -0.00610992 -0.0156539 -0.00629711 -0.0383005 -0.0275074 -0.0418483 -0.024915 -0.0449929 0.001819 0.00727048 -0.0487733
internal_weight=135311 129497 5813.95 128397 4321.52 80007.5 1492.42 48389.2 69323.2 10225.4 2205.3 1860.42 1100.16 38163.8 1174.88 682.094 10684.3 977.973 481.623 2116.23 310.597 1805.63 344.879 492.788 496.35
internal_count=968489 936679 31810 929300 25730 584604 6080 344696 510290 62278 12995 11045 7379 282418 5083 3017 74314 6729 3235 12735 1883 10852 1950 2066 3494
cat_boundaries=0 1 2 3 4 5 6 7
cat_threshold=1 1257 1 299 1476 104 518
is_linear=0
shrinkage=0.0714161


Tree=10
num_leaves=20
num_cat=5
split_feature=2 5 5 3 5 5 1 3 5 3 0 8 9 1 7 3 1 9 7
split_gain=505.8 133.587 125.825 119.616 81.2947 72.9198 70.3533 42.5072 34.3646 34.073 54.1944 38.8417 30.6872 28.1984 24.1877 24.0794 6.77558 2.83679 1.40809
threshold=0 4.3975730510432038 -1.3572147312420018 -0.075095963284780465 -3.365136860069192 0.74093483935592075 1 -0.78538904285939348 0.57927931255384213 -0.045665751809007366 2 0.08163265264473156 1.1298121321966066 3 0.60669866591982358 0.098353185927718592 4 3.9393037662512538 -0.45518337258030356
decision_type=1 2 2 2 2 2 1 2 2 2 1 2 2 1 2 2 1 2 2
left_child=2 3 -1 7 15 -6 9 8 -2 10 -4 -11 14 -9 -8 -5 -3 18 -18
right_child=1 16 6 4 5 -7 12 13 -10 11 -12 -13 -14 -15 -16 -17 17 -19 -20
leaf_value=0.018690506446165 0.0062644926661286973 -0.047978318962733739 0.023996319891668182 -0.037145583616956017 0.00041551883069827002 -0.0059030931081911408 -0.034812121069369255 0.00052398456563755309 0.017867971616806717 0.015224385112014766 -0.014112843044105539 -0.02495384261880498 -4.7186422690034116e-05 0.0044250423612514364 -0.017608437517279474 2.7247075150105121e-05 -0.027918594340909191 -0.035287898883670593 -0.016599652095043535
leaf_weight=386.62319318224036 7598.9261520081918 174.71917462429337 262.80141352818464 400.74884663036573 69217.099809310675 10763.860770934843 2531.8974422537722 15852.848604634666 1570.846590649061 136.92438186472282 620.53485087018362 1182.800076520035 161.67635531362612 23433.766566619903 498.95705602237012 114.2040862342219 109.27225327853375 132.59731536019535 115.0980458101003
leaf_count=1392 45893 1206 1451 2719 509741 74965 14696 116052 9035 738 3600 6634 650 174074 2649 573 772 884 765
internal_value=4.92711e-07 0.000923341 -0.0206653 0.00107063 -0.000616951 -0.000434842 -0.0234854 0.00387406 0.00825225 -0.0134579 -0.0026631 -0.0207853 -0.030268 0.00285216 -0.0319799 -0.0289016 -0.0348004 -0.0262704 -0.0221122
internal_weight=135266 129484 5782.21 128952 80495.9 79981 5395.59 48456.4 9169.77 2203.06 883.336 1319.72 3192.53 39286.6 3030.85 514.953 531.687 356.968 224.37
internal_count=968489 936679 31810 933052 587998 584706 30418 345054 54928 12423 5051 7372 17995 290126 17345 3292 3627 2421 1537
cat_boundaries=0 1 2 3 4 5
cat_threshold=2 1249 16 299 104
is_linear=0
shrinkage=0.0714161


Tree=11
num_leaves=26
num_cat=12
split_feature=2 6 6 3 1 3 6 6 0 4 0 1 6 1 1 0 1 1 1 0 3 3 6 3 10
split_gain=438.321 216.502 180.065 95.6609 85.4617 51.4578 64.6299 50.7591 49.4732 59.141 37.6394 57.2001 36.1239 33.7298 33.2023 31.9319 31.5786 28.6421 22.2216 17.8994 16.6432 13.9394 10.7544 6.96043 5.59266
threshold=0 2.6155120939138361 0.72057826370162437 0.18485192700336137 1 -0.7290163208917132 -0.063660726445826335 7.2392209599176125 2 0.92498688676479623 3 4 0.19608785607891333 5 6 7 8 9 10 11 -0.11217228087394658 0.10172659755564929 1.6311016033145804 -0.028353657685361921 0.48675241911524875
decision_type=1 2 2 2 1 2 2 2 1 2 1 1 2 1 1 1 1 1 1 1 2 2 2 2 2
left_child=1 3 4 5 10 17 -7 16 14 -10 11 -2 15 -4 -5 -6 21 -1 -12 -14 -18 -3 -15 -9 -25
right_child=2 7 13 8 12 6 -8 23 9 -11 18 -13 19 22 -16 -17 20 -19 -20 -21 -22 -23 -24 24 -26
leaf_value=0.014844373559597857 0.012542517437701366 -0.033709507298353508 0.03387053801980397 -0.00048418348321685255 -0.028143217154696552 0.0038661496724575113 -0.00040387101074890007 -0.024018031721282113 0.0007541915681414412 -0.0090148949744175179 -0.016016050452088718 -0.017467330504873479 -0.0040536960942615568 -0.0063271243602269073 -0.0095241270966377276 -0.045945803299461116 0.011388804247836311 0.0054663030326495927 -0.043675839099863507 -0.031956622060163739 -0.011711474609498037 -0.0069169099689345512 0.014686886897718222 -0.050169178687920583 -0.032537144595823096
leaf_weight=2098.5432474201325 526.42127653863918 498.69009345467566 249.97103116973449 3284.5280592543363 1433.3402473408623 41424.329379385439 32078.618889363133 106.5503044576908 31012.494061473019 3519.2993542178847 463.38665105468681 812.34339608669234 325.0545993836713 307.298537524126 5644.0502636961119 999.1601306454977 190.20411449685344 8100.6422802945935 245.42425052988983 183.5791934626759 971.8837352141345 123.582113053184 208.48027317723609 283.37745043462928 135.67939520821892
leaf_count=13890 2961 3205 772 23369 8878 330329 219201 671 222264 22441 2854 4664 1554 1253 41934 5992 1005 48307 1401 846 6414 605 635 2074 970
internal_value=-2.59526e-08 0.000857159 -0.0192863 0.00125077 -0.0242357 0.00266221 0.0020026 -0.0208107 -0.00146759 -0.000241353 -0.0128179 -0.00566153 -0.0320322 0.0129585 -0.00620289 -0.0357603 -0.015065 0.00741581 -0.0260676 -0.0148326 -0.00786289 -0.0279396 0.00212563 -0.0403164 -0.0444604
internal_weight=135227 129472 5754.46 127163 4988.71 83702.1 73502.9 2309.97 43460.4 34531.8 2047.58 1338.76 2941.13 765.75 8928.58 2432.5 1784.36 10199.2 708.811 508.634 1162.09 622.272 515.779 525.607 419.057
internal_count=968489 936679 31810 921735 29150 611727 549530 14944 310008 244705 11880 7625 17270 2660 65303 14870 11229 62197 4255 2400 7419 3810 1888 3715 3044
cat_boundaries=0 1 2 3 4 5 6 7 8 9 10 11 12
cat_threshold=1 1249 16 22 33 2310 1542 26 108 2088 1216 13
is_linear=0
shrinkage=0.0714161


Tree=12
num_leaves=27
num_cat=12
split_feature=2 6 6 3 1 4 0 0 1 0 10 0 3 3 8 1 1 6 1 1 6 3 1 3 3 8
split_gain=340.799 193.276 181.65 76.2183 75.1049 56.037 45.048 39.8855 88.5529 37.1224 35.7052 34.8551 51.01 29.8622 29.5208 29.4216 26.9021 26.8984 26.4584 20.7741 15.3877 13.3673 7.46479 7.02945 5.02368 3.82059
threshold=0 4.5642557845031879 0.45887738565278297 -0.12483675142519877 1 0.8833830847321531 2 3 4 5 0.43773420553016673 6 -0.40028407587620124 -0.88803391620663163 0.08163265264473156 7 8 7.2392209599176125 9 10 1.2098513274649652 -0.087220772332464933 11 -1.0000000180025095e-35 -0.028353657685361921 0.52096854993512476
decision_type=1 2 2 2 1 2 1 1 1 1 2 1 2 2 2 1 1 2 1 1 2 2 1 2 2 2
left_child=1 3 4 10 7 6 -5 8 -2 -4 13 12 -6 -1 -9 -7 -12 19 -13 -3 21 -11 23 -19 -21 -24
right_child=2 17 9 5 11 15 -8 14 -10 20 16 18 -14 -15 -16 -17 -18 22 -20 24 -22 -23 25 -25 -26 -27
leaf_value=0.010113256579647843 0.027182451212685383 -0.042566627267132298 0.03352132669241871 -0.0030664683788447071 0.014460099420948063 0.0015298783234458122 0.0013268733345312767 0.0097406543716863116 -0.026979871465117902 0.0096052027943638874 0.012025581314924944 -0.029069058087752411 -0.03020582088423204 0.0039249338833148451 -0.022434970996929898 -0.0072899549105231868 -8.4864965601038546e-05 -0.014495619459522636 -0.059462910097404648 0.0015275320101015397 0.012830625752033854 -0.015190254934219339 -0.0598128058067494 -0.039408839424054112 -0.015246864676926281 -0.043444804845690119
leaf_weight=4826.9215473942859 319.19854214892257 129.24312392752108 236.59794917074032 14824.932115365253 144.10045208741212 2557.1971104435306 60237.617375639951 159.61304160902455 279.30152234836714 171.82725031020891 991.0313238685485 354.08424331524475 1372.1291174312719 22590.38804199846 1637.1944505721922 7860.4782688345931 14303.864992254421 107.77213544892584 392.41677440557396 130.04008781700395 377.83930496242101 312.68233267395408 139.40242691499952 124.48489012074424 303.76533157686936 152.08108332863776
leaf_count=28141 1805 942 732 111663 854 17253 444661 891 1624 772 7206 2456 8287 167497 9667 53039 98895 711 2092 764 1195 1394 1063 877 1999 1093
internal_value=-2.65672e-06 0.000754444 -0.0170042 0.0010087 -0.0231659 -0.000222248 0.000458952 -0.0141489 0.00187856 0.00911319 0.00347219 -0.032505 -0.0257907 0.00501441 -0.0194684 -0.0051305 0.000707637 -0.0292358 -0.0456212 -0.0183997 0.0020045 -0.00639675 -0.0408852 -0.026699 -0.00998823 -0.0495721
internal_weight=135036 129279 5756.98 128192 4658.04 85480.2 75062.5 2395.31 598.5 1098.95 42712.2 2262.73 1516.23 27417.3 1796.81 10417.7 15294.9 1086.79 746.501 563.049 862.349 484.51 523.741 232.257 433.805 291.484
internal_count=967573 935804 31769 928355 27676 626616 556324 13987 3429 4093 301739 13689 9141 195638 10558 70292 106101 7449 4548 3705 3361 2166 3744 1588 2763 2156
cat_boundaries=0 1 2 3 4 5 6 7 8 9 10 11 12
cat_threshold=1 1257 16 16 73 2 14 769 2048 772 97 916
is_linear=0
shrinkage=0.0714161


Tree=13
num_leaves=26
num_cat=7
split_feature=2 6 6 3 1 3 1 6 6 3 8 5 1 6 5 5 1 10 1 3 3 3 1 3 8
split_gain=295.809 171.456 159.255 65.3683 59.5509 42.9783 48.371 40.3036 39.5986 35.5123 37.8132 31.9078 30.7863 29.6851 30.0301 29.3435 32.9523 28.1195 24.6079 18.4131 12.1298 11.0501 6.78526 6.24793 3.4976
threshold=0 3.3493900070397014 0.62101722869807807 -0.53880543858005814 1 1.5865454584138079 2 0.10043168704424754 7.2392209599176125 -0.079252207989399387 0.13793102972651899 -0.48479641367087462 3 0.14179986221497928 0.32832542511420193 0.74093483935592075 4 -0.6600415985244551 5 0.098353185927718592 0.018018144364533074 -0.1037044132385415 6 -1.0000000180025095e-35 0.52096854993512476
decision_type=1 2 2 2 1 2 1 2 2 2 2 2 1 2 2 2 1 2 1 2 2 2 1 2 2
left_child=1 3 4 15 9 7 -7 -5 12 18 -11 -4 -3 14 -6 17 -17 -1 -2 -15 -13 -14 23 -10 -24
right_child=2 8 11 5 13 6 -8 -9 22 10 -12 20 21 19 -16 16 -18 -19 -20 -21 -22 -23 24 -25 -26
leaf_value=0.01021784900841762 0.011249139602146345 -0.041948865298612796 0.025153605019349663 0.0014321118042242564 -0.025966345223265512 -0.024577836805949681 -0.0017029269104483476 -0.0016282417231680587 -0.01352184565950295 0.010360713230963528 -0.023991460737867072 0.0084204079583899468 0.0081660607431988819 -0.022680997746877186 -0.043822289759682914 0.032238178374611286 0.0086315324343249379 0.0024690885637492625 -0.014973247118775563 0.0044979394595726016 -0.015675061519727484 -0.012774400121129209 -0.056749649010370155 -0.037110900123762801 -0.040949479210155952
leaf_weight=3104.4786775369394 452.98116871767706 170.07823398407709 453.65728022163967 80082.774594873204 1593.4871172608364 720.53451081934327 1348.8265370155859 30233.984300572076 107.30039309329004 192.94522215336929 1068.2972503295359 248.35291847845656 152.39228572510183 352.77586737240199 687.69490891505848 387.44440481637139 1370.6399954447716 10357.624571402006 291.38328592803919 198.76033067922253 186.62665624427609 820.63285949352939 136.54067626217875 122.81530058762291 149.90727519907523
leaf_count=20234 2783 1215 1395 619721 9962 3908 6671 196557 711 1087 6234 995 744 1692 4335 2046 8565 67005 1594 945 747 5394 1063 877 1093
internal_value=-3.35345e-06 0.000700312 -0.0158861 0.000996935 -0.02099 0.000402099 -0.00979478 0.000593375 -0.022106 -0.011379 -0.0187363 0.0119025 -0.0146905 -0.0276569 -0.0313493 0.00538922 0.0140664 0.00425602 0.000934291 -0.0128864 -0.00191768 -0.00939818 -0.038516 -0.0250241 -0.0468455
internal_weight=134993 129266 5726.96 127606 4838.33 112386 2069.36 110317 1659.67 2005.61 1261.24 888.637 1143.1 2832.72 2281.18 15220.2 1758.08 13462.1 744.364 551.536 434.98 973.025 516.564 230.116 286.448
internal_count=967573 935804 31769 924707 28632 826857 10579 816278 11097 11698 7321 3137 7353 16934 14297 97850 10611 87239 4377 2637 1742 6138 3744 1588 2156
cat_boundaries=0 1 2 3 4 5 6 7
cat_threshold=1 1249 2852 96 36 161 916
is_linear=0
shrinkage=0.0714161


Tree=14
num_leaves=27
num_cat=6
split_feature=6 3 5 1 3 1 8 5 1 6 8 1 3 1 6 10 9 6 5 9 6 1 4 10 3 8
split_gain=98.138 69.6912 53.2806 49.6853 52.4066 36.474 29.9052 29.7957 37.7689 59.2103 31.0886 26.7388 36.2194 24.4583 34.4351 29.6166 16.1116 14.6242 12.5917 9.15403 8.86342 13.8484 8.47343 7.8016 6.08974 2.96629
threshold=3.3493900070397014 -0.34749456474758306 0.64743032423898184 0 0.28008299611957727 1 0.18348623740987355 0.12656870444660748 2 -0.089414822731350388 0.013157894650279041 3 1.0162094892770253 4 -0.0046517905397550153 -0.6600415985244551 0.69134742106738767 7.2392209599176125 -0.95148281677507118 -0.65490189668107723 7.2392209599176125 5 -0.50905587180862211 0.16289295317726718 1.0000000180025095e-35 0.5394736771121923
decision_type=2 2 2 1 2 1 2 2 1 2 2 1 2 1 2 2 2 2 2 2 2 1 2 2 2 2
left_child=1 7 11 6 -5 20 -4 13 9 -9 -10 12 -3 14 -1 -15 -13 18 22 -20 21 23 -7 -2 -19 -22
right_child=5 2 3 4 -6 17 -8 8 10 -11 -12 16 -14 15 -16 -17 -18 24 19 -21 25 -23 -24 -25 -26 -27
leaf_value=0.0021593592118356324 -0.025806516028034902 0.002020482019715992 0.0032071287034129174 0.0012785953990573254 -0.0092659338986850505 -0.0035081831557600435 -0.012172097681156849 -0.0091024462888217479 -0.025013087712402262 0.014212338574585672 0.0096788638871629484 -0.00065873730752256639 -0.0079582874666323036 0.0067089332875922402 0.018301112158761557 -0.0018922861467755518 -0.0065074892891087022 -0.011038453250343676 0.0077785043545078852 -0.015712080206137902 -0.049128850286391031 -0.039302039226334413 0.020920224734715925 -0.0021983058932778135 -0.030678625155197953 -0.033167015729042355
leaf_weight=2170.5029934051981 132.34645506809102 37443.213725914837 751.86086777051241 8646.8860784138778 3329.6194637831686 142.33772826835047 4531.6271497866901 1619.9028958613326 134.08456399539136 845.53577124074582 7553.2728826547009 49061.770145157774 1951.8597887227297 2641.9954888350785 977.66317802354752 8987.3181723870293 2525.8426396895666 159.73977514612488 111.41259234491736 351.69056850833658 114.66783459749422 176.74147388954952 147.43404488702072 155.0095501381802 162.35913166280443 123.15568733116379
leaf_count=15077 810 273445 4985 63378 22179 690 30610 11522 761 5101 51788 365878 11460 18074 5334 60124 16476 1021 674 2431 859 1235 792 907 1127 835
internal_value=-3.62629e-06 0.000218834 -0.000565212 -0.00420303 -0.00165154 -0.0166763 -0.00996471 0.00362302 0.00660165 -0.00110204 0.00906197 0.000124905 0.00152569 0.00157656 0.00714947 6.17213e-05 -0.000944922 -0.00812775 -0.00275499 -0.0100608 -0.0292359 -0.0239076 0.00892084 -0.0126319 -0.0209384 -0.0408631
internal_weight=134950 133173 108243 17260 11976.5 1776.89 5283.49 24930.3 10152.8 2465.44 7687.36 90982.7 39395.1 14777.5 3148.17 11629.3 51587.6 1074.97 752.875 463.103 701.921 464.097 289.772 287.356 322.099 237.824
internal_count=967573 956192 788411 121152 85557 11381 35595 167781 69172 16623 52549 667259 284905 98609 20411 78198 382354 6735 4587 3105 4646 2952 1482 1717 2148 1694
cat_boundaries=0 1 2 3 4 5 6
cat_threshold=108 107 1792 1828 3584 11
is_linear=0
shrinkage=0.0714161


Tree=15
num_leaves=26
num_cat=11
split_feature=2 3 9 3 1 1 1 9 8 10 1 3 0 9 0 1 1 3 3 10 0 1 9 9 7
split_gain=283.681 70.0358 66.4688 30.9121 64.4355 34.3833 30.0058 35.6249 29.858 27.5907 29.6458 26.1853 36.5991 24.3152 22.4546 34.9378 29.1706 18.3057 18.0757 16.7923 14.5369 14.4699 15.1641 9.24046 8.48038
threshold=0 -0.059902750832360761 1.2279438814220132 1.253485689632637 1 2 3 1.2279438814220132 0.08163265264473156 0.4975264088192311 4 -0.045665751809007366 5 3.9393037662512538 6 7 8 -1.5279084013176638 -0.81492333169094922 1.1811226621514608 9 10 -0.56247697106646888 0.1608921583945028 -0.43239855446882541
decision_type=1 2 2 2 1 1 1 2 2 2 1 2 1 2 1 1 1 2 2 2 1 1 2 2 2
left_child=1 9 3 5 -5 -3 8 14 -2 10 17 12 -10 20 15 -8 -16 -1 -12 -13 -4 22 -11 -23 -15
right_child=6 2 13 4 -6 -7 7 -9 11 21 18 19 -14 24 16 -17 -18 -19 -20 -21 -22 23 -24 -25 -26
leaf_value=0.01616440707084876 0.018197290146858461 0.0027036411009055926 -0.0015149718818948527 -0.022326858481072194 -0.00035044292082393876 -0.00081131520930031184 -0.055706660912820789 0.010847388050285693 0.013311251769144534 -0.016281302229224161 0.0089658799846088506 -0.021107235199159743 -0.015536148449532806 -0.040120036825346254 -0.0043519395754407549 -0.019167119308695683 -0.022641977226233411 -0.0019198818116559972 0.0041289029187056179 0.0049417362295678009 -0.01340229693859947 0.00092303322204063021 0.011189681071934235 -0.0030611903969628568 -0.019626315613572021
leaf_weight=302.77864109294023 186.88333778651668 19266.792627894312 899.69802844793458 968.32480905200646 2247.1179963027389 53819.879965904889 239.90736175351776 182.09650452237111 410.65710519567438 114.18297215396888 4732.6069363816787 1118.8124691123267 471.05440379948413 157.68830376520054 596.10656061611371 371.29691810523218 1989.4318168687014 4997.0064995573903 23539.404146388762 142.26829228436691 1288.9890200529239 11730.329496517348 1000.3553091760041 3974.9820439084506 296.85100794178652
leaf_count=1736 986 143408 5738 5827 11784 398988 1126 655 2315 717 27857 6251 2699 1132 4172 2343 10672 36737 175507 710 8263 83068 7414 26415 1945
internal_value=6.8421e-05 0.000756078 -0.000571655 -0.000185963 -0.00703913 0.000115541 -0.0155117 -0.019819 -0.00914036 0.00283615 0.00401898 -0.0115673 -0.00212571 -0.0117055 -0.0216279 -0.0341753 -0.0184581 -0.00088505 0.00493684 -0.0181685 -0.00858396 0.000475267 0.00830084 -8.53113e-05 -0.026736
internal_weight=135046 129337 78945.3 76302.1 3215.44 73086.7 5708.51 3378.84 2329.68 50391.6 33571.8 2142.79 881.712 2643.23 3196.74 611.204 2585.54 5299.79 28272 1261.08 2188.69 16819.8 1114.54 15705.3 454.539
internal_count=968465 936536 577085 560007 17611 542396 31929 18968 12961 359451 241837 11975 5014 17078 18313 3469 14844 38473 203364 6961 14001 117614 8131 109483 3077
cat_boundaries=0 1 2 3 4 5 6 7 8 9 10 11
cat_threshold=1 2848 800 1249 257 20 1 2050 2050 18 2048
is_linear=0
shrinkage=0.0714161


Tree=16
num_leaves=25
num_cat=7
split_feature=2 6 6 3 6 0 9 9 3 0 3 10 3 5 6 9 0 0 7 0 0 9 9 9
split_gain=246.07 130.151 103.711 58.384 48.8669 40.1706 39.8263 35.0366 32.8779 32.632 29.3534 29.2376 27.0683 21.137 21.0551 17.4086 19.6327 15.0788 14.7392 13.6648 11.2959 9.22829 7.86115 4.41044
threshold=0 0.72057826370162437 2.6155120939138361 0.077666515363562824 -0.11301985136208341 1 0.0063307064695559802 0.1972208903034105 -0.10817496932961289 2 1.5865454584138079 0.9721312449991838 -0.85012467285172277 0.21925091715049191 7.2392209599176125 0.058436141156256831 3 4 0.49777022557486911 5 6 -0.96308506229589241 -0.063258901286980376 0.30497072588784863
decision_type=1 2 2 2 2 1 2 2 2 1 2 2 2 2 2 2 1 1 2 1 1 2 2 2
left_child=2 4 3 11 5 7 9 -2 23 -5 -8 12 -1 -7 18 16 -6 -3 -10 -16 -17 -13 -19 -4
right_child=1 17 8 6 15 13 10 -9 14 -11 -12 21 -14 -15 19 20 -18 22 -20 -21 -22 -23 -24 -25
leaf_value=0.0072922325405730395 -0.023023779413118749 0.024580413756203422 -0.0007153443289182516 0.0031363210112661188 0.013722359566421594 -0.028367534093456027 -0.0022244215589497809 0.0025335243242958377 -0.017641364634655796 -0.0017162406342487086 -0.014712126336153082 -0.0092387063550403489 0.002452445668152533 -0.049048217055356266 -0.00588737165959891 -0.00066824663421210324 -0.0092709697112405356 0.014609026468988703 -0.00085674779063853906 -0.037133729032290647 -0.021189506497837036 -0.00040523127345237943 -0.0037783304997723206 0.01642857622591273
leaf_weight=6650.6125649701353 1398.9217254682662 305.7011139371898 165.03728399449028 16932.790622888071 230.08514649986137 654.92454859578697 26647.132150635225 340.08993122558172 1126.5026948621344 12120.009532374483 995.91104524973707 637.24387386574017 51799.018741847343 409.76836712411659 108.42708207207397 176.92494117107708 904.73391532909591 211.0404682548542 349.65840614771878 368.26029885771277 783.20205926309427 11285.674607184101 270.69899225160043 142.71733907738235
leaf_count=39416 8864 917 819 122067 1249 4233 195128 2108 7694 87621 5160 3716 387709 2670 715 963 4976 753 2025 2921 4155 80804 1041 741
internal_value=6.26131e-05 -0.0144778 0.000701897 0.000971643 -0.0188097 -0.0249755 -0.000733853 -0.0179226 -0.0144605 0.00111246 -0.00267432 0.00234568 0.00300313 -0.0359889 -0.0178796 -0.010558 -0.00456983 0.0124713 -0.0136656 -0.0309289 -0.0176357 -0.000877354 0.00418983 0.00723493
internal_weight=135015 5686.09 129329 127068 4898.65 2803.7 56695.8 1739.01 2260.6 29052.8 27643 70372.5 58449.6 1064.69 1952.85 2094.95 1134.82 787.441 1476.16 476.687 960.127 11922.9 481.739 307.755
internal_count=968465 31929 936536 921621 29218 17875 409976 10972 14915 209688 200288 511645 427125 6903 13355 11343 6225 2711 9719 3636 5118 84520 1794 1560
cat_boundaries=0 1 2 3 4 5 6 7
cat_threshold=1 26 13 2 3 16 4
is_linear=0
shrinkage=0.0714161


Tree=17
num_leaves=23
num_cat=7
split_feature=2 5 9 3 5 0 5 0 3 3 10 5 0 0 0 0 5 5 5 7 5 10
split_gain=213.193 73.371 56.4684 41.5684 30.9989 30.0708 28.266 22.0788 23.4609 21.475 20.0308 19.0789 18.89 18.4771 17.0304 16.5403 11.5096 11.3431 9.70382 9.02005 7.73224 7.54818
threshold=0 -1.3572147312420018 0.66251932475529163 -0.067128724428559841 1.2991452117777318 1 0.13257604229354861 2 -0.70569173096812088 -0.64142551244969293 0.50738209040973248 -0.48479641367087462 3 4 5 6 0.083688904168869843 1.4913061322878514 -0.035347775654055051 0.069161397059229787 3.0332769785044387 0.76276535321739913
decision_type=1 2 2 2 2 1 2 1 2 2 2 2 1 1 1 1 2 2 2 2 2 2
left_child=1 -1 3 6 5 -5 21 16 13 18 -8 14 -13 -9 -11 -10 19 -18 -3 -4 -6 -2
right_child=2 9 7 4 20 -7 10 8 15 11 -12 12 -14 -15 -16 -17 17 -19 -20 -21 -22 -23
leaf_value=0.016315062621335599 0.002039142185276694 -0.011255119859505086 -0.012853682066111047 -0.00264718377778758 -0.0061627891596682995 0.0010421764581307307 0.0067027071408856847 -0.0094557203263078201 -0.00048489619731542638 0.010064334848958975 0.0015231499710745518 -0.0083405442751374546 -0.021643556492703688 0.02035616296755054 -0.012848307202697253 -0.0070606507958456376 -0.0038608677023765146 -0.018545766929427852 0.01099277828754687 -0.031254316249525953 -0.01742010017382303 -0.00069443532551672228
leaf_weight=391.6258752658905 21509.877340990148 194.59887622471433 364.49531820996526 14047.553130091937 2106.9679001824152 56769.83871681022 11852.011391433594 144.46224881062517 3912.9028095090935 202.79690132589894 5610.8712283477889 708.73542516854923 3170.2889470997634 362.56601205872903 786.89906149982562 3897.193972945749 1017.2442447509493 364.37011937032366 205.66816991602536 216.62614994263276 365.11924066122083 6774.5776803101398
leaf_count=1389 153830 1038 2451 105863 14600 417766 87749 728 25538 976 40706 4223 18796 1881 4317 25652 6681 2341 1190 1340 2592 46818
internal_value=5.77079e-05 -0.0135082 0.000651531 0.00109009 3.57005e-05 0.000310117 0.00277926 -0.00442678 -0.00280602 -0.0157248 0.0050385 -0.0170321 -0.0192903 0.0120772 -0.00818145 -0.00377582 -0.0112233 -0.00773368 0.000176459 -0.0197129 -0.00782546 0.00138441
internal_weight=134977 5660.61 129317 119037 73289.5 70817.4 45747.3 10279.9 8317.13 5268.99 17462.9 4868.72 3879.02 507.028 989.696 7810.1 1962.74 1381.61 400.267 581.121 2472.09 28284.5
internal_count=968465 31929 936536 869924 540821 523629 329103 66612 53799 30540 128455 28312 23019 2609 5293 51190 12813 9022 2228 3791 17192 200648
cat_boundaries=0 1 2 3 4 5 6 7
cat_threshold=2 16 1 16 16 2 18
is_linear=0
shrinkage=0.0714161


Tree=18
num_leaves=26
num_cat=11
split_feature=2 9 3 1 9 8 3 0 3 0 9 0 1 1 0 3 8 9 1 4 4 9 1 7 1
split_gain=170.327 44.1136 35.3841 35.2993 42.9393 40.3457 35.8584 46.2047 34.3466 42.8011 30.2494 28.0796 27.7533 21.36 20.6998 23.3828 20.5798 20.1081 17.5456 16.0836 15.91 14.3147 12.1916 10.2599 5.79337
threshold=0 0.92432064598322305 -0.23272943493317319 1 1.5081851459931106 0.22077921791195851 -0.11217228087394658 2 0.21927384974965039 3 0.02229488303010967 4 5 6 7 0.88059661832216529 0.032201873750039647 -3.8129277873267253 8 0.34290072440993075 1.7320435998472277 0.31432274861276305 9 0.57220695815561518 10
decision_type=1 2 2 1 2 2 2 1 2 1 2 1 1 1 1 2 2 2 1 2 2 2 1 2 1
left_child=3 8 12 5 16 11 7 -7 17 13 -11 -1 20 -10 22 -16 -5 24 -19 -18 -3 -8 -4 -14 -2
right_child=1 2 14 4 -6 6 21 -9 9 10 -12 -13 23 -15 15 -17 19 18 -20 -21 -22 -23 -24 -25 -26
leaf_value=0.032980092539390736 -0.0025516682381456443 -0.021041976617651951 0.0090378358696588893 -0.043403341400409058 0.020995336137120735 0.028798434847752338 -0.022664474895197902 -0.014569203440454679 -0.0014333831098148106 0.0023140334447874175 -0.0022268161333260437 -0.0070808634272036541 0.020169354937346607 -0.0088819250021468319 -0.010384228719211611 -0.040975818335801432 -0.01319914964118294 0.003207885148888982 0.0010314670046015673 -0.023596696407591933 0.004915598091069809 -0.0018751868202197346 -0.0049764453882018009 0.0028483003603038551 -0.017764211672711746
leaf_weight=217.03418432293984 228.17902402309119 239.90136560759856 378.55662560214114 149.981473544045 154.00539775151992 231.95613128512923 685.73169853509989 251.75515192991588 3570.600547493837 17127.476164180815 13286.73627078881 147.11746946534549 495.50282134780718 4392.8577237420905 2833.0636340576343 133.43574967520544 2466.4669548197089 28677.058910859516 55432.831636019633 1095.9228637654705 241.82568402474863 224.14113766549781 1717.0353116192823 269.15911064966349 326.31810134933039
leaf_count=1183 1290 1359 2340 853 536 1324 3897 1516 25534 121045 94851 765 3080 32622 18834 696 14414 207791 411055 6265 1413 1111 11209 1527 1903
internal_value=5.36819e-05 0.00058268 -0.00524188 -0.0121129 -0.0159148 -0.00363888 -0.00919045 0.00652123 0.000881311 -0.000890929 0.000330212 0.0175067 0.00553707 -0.00554819 -0.00789587 -0.0117208 -0.0174889 0.00168465 0.00177402 -0.0163978 -0.00784842 -0.0175432 -0.00241395 0.0138907 -0.0118705
internal_weight=134975 129351 6308.48 5624.11 3866.38 1757.74 1393.58 483.711 123042 38377.7 30414.2 364.152 1246.39 7963.46 5062.09 2966.5 3712.37 84664.4 84109.9 3562.39 481.727 909.873 2095.59 764.662 554.497
internal_count=968413 936549 40458 31864 22068 9796 7848 2840 896091 274052 215896 1948 7379 58156 33079 19530 21532 622039 618846 20679 2772 5008 13549 4607 3193
cat_boundaries=0 1 2 3 4 5 6 7 8 9 10 11
cat_threshold=2 1185 18 16 7 172 1606 18 2596 20 1426
is_linear=0
shrinkage=0.0714161


Tree=19
num_leaves=26
num_cat=8
split_feature=6 3 5 0 1 1 1 10 3 5 1 9 4 3 6 5 1 3 9 10 7 1 9 1 6
split_gain=51.748 40.4453 42.8086 48.7229 33.5155 33.5151 27.8247 21.6043 26.3175 22.831 21.9683 20.8474 17.0781 15.8574 13.8776 13.7808 10.5628 19.0687 12.9794 10.0327 9.45698 8.32514 7.02029 5.31398 2.60903
threshold=2.6155120939138361 0.18485192700336137 0.22591911898496403 0 1 2 3 0.77488682941654463 -0.88803391620663163 0.67197670417632327 4 -0.013123392827994783 0.84481465896132835 0.56675373317892996 7.2392209599176125 -0.12388520731585846 5 -0.81492333169094922 -0.96308506229589241 0.30113974953774775 0.83462408968173929 6 2.0235542507853785 7 4.5642557845031879
decision_type=2 2 2 1 1 1 1 2 2 2 1 2 2 2 2 2 1 2 2 2 2 1 2 1 2
left_child=1 7 3 6 22 13 -3 8 9 -1 -10 -5 -7 -4 15 21 17 -9 -18 -17 23 -6 24 -16 -2
right_child=4 2 5 11 14 12 -8 16 10 -11 -12 -13 -14 -15 20 19 18 -19 -20 -21 -22 -23 -24 -25 -26
leaf_value=0.0045398931332239325 -0.016520355124806464 -0.00055981661248779527 -0.0061873814321093184 -0.00088591452653917697 0.015078752303980595 -0.00010274399479539252 0.0050477572172957742 -0.027081652318755325 -0.0010976022171639626 0.017465570480034873 0.0020733448375926532 -0.0069691298615664563 -0.0075169754149633124 -0.013963818845453786 0.0019257223905154066 -0.015859307114325878 -0.0084988233881949232 -0.0035639165403298138 6.2008689491402388e-05 -0.001168160007568263 -0.0356062904108135 -0.0015050413873254204 -0.045795560394099051 -0.017703485662230099 -0.031292546529310496
leaf_weight=5091.6578210459102 116.57640121050645 8552.6499816991673 4305.7070492219627 6653.2224958171137 221.4397381588642 6986.9100912122376 9549.1212786947617 196.15368655539351 14646.043682708263 807.49846604185768 46541.416947672187 5057.3929883605852 2049.2741812172208 1939.9933977435594 106.52219529610375 524.28586478457737 952.47937780221037 1698.1055012939878 17481.2526967261 432.78644148295416 114.62871046173677 464.34827438247157 112.65171364922207 217.72209895742708 127.8610553448234
leaf_count=30076 741 61228 31850 47679 1212 50258 66238 1200 105721 4498 349504 36488 13083 12913 794 3518 5576 12360 124338 2747 774 2352 830 1502 933
internal_value=4.98077e-05 0.000239534 -0.00149762 7.77796e-05 -0.0102586 -0.00457097 0.00239947 0.00113568 0.0017537 0.00630921 0.0013145 -0.00351004 -0.00178221 -0.00858909 -0.00666101 -0.00367923 -0.000903928 -0.00596771 -0.000380127 -0.009216 -0.0179747 0.00404776 -0.0301996 -0.0117414 -0.0242474
internal_weight=134948 132509 45094.3 29812.4 2438.82 15281.9 18101.8 87414.6 67086.6 5899.16 61187.5 11710.6 9036.18 6245.7 2081.73 1642.86 20328 1894.26 18433.7 957.072 438.873 685.788 357.089 324.244 244.437
internal_count=968413 953010 319737 211633 15403 108104 127466 633273 489799 34574 455225 84167 63341 44763 12899 9829 143474 13560 129914 6265 3070 3564 2504 2296 1674
cat_boundaries=0 1 2 3 4 5 6 7 8
cat_threshold=7 96 2218 2947 11 16 2562 3089
is_linear=0
shrinkage=0.0714161


Tree=20
num_leaves=26
num_cat=9
split_feature=2 6 6 1 1 8 3 3 4 1 3 1 10 1 8 6 6 7 1 4 1 1 10 4 10
split_gain=146.977 94.939 80.003 52.3359 37.3715 35.6367 35.0014 33.2593 32.0073 32.2502 31.264 28.1402 27.814 19.057 17.6343 20.2861 17.3786 12.1308 10.2954 13.923 10.2094 7.51388 7.26652 6.97438 2.75239
threshold=0 0.25231839323498234 2.6155120939138361 1 2 0.08163265264473156 0.087890625770792999 -0.049185406097995418 1.1902328687319257 3 -0.025022644972448351 4 0.70262479283131152 5 0.039548022375435123 -0.4166736590236983 7.2392209599176125 -0.0074266933096356286 6 0.28866138497932975 7 8 0.78564169375743809 -0.41287335150291499 0.17374661070867284
decision_type=1 2 2 1 1 2 2 2 2 1 2 1 2 1 2 2 2 2 1 2 1 1 2 2 2
left_child=2 3 6 5 10 -2 12 -7 9 -8 -3 23 13 -1 -5 -16 21 -10 -6 -20 -14 -13 -18 -4 -25
right_child=1 4 11 14 18 7 8 -9 17 -11 -12 16 20 -15 15 -17 22 -19 19 -21 -22 -23 -24 24 -26
leaf_value=0.0042071727631993322 0.032233755682935218 0.0073840743587994511 -0.017821241025169701 -0.047605957655635571 0.025950236887682845 0.0052755383217508089 -0.0043108671752259608 -0.019036436433750182 -0.0022385487363187576 0.00063557493917039203 -0.025290834363453175 -0.011616272183697908 -0.0028703441189071341 0.0014751642534875018 -0.031706306693498283 -0.017475439147493603 -0.028192560904809642 -0.010637087931086191 0.01678451882379076 -0.0047477031603620143 0.00065442221228336232 -0.0014718377357768816 -0.0059316185400021286 -0.047008669826082629 -0.031010034092228564
leaf_weight=22737.15948752133 119.92771959659694 285.55314653698588 106.92088627393241 134.45755410128913 241.37152586044976 501.44219258028897 7930.060415897784 671.04739922382123 1518.1420255777793 43835.02223972301 313.12132386489247 653.65977407136234 6430.6509638515145 30551.74008314923 685.7472041500223 2003.6114468243131 299.48929595134177 2077.4639916705983 398.85974286988858 248.63693547871662 11994.277539709843 873.96766282309545 99.680032554431818 125.35607029823586 97.504673252067732
leaf_count=169427 674 1161 759 859 788 3095 61838 4047 10196 314968 1310 3970 45911 221135 4557 12572 2304 12819 1687 1114 85277 5563 693 954 735
internal_value=4.6205e-05 -0.011277 0.000536828 -0.0168651 0.00418597 -0.00480894 0.000773526 -0.00863886 -0.000575469 -0.000122897 -0.00954624 -0.0127923 0.00181491 0.00264192 -0.0222871 -0.0211041 -0.0093169 -0.00709104 0.0133917 0.00838668 -0.000576991 -0.00589824 -0.0226336 -0.0318496 -0.040009
internal_weight=134935 5603.78 129331 4116.23 1487.54 1292.42 127075 1172.49 55360.7 51765.1 598.674 2256.58 71713.8 53288.9 2823.82 2689.36 1926.8 3595.61 888.868 647.497 18424.9 1527.63 399.169 329.782 222.861
internal_count=968413 31864 936549 25804 6060 7816 921571 7142 399821 376806 2471 14978 521750 390562 17988 17129 12530 23015 3589 2801 131188 9533 2997 2448 1689
cat_boundaries=0 1 2 3 4 5 6 7 8 9
cat_threshold=1 1185 59 2176 96 2228 260 1170 1292
is_linear=0
shrinkage=0.0714161


Tree=21
num_leaves=29
num_cat=10
split_feature=3 6 6 1 0 0 6 10 9 8 9 1 1 1 9 9 3 0 3 3 0 0 7 0 3 10 8 8
split_gain=45.5701 47.4613 38.4949 31.0989 40.4216 33.869 30.0406 22.9293 22.4291 18.3205 30.7293 29.469 18.9131 17.8518 30.8768 23.7968 19.2116 16.6893 16.4249 16.3917 15.7804 15.1194 11.5102 10.5659 7.85717 5.23372 5.52401 1.17355
threshold=-0.25007898311119908 7.2392209599176125 -0.73307496560851948 0 1 2 0.54278951871438941 1.1811226621514608 0.40030260387345268 0.33599999798400143 -0.1139439802851198 3 4 5 -1.104704872107501 -0.10165747920441769 -0.53880543858005814 6 -0.85012467285172277 -2.1358533001321285 7 8 0.29617123936552331 9 -0.62213047254144949 -0.048885114709039036 0.49999999696959008 0.51190475936554536
decision_type=2 2 2 1 1 1 2 2 2 2 2 1 1 1 2 2 2 1 2 2 1 1 2 1 2 2 2 2
left_child=9 2 3 5 -5 -2 8 -8 -4 10 11 18 24 15 20 17 -16 -11 -1 -13 -15 -14 -17 -3 -12 27 -27 -25
right_child=1 23 6 4 -6 -7 7 -9 -10 13 12 19 21 14 16 22 -18 -19 -20 -21 -22 -23 -24 25 -26 26 -28 -29
leaf_value=0.025524588471714304 -0.022259217071611211 -0.0024571265204228017 0.00032293141186957039 0.0066838738380122801 -0.019380986678162414 0.0039568588200200837 -0.0051788604089208681 0.0036958573721427015 -0.0032397145520586005 0.014365955603803817 0.0049454595172633686 0.022827514534505013 -0.016445186385991416 -0.00093324283725960565 0.0083018978078195048 0.00047934644707325641 0.0027677988425741677 0.0019428520434199938 0.008256732309118579 -0.0016613396417140078 -0.034363846729245147 -0.0045822469141431161 -0.0062376293203651031 -0.031274400554762806 -0.0023169560946032287 -0.032625447084921745 -0.0098753560463619126 -0.042606485436088269
leaf_weight=377.57968783615797 298.11511002690895 122.73301413564695 76376.427191879149 376.46978556782415 1542.5446046141769 1354.625876719052 10322.733764674806 1734.2776191059675 10218.612163002821 929.25797369438305 1271.8664408807663 148.4209558685543 694.90779726931942 152.46765716833761 6346.0758984654967 4571.0670763478083 6452.2000103732971 1364.1437126876549 1097.7082182809172 2295.0685947508555 138.04171389877229 2603.4114264729678 1818.8951513740303 91.476407950030989 1887.1570421910001 104.3252113747767 113.83031112814206 95.030178181361407
leaf_count=1944 2603 768 572037 2639 11017 11071 64135 10180 70241 6369 8206 616 4439 837 40746 34145 47789 9361 7116 14991 717 17476 12118 744 14012 731 827 747
internal_value=-0.000202239 -0.000936442 -0.000826196 -0.0081096 -0.0142595 -0.000877328 -0.000562496 -0.00390232 -9.74772e-05 0.0021444 -0.000325159 0.00466376 -0.00335279 0.00332133 0.0049855 0.000806204 0.0055119 0.00704765 0.0125909 -0.000173144 -0.0180335 -0.00712375 -0.00143263 -0.0223053 0.000605077 -0.0275828 -0.0207548 -0.0370484
internal_weight=134899 102751 102224 3571.76 1919.01 1652.74 98652.1 12057 86595 32148.3 10376.1 3918.78 6457.34 21772.1 13088.8 8683.36 12798.3 2293.4 1475.29 2443.49 290.509 3298.32 6389.96 527.395 3159.02 404.662 218.156 186.507
internal_count=968622 747740 743923 27330 13656 13674 716593 74315 642278 220882 68800 24667 44133 152082 90089 61993 88535 15730 9060 15607 1554 21915 46263 3817 22218 3049 1558 1491
cat_boundaries=0 1 2 3 4 5 6 7 8 9 10
cat_threshold=3024 1 16 3650 2296 1392 20 26 16 16
is_linear=0
shrinkage=0.0714161


Tree=22
num_leaves=24
num_cat=10
split_feature=2 5 5 1 5 9 0 5 8 1 1 9 0 0 1 10 1 1 7 8 9 9 8
split_gain=123.901 80.9751 40.7973 31.4665 30.4548 32.8725 28.713 25.7891 24.5685 24.5294 20.0679 18.8911 28.0794 18.8542 17.4962 10.7494 10.4851 9.10682 7.77394 7.04003 6.08881 5.23827 1.92702
threshold=0 -1.7560549903168521 2.3910872230764526 1 -0.5035541194846106 -0.27374942848291689 2 -3.365136860069192 0.23728813157138756 3 4 0.41256951215886867 5 6 7 0.35288749252717833 8 9 -0.043951462698561372 0.21212120730026682 0.72254302055305208 1.5081851459931106 0.55696202179138443
decision_type=1 2 2 1 2 2 1 2 2 1 1 2 1 1 1 2 1 1 2 2 2 2 2
left_child=2 -2 7 4 8 -6 9 17 -3 -5 18 13 -13 -9 -8 21 -17 -1 20 -19 -4 -12 -20
right_child=1 3 10 6 5 -7 14 11 -10 -11 15 12 -14 -15 -16 16 -18 19 22 -21 -22 -23 -24
leaf_value=-0.029874205468005063 0.029250948265333563 -0.028158868591848362 -0.01902917684909617 0.010009271615577006 -0.045012788885819319 -0.019060201862485006 -0.005886931686870051 -0.0010759405510780394 0.00741762368650924 -0.0075252978226697459 -0.005895506154745424 -0.0054335594955612866 0.0005854214265468467 0.0012702859811233593 -0.023415154306393071 -0.014264292687223243 0.01000338393284193 -0.023907734855272807 -0.017971615661592475 -0.0037164128299365423 -0.037304107927848155 -0.020462421324556831 -0.0047468563415259462
leaf_weight=140.39449226266879 248.55951545240532 141.53216729254927 187.8606465563571 561.31290352750648 305.41920801694505 1345.6730986179828 512.27413413695467 21738.543390130606 329.46136376264622 1408.8815560059857 324.11051190021681 6495.4613667059293 10076.787812531607 88820.876423090827 739.77058841636745 115.37183116799133 324.77801941091457 119.27605746364679 110.63204721020065 336.65076877530555 184.11748797919518 205.88464664519415 114.2083030071808
leaf_count=1049 738 804 1380 3094 1651 8551 3103 161507 1631 8063 2217 43265 67039 650416 4179 784 2069 694 757 2081 1359 1431 760
internal_value=-0.000188244 -0.0105951 0.000261923 -0.0124483 -0.019201 -0.0238609 -0.00791701 0.000402433 -0.00327301 -0.00250434 -0.0111915 0.000471933 -0.00177663 0.000808981 -0.016347 -0.00465556 0.00354555 -0.0144145 -0.0213796 -0.00880557 -0.0280747 -0.0115542 -0.0112541
internal_weight=134888 5592.88 129295 5344.33 2122.09 1651.09 3222.24 127728 470.994 1970.19 1566.96 127132 16572.2 110559 1252.04 970.145 440.15 596.321 596.818 455.927 371.978 529.995 224.84
internal_count=968622 31814 936808 31076 12637 10202 18439 926051 2435 11157 10757 922227 110304 811923 7282 6501 2853 3824 4256 2775 2739 3648 1517
cat_boundaries=0 1 2 3 4 5 6 7 8 9 10
cat_threshold=1 2326 22 33 1249 9 16 1216 2050 104
is_linear=0
shrinkage=0.0714161


Tree=23
num_leaves=30
num_cat=10
split_feature=3 5 1 5 1 3 6 6 0 3 1 6 0 1 4 3 8 3 3 3 6 6 1 0 7 0 0 8 7
split_gain=39.3398 47.4498 37.7359 30.5249 29.0779 27.7311 27.8047 25.2218 26.9434 42.4079 25.3449 24.4315 45.077 23.7945 26.8921 27.9471 22.4028 27.499 21.567 26.9963 16.3081 16.3005 16.108 15.8646 12.5155 11.9277 10.8029 10.0879 6.61179
threshold=-0.19474099182540569 0.61307848049499858 0 0.096073725516112055 1 0.54384743881243625 -0.040131821414417304 7.2392209599176125 2 0.26036502055561006 3 -0.46544407712943209 4 5 -0.91254933362641066 -0.85012467285172277 0.19178081929067628 -0.7290163208917132 -2.1358533001321285 -0.78538904285939348 -0.62345408989483608 -0.29479119076834387 6 7 -0.029247305525794312 8 9 0.1627906960969874 0.069161397059229787
decision_type=2 2 1 2 1 2 2 2 1 2 1 2 1 1 2 2 2 2 2 2 2 2 1 1 2 1 1 2 2
left_child=3 7 5 13 21 6 -3 8 9 -2 -10 12 -4 18 15 -15 20 -18 26 -20 -6 24 -16 -13 -5 -23 -1 -7 -9
right_child=1 2 11 4 16 27 -8 28 10 -11 -12 23 -14 14 22 -17 17 -19 19 -21 -22 25 -24 -25 -26 -27 -28 -29 -30
leaf_value=0.023626034484424411 0.00030667134834006421 0.0054218743872534083 0.00033706799463643558 0.00023381723867557655 -0.02512588487255665 -0.027464441152472395 -0.0032368096547380197 -0.008117981903145343 0.0024559576498316381 -0.0072434449310794218 -0.00051428900248502729 -0.0034445862150746169 -0.028630301922314305 0.024621094583216666 0.0085528613752691718 0.0049222101057393641 0.014638010128408527 0.0054701558004087349 -0.011765556059240045 -0.0015866697611588586 0.00094333084885048354 0.0062865040684675156 -0.00047461874380914031 -0.010251322120558334 -0.010474708403293424 -0.0016384372772793203 -9.5382912816231106e-05 -0.0085811380971181107 -0.030579994211151096
leaf_weight=210.59426248632371 9297.7383416791363 3324.0552452931124 456.9423794778686 1269.4014500795529 134.61363984982017 168.53373129377724 4388.9913324589852 111.06396002636757 22531.474290013175 6410.2642048447251 41858.647380745031 4355.4263458507321 696.14016840694603 462.48248941686325 1109.0065514149755 1785.1662543315815 2348.5493875404436 5764.365628916481 1742.0448776943231 5603.5816917588672 1347.6217314960168 2407.8747018359918 10165.464628266303 2947.3352517837484 991.3810615393013 1614.6180666846321 185.77955820882926 1003.0697266172401 167.84055539401015
leaf_count=890 70566 25840 2979 9981 877 1099 31060 790 160044 46516 309209 30301 4284 2391 8182 11310 14504 43259 10749 40279 8909 16361 71373 20277 7148 10903 796 6560 1185
internal_value=-0.000175364 -0.000927368 -0.00431552 0.00180307 0.0041723 -0.00105905 0.000494783 -0.000196411 -0.00012176 -0.00277268 0.000525284 -0.00772673 -0.0173965 3.39052e-05 0.00184118 0.00897551 0.00664217 0.00812409 -0.00312101 -0.00400063 -0.00142422 0.000389388 0.000420529 -0.00621048 -0.004462 0.00311701 0.0131015 -0.0112975 -0.0216353
internal_weight=134860 97717.5 17340.5 37142.5 15878.4 8884.65 7713.05 80377 80098.1 15708 64390.1 8455.84 1153.08 21264.1 13522.1 2247.65 9595.15 8112.92 7742 7345.63 1482.24 6283.28 11274.5 7302.76 2260.78 4022.49 396.374 1171.6 278.905
internal_count=968622 710710 122400 257912 111942 64559 56900 588310 586335 117082 469253 57841 7263 145970 93256 13701 67549 57763 52714 51028 9786 44393 79555 50578 17129 27264 1686 7659 1975
cat_boundaries=0 1 2 3 4 5 6 7 8 9 10
cat_threshold=2961 1832 16 1572 17 149 2048 28 26 3
is_linear=0
shrinkage=0.0714161


end of trees

feature_importances:
month=121
gap_sigma=104
lag_20d_volatility_z=94
dow=58
lag_20_day_log_ret_z=58
interaction_z=39
prev_close_loc=34
hurst_z=33
is_month_end=20
lag_5_day_log_ret_z=18
rel_vol_z=18

parameters:
[boosting: gbdt]
[objective: binary]
[metric: binary_logloss]
[tree_learner: serial]
[device_type: cpu]
[data_sample_strategy: bagging]
[data: ]
[valid: ]
[num_iterations: 100]
[learning_rate: 0.0714161]
[num_leaves: 47]
[num_threads: 0]
[seed: 45]
[deterministic: 0]
[force_col_wise: 0]
[force_row_wise: 0]
[histogram_pool_size: -1]
[max_depth: 5]
[min_data_in_leaf: 725]
[min_sum_hessian_in_leaf: 0.001]
[bagging_fraction: 0.803243]
[pos_bagging_fraction: 1]
[neg_bagging_fraction: 1]
[bagging_freq: 3]
[bagging_seed: 32645]
[bagging_by_query: 0]
[feature_fraction: 0.784776]
[feature_fraction_bynode: 1]
[feature_fraction_seed: 3942]
[extra_trees: 0]
[extra_seed: 24660]
[early_stopping_round: 0]
[early_stopping_min_delta: 0]
[first_metric_only: 0]
[max_delta_step: 0]
[lambda_l1: 0]
[lambda_l2: 0]
[linear_lambda: 0]
[min_gain_to_split: 0]
[drop_rate: 0.1]
[max_drop: 50]
[skip_drop: 0.5]
[xgboost_dart_mode: 0]
[uniform_drop: 0]
[drop_seed: 5926]
[top_rate: 0.2]
[other_rate: 0.1]
[min_data_per_group: 100]
[max_cat_threshold: 32]
[cat_l2: 10]
[cat_smooth: 10]
[max_cat_to_onehot: 4]
[top_k: 20]
[monotone_constraints: ]
[monotone_constraints_method: basic]
[monotone_penalty: 0]
[feature_contri: ]
[forcedsplits_filename: ]
[refit_decay_rate: 0.9]
[cegb_tradeoff: 1]
[cegb_penalty_split: 0]
[cegb_penalty_feature_lazy: ]
[cegb_penalty_feature_coupled: ]
[path_smooth: 0]
[interaction_constraints: ]
[verbosity: 1]
[saved_feature_importance_type: 0]
[use_quantized_grad: 0]
[num_grad_quant_bins: 4]
[quant_train_renew_leaf: 0]
[stochastic_rounding: 1]
[linear_tree: 0]
[max_bin: 255]
[max_bin_by_feature: ]
[min_data_in_bin: 3]
[bin_construct_sample_cnt: 200000]
[data_random_seed: 185]
[is_enable_sparse: 1]
[enable_bundle: 1]
[use_missing: 1]
[zero_as_missing: 0]
[feature_pre_filter: 1]
[pre_partition: 0]
[two_round: 0]
[header: 0]
[label_column: ]
[weight_column: ]
[group_column: ]
[ignore_column: ]
[categorical_feature: 0,1,2]
[forcedbins_filename: ]
[precise_float_parser: 0]
[parser_config_file: ]
[objective_seed: 14259]
[num_class: 1]
[is_unbalance: 0]
[scale_pos_weight: 1]
[sigmoid: 1]
[boost_from_average: 1]
[reg_sqrt: 0]
[alpha: 0.9]
[fair_c: 1]
[poisson_max_delta_step: 0.7]
[tweedie_variance_power: 1.5]
[lambdarank_truncation_level: 30]
[lambdarank_norm: 1]
[label_gain: ]
[lambdarank_position_bias_regularization: 0]
[eval_at: ]
[multi_error_top_k: 1]
[auc_mu_weights: ]
[num_machines: 1]
[local_listen_port: 12400]
[time_out: 120]
[machine_list_filename: ]
[machines: ]
[gpu_platform_id: -1]
[gpu_device_id: -1]
[gpu_use_dp: 0]
[num_gpu: 1]

end of parameters

pandas_categorical:[[0, 1, 2, 3, 4], [1, 2, 3, 4, 5, 6, 7, 8, 9, 10, 11, 12], [0, 1]]
