tree
version=v4
num_class=1
num_tree_per_iteration=1
label_index=0
max_feature_idx=10
objective=binary sigmoid:1
feature_names=dow month is_month_end gap_sigma lag_5_day_log_ret_z lag_20_day_log_ret_z lag_20d_volatility_z rel_vol_z prev_close_loc interaction_z hurst_z
feature_infos=-1:1:3:2:4:0 -1:9:7:2:4:5:6:3:8:1:11:10:0 -1:0:1 [-88.75914176588708:87.786253445037332] [-21.517605587435579:19.734218696427071] [-19.442756764035639:18.985695436288015] [-2.5762688541623691:20.44823473638635] [-2.7602312489275107:19.210621736857718] [-1.3783783411249331:2.4249999393750072] [-22.263177516148545:22.149028292770112] [-7.4486600454815317:3.6473252033010093]
tree_sizes=2879 3040 2616 2713 2986 3012 2965 2834 2769 2636 2855 2153 3021 2984 2547 2991 3401 2883 3195 3034 3339 2574 2682

Tree=0
num_leaves=25
num_cat=1
split_feature=2 6 6 3 6 3 6 5 4 6 5 5 3 9 6 3 10 3 3 3 5 3 3 4
split_gain=1969.94 787.714 656.301 357.9 133.426 131.975 114.768 102.285 72.6699 63.0576 55.4622 41.1694 41.0568 36.095 32.9913 36.0884 31.8493 24.4532 21.1066 26.8143 18.7753 14.7786 13.8509 7.81456
threshold=0 3.375873930488186 0.4471773933233596 -0.34201079588139222 7.4705112167407393 0.21829337067146062 0.065936670117681492 -1.7811429293714813 0.88923265171305055 -0.20054468615717927 0.1245418349801065 0.22419016521674343 -0.10388296386828701 -0.18592081444063566 0.69906506492964704 0.01813902635863144 1.2692095094140889 -0.85891727055454803 0.55499645007694254 -0.35847325994996265 4.3980131286465189 -0.51434600988699775 -0.025323570876138835 0.93034360980141018
decision_type=1 2 2 2 2 2 2 2 2 2 2 2 2 2 2 2 2 2 2 2 2 2 2 2
left_child=1 3 9 10 12 6 -5 -4 -7 11 17 21 -3 -13 -9 -16 -12 -1 19 -11 -14 -2 -6 -24
right_child=2 4 7 5 22 8 -8 14 -10 18 16 13 20 -15 15 -17 -18 -19 -20 -21 -22 -23 23 -25
leaf_value=-0.035719987749354934 -0.079721492632378793 -0.046172880656130746 0.0057985996081556246 -0.042581110169561759 -0.10099726902000045 -0.048924331431945953 -0.049002721858277518 -0.068041516807119673 -0.058766849996932602 -0.07517168458497836 -0.03177380405748774 -0.14651782629469706 -0.079307211969564168 -0.11129972181747415 -0.024024200939782001 -0.059383639278917252 -0.045684026654130468 -0.042003806885315402 -0.070076080261729526 -0.09598843164735385 -0.10124845498950485 -0.10161448909145929 -0.12258701886144896 -0.14428189107877099
leaf_weight=4658.6973928214156 179.23597093523131 159.43766441941261 220.26459903991781 42197.857319864488 120.23319787437504 35547.240737977721 21389.951098221027 295.76367093596855 4287.3543527877191 378.74818965003942 9066.1805079236092 182.26838133754791 747.32706607029832 799.36777849083592 349.27530481218855 254.46891335130204 925.17726998484432 9808.3241018850713 235.95515595475445 1892.7849982150401 271.05395519734157 1282.5561986207613 315.62963143582601 115.72960386786144
leaf_count=27188 1019 777 569 333606 708 255322 144307 1324 27485 1926 62391 872 4798 4782 1258 998 6056 69983 1186 10134 1818 7716 2032 781
internal_value=-0.0474329 -0.0455706 -0.0871945 -0.0449231 -0.0934462 -0.0467604 -0.0447412 -0.0378196 -0.0499837 -0.0983619 -0.0371541 -0.106527 -0.0798713 -0.117839 -0.0485005 -0.0389277 -0.0330619 -0.0399803 -0.0904058 -0.0925175 -0.0851471 -0.0989301 -0.122433 -0.128408
internal_weight=135681 129610 6070.69 127881 1729.41 103422 63587.8 1119.77 39834.6 4950.92 24458.4 2443.43 1177.82 981.636 899.508 603.744 9991.36 14467 2507.49 2271.53 1018.38 1461.79 551.592 431.359
internal_count=969036 937252 31784 926338 10914 760720 477913 4149 282807 27635 165618 14389 7393 5654 3580 2256 68447 97171 13246 12060 6616 8735 3521 2813
cat_boundaries=0 1
cat_threshold=1
is_linear=0
shrinkage=1


Tree=1
num_leaves=27
num_cat=6
split_feature=2 6 6 6 5 6 6 0 9 9 0 0 8 6 5 10 4 0 5 10 6 0 5 4 8 8
split_gain=1701.38 680.419 567.585 115.912 88.1347 82.9902 55.6377 44.4776 44.0085 40.7739 39.0427 34.1806 26.1909 22.4921 21.8599 16.2287 15.6003 14.1357 13.7686 13.4582 10.1357 8.26738 5.99593 12.1567 4.8337 3.71319
threshold=0 3.375873930488186 0.4471773933233596 7.4705112167407393 -1.7811429293714813 0.69906506492964704 -0.40885603195998205 1 0.54393316949055692 -0.48817426748321752 2 3 0.15816326449916815 0.13617345088818802 4.3980131286465189 0.27276934367074168 1.8450600314640535 4 0.39558468592717438 0.64860795250450287 2.6731915400189492 5 1.0174418925603561 0.72060943206096362 0.43333331888888177 0.46808510140335075
decision_type=1 2 2 2 2 2 2 1 2 2 1 1 2 2 2 2 2 1 2 2 2 1 2 2 2 2
left_child=2 5 6 14 -4 8 9 -6 11 -1 12 -2 -8 -12 19 -9 20 -10 -11 -3 -7 -18 24 -24 -5 -16
right_child=1 3 4 22 7 16 10 15 17 18 13 -13 -14 -15 25 -17 21 -19 -20 -21 -22 -23 23 -25 -26 -27
leaf_value=-0.095417277921539936 0.0043012315151760606 -0.030551997579698464 0.049412867545615961 -0.088459728123524081 0.027967342145827644 -0.0025470186685208709 -0.02019359647104357 -0.020195348670166008 -0.0072888830308900539 -0.050142531284646505 -0.058214881886289933 0.001718727574885594 -0.040241271976539011 -0.036144073059704462 -0.037929432147912216 0.0015612114160426674 -0.0044194124062037913 -0.00040678148765640798 -0.067370726767159037 -0.011619248755614396 -0.013283072524486168 -0.018065026669514005 -0.048543319578085616 -0.079267660885567526 -0.069445851741940595 -0.054077876478429154
leaf_weight=149.89326710783644 65052.994402551456 600.60044343698246 220.38672849989962 114.02599603997078 199.38955012999941 7769.273062575272 402.02584919265064 359.90364312014572 1873.4580321657004 736.13255192899487 1085.9400218391966 43771.799018864433 1918.1334169022175 300.7089609270879 129.58352687782826 340.10400415780532 404.66814951990455 7959.8741054325192 348.65052862726952 281.12525561783696 475.96917227089398 579.19018691571546 148.14386516355808 117.99687658871699 169.64587820212182 165.21903429232771
leaf_count=684 478987 3755 569 756 664 47670 2265 1579 12449 4541 6288 326011 10343 1440 847 1337 2407 52348 2074 1694 2915 3551 963 736 1066 1097
internal_value=1.16218e-05 0.00174105 -0.0369704 -0.0427948 0.00893798 0.00234224 -0.0473736 -0.000979919 0.00284961 -0.060504 -0.0430001 0.00326304 -0.0366097 -0.0530461 -0.0301444 -0.0094892 -0.00418103 -0.00172579 -0.0556797 -0.0245156 -0.00316677 -0.012681 -0.069865 -0.0621653 -0.0770888 -0.0469797
internal_weight=135675 129614 6061.27 1726.34 1119.78 127887 4941.48 899.397 118658 1234.68 3706.81 108825 2320.16 1386.65 1176.53 700.008 9229.1 9833.33 1084.78 881.726 8245.24 983.858 549.813 266.141 283.672 294.803
internal_count=969036 937252 31784 10914 4149 926338 27635 3580 869795 7299 20336 804998 12608 7728 7393 2916 56543 64797 6615 5449 50585 5958 3521 1699 1822 1944
cat_boundaries=0 1 2 3 4 5 6
cat_threshold=2 2 22 13 1 18
is_linear=0
shrinkage=0.0714161


Tree=2
num_leaves=23
num_cat=6
split_feature=2 3 5 5 5 1 9 5 8 3 3 5 5 5 10 1 10 1 3 1 1 9
split_gain=1470.57 379.326 321.338 306.898 223.896 149.016 85.5912 85.5423 80.3086 77.3883 59.1825 49.5633 39.2174 37.1982 33.635 33.3638 29.3354 24.6693 22.0552 17.3663 15.776 15.0956
threshold=0 -0.12528436740067198 2.9637852394822426 -1.3704038038381749 -3.4584343501826678 1 1.162370693900272 0.74270340207075924 0.08163265139525025 -0.71002425271210701 -0.049223164091349005 0.6997985372947787 1.0000000180025095e-35 4.3980131286465189 0.69331339328438124 2 0.51885770065129977 3 0.076032963081474988 4 5 4.1919237480708196
decision_type=1 2 2 2 2 1 2 2 2 2 2 2 2 2 2 1 2 1 2 1 1 2
left_child=1 9 4 -2 18 8 12 -6 -5 11 -10 14 -7 20 -1 -13 17 -11 -3 -18 -4 -15
right_child=3 2 13 5 7 6 -8 -9 10 16 -12 15 -14 21 -16 -17 19 -19 -20 -21 -22 -23
leaf_value=0.013100100143028115 0.025698499578230408 -0.0540111751944009 -0.0021934860759671732 0.023892779489519459 0.00054786821844934419 -0.042595666669731323 0.0014285972954792942 -0.0061851400780227285 -0.013397836356430923 0.0038766138113857621 -0.037934016715961742 0.042411340867082599 -0.058354054220629226 -0.044863546870131853 0.003330047343284244 0.017324666096411884 0.0074341169262513258 0.00881309428237078 -0.019963762496151963 0.00060877911301238303 -0.03336481952290761 -0.069984760896559126
leaf_weight=6806.4238843311341 404.18454039008066 420.90060760447523 118.5248362160637 164.36638313048297 74208.692148694579 1526.7062310424301 167.62826423009392 11058.09127764446 844.61783423187899 8594.4408233873837 1233.7991304809684 400.0548481462356 1704.9992220151842 342.31468061142368 2441.9491123565713 980.56883985245622 2496.518535226438 13144.191247364139 126.11099832062609 7901.822674730869 384.68939276861784 189.55960509013676
leaf_count=42312 1373 2698 793 896 547732 8133 641 77527 4742 64463 6741 1990 9258 2272 14721 5904 18005 97353 615 57045 2593 1229
internal_value=1.05385e-05 0.00161648 -0.0010946 -0.0344161 -0.000617503 -0.0387225 -0.0481869 -0.000325323 -0.0240555 0.00712212 -0.0279631 0.0124046 -0.0509096 -0.0406481 0.0105204 0.0250266 0.00537498 0.00686728 -0.0461617 0.0022552 -0.0267295 -0.0538167
internal_weight=135661 129615 86848.9 6046.3 85813.8 5642.12 3399.33 85266.8 2242.78 42766 2078.42 10629 3231.71 1035.09 9248.37 1380.62 32137 21738.6 547.012 10398.3 503.214 531.874
internal_count=969036 937252 635459 31784 628572 30411 18032 625259 12379 301793 11483 64927 17391 6887 57033 7894 236866 161816 3313 75050 3386 3501
cat_boundaries=0 1 2 3 4 5 6
cat_threshold=1 1249 100 361 2816 2564
is_linear=0
shrinkage=0.0714161


Tree=3
num_leaves=24
num_cat=9
split_feature=6 3 5 3 3 0 1 6 1 5 1 3 1 1 6 5 1 1 5 3 9 8 1
split_gain=387.103 327.449 102.223 64.8055 60.3654 69.1176 53.1664 51.4721 78.0018 46.8185 53.9758 32.7352 32.6032 31.982 31.6256 27.0317 24.8045 22.7017 11.9436 8.52513 8.88561 7.87317 2.81912
threshold=4.6837799292787077 -0.1916079303668832 0.61189771841512441 -0.71002425271210701 0.24024217039383625 0 1 7.4705112167407393 2 0.57840497841007332 3 0.54385140023120915 4 5 2.6731915400189492 0.088701266516198779 6 7 -1.3704038038381749 -0.025323570876138835 4.1919237480708196 0.37096773595213267 8
decision_type=2 2 2 2 2 1 1 2 1 2 1 2 1 1 2 2 1 1 2 2 2 2 1
left_child=1 3 4 9 12 -6 14 8 -2 13 -11 -8 -3 -1 -4 17 -17 -5 -10 -9 21 -21 -20
right_child=7 2 6 15 5 -7 11 19 18 10 -12 -13 -14 -15 -16 16 -18 -19 22 20 -22 -23 -24
leaf_value=0.013276080348291412 -0.06016135825025732 -0.00097568300195953256 -0.010729769702209355 -0.00098203570173216849 -0.0094419907314584606 -0.0013609530439138377 -0.0019479434024061535 -0.038252969762420451 0.0097179556880549432 0.036193188001694396 0.011051017018349993 -0.013861455202298169 0.0027880437812719612 0.0047419077046520495 -0.034871740147224335 0.010125008138082115 0.0034530287377712446 0.0046193903260458163 -0.0071920652648363812 -0.066452322830527669 -0.073712241144581386 -0.043716680792656094 -0.023597020521136592
leaf_weight=4106.6928353085204 206.31476176929937 22860.717415847786 6387.4232573358931 6476.657218356806 6795.0542213930676 26166.794634147744 8775.374381480804 123.47004329378251 145.63630183617352 723.10636448182413 1150.6710696978189 1358.4214637561854 24112.278796060753 5000.5962552480742 289.28252969274763 5743.8100687126398 5687.5580356064393 8566.7297387710041 145.40714661634411 128.31930903169632 149.74652243446326 196.86155572894495 119.23559494345682
leaf_count=24946 1371 170391 43290 46064 49336 184376 64047 743 695 3918 7084 8718 179699 30849 1829 43124 41411 61791 925 801 960 1187 745
internal_value=7.98073e-05 0.000443122 -0.00175188 0.00611263 -0.0006873 -0.00303013 -0.00681401 -0.0400499 -0.0255691 0.0107251 0.0210057 -0.00354144 0.000956707 0.00860995 -0.0117582 0.00419949 0.00681731 0.00221022 -0.006548 -0.054971 -0.0593173 -0.0526884 -0.0157468
internal_weight=135416 134201 96745.3 37455.8 79934.8 32961.8 16810.5 1214.99 616.594 10981.1 1873.78 10133.8 46973 9107.29 6676.71 26474.8 11431.4 15043.4 410.279 598.397 474.927 325.181 264.643
internal_count=968300 960873 701686 259187 583802 233712 117884 7427 3736 66797 11002 72765 350090 55795 45119 192390 84535 107855 2365 3691 2948 1988 1670
cat_boundaries=0 1 2 3 4 5 6 7 8 9
cat_threshold=16 110 105 101 2139 3626 3282 155 2820
is_linear=0
shrinkage=0.0714161


Tree=4
num_leaves=26
num_cat=3
split_feature=2 6 6 3 6 6 4 3 5 3 6 0 5 3 10 3 8 3 3 5 3 6 3 4 0
split_gain=1360.32 493.591 474.118 247.016 94.5089 77.8367 73.0695 58.642 57.9372 44.9318 43.1823 36.9116 36.0066 32.5567 30.5999 29.7543 27.5583 26.966 26.1089 22.934 16.3929 13.0445 6.76255 7.39283 3.09774
threshold=0 3.375873930488186 0.4471773933233596 -0.1916079303668832 7.4705112167407393 1.3641829147685833 0.88923265171305055 0.31038223125569481 0.094684269181107936 -0.25265167066137084 -0.20054468615717927 1 -0.50224814836302289 -0.55696484756030984 0.80804413305207612 -0.059835556398483904 0.1999999966666626 0.11488591173275252 0.16418655965621426 0.16755251552924585 -0.018831314778637118 -0.026619108673733755 -0.025323570876138835 0.93034360980141018 2
decision_type=1 2 2 2 2 2 2 2 2 2 2 1 2 2 2 2 2 2 2 2 2 2 2 2 1
left_child=2 3 9 8 15 12 7 -5 14 11 19 24 -4 -10 -2 -3 -12 -17 -8 -11 -14 -13 -6 -24 -1
right_child=1 4 5 6 22 -7 18 -9 13 10 16 21 20 -15 -16 17 -18 -19 -20 -21 -22 -23 23 -25 -26
leaf_value=-0.0062626337325115307 0.0061661490443693607 -0.0026178689782818381 0.013064783080974319 0.0022905548608188782 -0.045435599005357173 0.03320224904200119 -0.0021095987261820111 -0.0017708493667797853 0.014402032384972297 -0.047124205015498327 -0.023166472751909365 -0.048229117045416561 -0.0039495754130756825 0.0077229370552321566 -0.00040792918539286536 -0.036319546585433994 -0.043612699064429709 -0.0049294449191534216 -0.0090872577840930974 -0.06315700646499639 -0.033142963540237269 -0.023877771139254243 -0.059352271957058798 -0.080547487474114027 -0.019129854199442776
leaf_weight=185.31803949832101 15831.269741642996 242.19035490322858 295.47123118527816 53278.051547725743 114.26780232119199 419.3164117046399 6001.6650603952912 27486.675042462477 6314.2359690127287 1014.280106400103 433.21780840776046 467.59287109096476 179.73951134870003 9067.2388497465745 4678.2390525704632 775.76636522257832 1501.5719154246599 170.20435937645379 5024.9665986447908 825.30716330658674 215.99212476560206 147.61420088884188 316.10853320275419 114.27360146772116 307.0532727544196
leaf_count=1043 110334 1328 1181 405094 728 1215 42199 194990 40760 6207 2378 2746 803 68242 31329 5237 8038 899 32541 4716 964 748 2107 766 1707
internal_value=7.39128e-05 0.00161421 -0.0331909 0.00212802 -0.0362455 0.00892736 0.00016382 0.000908336 0.00715147 -0.0427717 -0.0464831 -0.030124 -0.00579894 0.0104648 0.0046666 -0.0249533 -0.0390346 -0.0306717 -0.0052894 -0.0543171 -0.0198835 -0.0417082 -0.0608795 -0.06498 -0.014508
internal_weight=135408 129415 5992.47 127682 1732.81 1110.52 91791.4 80764.7 35891 4881.96 3774.38 1107.58 691.203 15381.5 20509.5 1188.16 1934.79 945.971 11026.6 1839.59 395.732 615.207 544.65 430.382 492.371
internal_count=968300 936554 31746 925489 11065 4163 674824 600084 250665 27583 21339 6244 2948 109002 141663 7464 10416 6136 74740 10923 1767 3494 3601 2873 2750
cat_boundaries=0 1 2 3
cat_threshold=2 18 2
is_linear=0
shrinkage=0.0714161


Tree=5
num_leaves=27
num_cat=9
split_feature=2 6 6 3 1 6 6 3 6 1 0 1 1 3 6 7 6 1 9 4 1 1 3 6 3 4
split_gain=1177.85 427.64 411.681 212.979 192.725 83.5074 72.722 87.5179 67.1121 64.5725 197.337 63.8284 58.9021 41.003 34.3269 27.471 27.3761 22.7737 21.8845 21.4553 20.4799 15.7187 14.4655 12.6944 6.06655 6.72466
threshold=0 3.375873930488186 0.4471773933233596 -0.1916079303668832 1 7.4705112167407393 0.66715805978479636 0.21829337067146062 1.3641829147685833 2 3 4 5 -0.71002425271210701 -0.32639904228299604 0.24113026477491392 0.21711321952866128 6 -0.41545298404644232 1.8450600314640535 7 8 -0.083057828177436302 4.6837799292787077 -0.025323570876138835 0.93034360980141018
decision_type=1 2 2 2 1 2 2 2 2 1 1 1 1 2 2 2 2 1 2 2 1 1 2 2 2 2
left_child=2 3 4 13 9 11 7 -5 12 10 -1 23 -4 20 18 -16 -11 -15 -6 -8 -2 -13 -14 -3 -7 -26
right_child=1 5 8 6 14 24 19 -9 -10 16 -12 21 22 17 15 -17 -18 -19 -20 -21 -22 -23 -24 -25 25 -27
leaf_value=-0.066918283843362208 0.0067549429782336363 -0.036864094412213388 0.029632954774911666 0.0028442429306621002 -0.093198533738747646 -0.042461427881598013 -0.0051628010890579761 -0.0017906844830572273 0.030829586074719115 -0.036128187418855734 0.015640983614693831 5.372003390429927e-05 -0.00088737001799714691 0.0072434115407053008 -0.054252477593922502 -0.03355159090134098 -0.0058752283821939012 0.0029482548632021135 -0.061277158927382586 -0.017382717444677828 0.013137461266714015 -0.019983355115567814 -0.026192629987870118 -0.065622095510755624 -0.055658757273951642 -0.07601531668008224
leaf_weight=193.81752741584205 4640.8596651872285 148.84118903467606 173.59685024956707 46305.54099904067 130.58504364400869 113.56554603076074 6976.2930708946114 37690.119607407883 419.33446377413929 1545.4477845335205 527.91961016463665 319.61386693715031 173.2427165891022 12500.720672601337 1157.4365894262155 455.67578998680983 169.26457536697308 12778.158610219258 679.62701005675444 818.82037438181214 5973.0924973941474 551.84327283007224 343.96360773915512 165.15373787882709 313.12260263427379 112.50414237508085
leaf_count=965 29476 941 613 354532 555 728 43841 271426 1215 9004 3136 2027 767 92732 6519 2408 810 93045 4186 5025 35412 3341 1568 1155 2107 766
internal_value=6.81104e-05 0.00149888 -0.0309464 0.00197601 -0.0399098 -0.0338253 0.000152113 0.000764481 0.00829211 -0.025365 -0.00714126 -0.023227 -0.00538869 0.00664038 -0.054205 -0.0484048 -0.0329497 0.0050763 -0.0664221 -0.00644642 0.0103655 -0.0127174 -0.0173804 -0.0503854 -0.0571266 -0.0610395
internal_weight=135378 129408 5969.91 127684 4859.77 1724.64 91790.8 83995.7 1110.14 2436.45 721.737 1185.45 690.803 35892.8 2423.32 1613.11 1714.71 25278.9 810.212 7795.11 10614 871.457 517.206 313.995 539.192 425.627
internal_count=968300 936554 31746 925489 27583 11065 674824 625958 4163 13915 4101 7464 2948 250665 13668 8927 9814 185777 4741 48866 64888 5368 2335 2096 3601 2873
cat_boundaries=0 1 2 3 4 5 6 7 8 9
cat_threshold=2 1257 33 8 104 324 3780 913 2576
is_linear=0
shrinkage=0.0714161


Tree=6
num_leaves=26
num_cat=5
split_feature=2 6 6 3 1 3 6 1 6 9 1 10 8 3 6 3 6 1 3 3 3 10 9 3 10
split_gain=995.591 408.501 326.345 170.323 162.133 68.7906 101.265 64.7492 58.9796 53.1016 51.4743 50.2627 47.8205 47.1389 43.8882 34.7778 26.3211 25.8547 24.5369 23.316 11.6971 9.17 7.3602 6.41902 4.41097
threshold=0 3.375873930488186 0.4471773933233596 -0.34201079588139222 1 0.35085973566233436 -0.03928894116675561 2 7.4705112167407393 0.028010142353684511 3 0.59328251047741842 0.077777777129633727 -0.049223164091349005 1.2537130946717265 -0.79354625904918297 0.1436395557268795 4 -0.39382570975905801 0.09350454992742166 -0.11669821908540662 0.16415657321607327 -3.6136828111571031 -0.025323570876138835 -0.27843180067972523
decision_type=1 2 2 2 1 2 2 1 2 2 1 2 2 2 2 2 2 1 2 2 2 2 2 2 2
left_child=1 3 4 11 12 6 -5 -4 10 -7 21 15 -2 -14 20 -1 18 -13 -6 -18 -9 -3 -12 -10 -25
right_child=2 8 7 5 16 9 -8 14 23 -11 22 17 13 -15 -16 -17 19 -19 -20 -21 -22 -23 -24 24 -26
leaf_value=0.013617707746689927 0.018921873400888811 -0.061903997454120348 0.042954935157766778 0.0039833936731414324 -0.03296949766890394 0.00036293363970483605 -0.0012939334612057161 0.00099371203360604167 -0.038193309537139453 -0.0059827778251124964 -7.236434806473109e-05 0.018831425935032318 -0.009398514389464421 -0.032926980252761584 0.017271534520991932 0.0069423165071182454 -0.043458778650271888 0.0012091926143699555 -0.052923316027446293 -0.0088201976135283845 -0.021528598291584346 -0.036907609338567009 -0.017867864333939516 -0.065565429046508097 -0.05075334869693722
leaf_weight=6281.6012229985554 147.80073220984104 169.60426180314971 193.29619020182872 43830.305617687962 368.96854069529218 15284.592729730412 32146.190484178369 171.11022559220146 116.89713492903684 12010.946066128152 142.14763609794318 443.05791727005999 733.12039975928019 1065.4743159056261 373.33969854659517 10866.31701869381 270.7410477642552 6845.3601460869977 2121.8120263561868 156.34739418688696 376.15470938655199 133.98551932718328 713.72806413997387 179.89709419215797 238.46298823114921
leaf_count=37845 821 1130 553 350481 2086 106504 219211 744 699 83530 724 3110 4305 6115 1170 79276 1275 45206 12337 737 1710 896 4649 1257 1613
internal_value=0.000135836 0.00145218 -0.0283577 0.00191441 -0.0363425 0.000645739 0.00175052 0.00651106 -0.03338 -0.00242939 -0.0243279 0.00727603 -0.0200248 -0.0233366 -0.00159026 0.00938764 -0.0469977 0.00230793 -0.0499675 -0.0307784 -0.0144867 -0.0492499 -0.0147401 -0.0529886 -0.0571226
internal_weight=135381 129403 5978.17 127708 4864.26 103272 75976.5 1113.9 1694.72 27295.5 1159.47 24436.3 1946.4 1798.59 920.605 17147.9 2917.87 7288.42 2490.78 427.088 547.265 303.59 855.876 535.257 418.36
internal_count=967984 936131 31853 925163 27676 759726 569692 4177 10968 190034 7399 165437 11241 10420 3624 117121 16435 48316 14423 2012 2454 2026 5373 3569 2870
cat_boundaries=0 1 2 3 4 5
cat_threshold=1 1249 260 104 2048
is_linear=0
shrinkage=0.0714161


Tree=7
num_leaves=25
num_cat=6
split_feature=2 6 6 3 1 6 3 5 1 5 0 3 3 10 6 5 5 0 6 1 3 6 5 3
split_gain=862.38 356.747 284.184 151.614 143.859 80.5385 81.2644 56.7609 69.1842 53.903 47.4574 56.951 38.3871 37.6465 31.7013 30.8038 29.0798 21.3099 20.5013 24.4551 20.3239 19.5188 19.1721 3.26618
threshold=0 4.6837799292787077 0.4471773933233596 -0.34201079588139222 1 0.50777912805152192 0.24024217039383625 -0.48365062732701614 2 0.7276176780166308 3 -0.049223164091349005 -0.075052174170963395 -0.64842265559937518 0.2081637523961766 0.22419016521674343 2.3883524676582168 4 7.4705112167407393 5 -0.82334805215366014 0.99328681874701497 0.46263643534259907 1.0000000180025095e-35
decision_type=1 2 2 2 1 2 2 2 1 2 1 2 2 2 2 2 2 1 2 1 2 2 2 2
left_child=2 3 4 9 10 6 -5 8 -4 13 11 -1 -3 -2 15 -6 -7 -16 19 -14 -11 -9 -12 -20
right_child=1 12 7 5 14 16 -8 21 -10 20 22 -13 18 -15 17 -17 -18 -19 23 -21 -22 -23 -24 -25
leaf_value=0.01772677110657167 0.010909424965794888 -0.0020264264147404295 0.04925182653562455 0.0028815639401283651 -0.03904038917585826 -0.0039753830715036874 -0.0015017935586779303 -0.021710900946617866 -0.0016558975113990402 0.023841391278861458 -0.024098665317351657 -0.019146813333153521 -0.057842438876077422 0.0038581854806058395 -0.0011496014613721528 -0.054007619100531791 -0.017265020979460966 -0.036615616099629406 -0.061745391290354966 -0.02066737255647378 0.011427485147706551 0.0048386280203005644 -0.054943718223949292 -0.049810239749909835
leaf_weight=354.90415301301982 5044.6758239339142 123.53633475629613 249.44976958102779 57053.751128966309 1908.8294185179329 11207.020124057392 34685.771090658731 311.38913396388671 293.86890797078377 1040.5472850178048 433.18757724761599 536.67755610683071 144.65611119594541 16469.022368167189 157.85243042604998 1108.6394719387063 907.78879889721065 202.53060457169158 195.86793719347042 327.35367304409738 1902.417739165161 258.45457182763494 134.74490986819001 290.22088502931001
leaf_count=2100 34714 657 729 437095 11084 70301 250010 1414 1053 5752 2532 3034 1035 111814 757 6467 6015 923 1379 2139 13255 981 779 1965
internal_value=0.000126048 0.00134855 -0.026457 0.00169285 -0.0339437 0.000501548 0.00122426 0.00607748 0.022593 0.00675166 -0.0148532 -0.0044193 -0.0394941 0.00551161 -0.0420241 -0.0445395 -0.0049712 -0.022129 -0.0443251 -0.0337237 0.0158167 -0.00966927 -0.0308732 -0.0546195
internal_weight=135343 129393 5950.53 128311 4837.37 103854 91739.5 1113.16 543.319 24456.7 1459.51 891.582 1081.63 21513.7 3377.85 3017.47 12114.8 360.383 958.099 472.01 2942.97 569.844 567.932 486.089
internal_count=967984 936131 31853 928956 27676 763421 687105 4177 1782 165535 8445 5134 7175 146528 19231 17551 76316 1680 6518 3174 19007 2395 3311 3344
cat_boundaries=0 1 2 3 4 5 6
cat_threshold=2 1185 2822 22 12 104
is_linear=0
shrinkage=0.0714161


Tree=8
num_leaves=25
num_cat=10
split_feature=2 6 6 1 3 6 3 3 1 5 0 3 6 1 0 1 6 10 1 5 1 10 3 0
split_gain=747.402 311.358 247.726 129.123 126.585 53.88 68.9559 52.4413 49.7406 46.7386 41.1508 77.6992 40.8346 46.2271 38.1035 84.0764 37.9752 33.5341 21.0104 19.8664 17.7589 15.1867 10.2861 3.3359
threshold=0 3.375873930488186 0.4471773933233596 1 -0.34201079588139222 0.4471773933233596 0.35085973566233436 -0.10388296386828701 2 0.7276176780166308 3 -0.40317763368006482 7.4705112167407393 4 5 6 1.2537130946717265 0.59328251047741842 7 0.635885128777125 8 1.2274365703527168 -0.11243130565622798 9
decision_type=1 2 2 1 2 2 2 2 1 2 1 2 2 1 1 1 2 2 1 2 1 2 2 1
left_child=1 4 3 14 9 6 -6 -3 -4 17 11 -5 13 -9 15 -2 22 -1 -12 -16 -11 -7 -10 -14
right_child=2 7 8 10 5 21 -8 12 16 20 18 -13 23 -15 19 -17 -18 -19 -20 -21 -22 -23 -24 -25
leaf_value=0.0069566881863409669 0.01163280873719286 0.0064996334329561305 0.034522187807070712 0.013320827907587138 0.0024107197476441978 -0.0046616057859273415 -0.0019852302582495326 -0.050174816720614142 0.00033092009241233425 0.025921277406812052 -0.036146888577082009 -0.041374638778151299 -0.028507329920534678 -0.015283373392502067 -0.027242569423219534 -0.024293061311678989 0.015497111675689462 0.00078651373273822098 -0.067331544058310377 -0.056733866298893966 0.011786211957575189 0.0026763005989931979 -0.02136417987745954 -0.055049375411195228
leaf_weight=15107.853225277731 489.24239067339931 185.25901703769341 229.39689766615629 145.65406886360142 64961.454409147416 11380.371143840934 25282.568009966686 272.65349003279334 161.97592464046829 584.66015903835796 257.10739101619401 1463.0859487701819 113.99938971808297 724.65953936827282 781.51445302641969 1005.2872040487337 363.52453670586692 6393.6849270806106 530.30087677827123 136.90808356292109 2348.2885846147547 1646.6444301835472 357.38775128338602 378.889215795567
leaf_count=103885 2820 938 712 829 498366 72170 179238 1879 700 3368 1814 8405 688 4726 4530 5741 1121 42590 2744 793 15594 9952 1644 2737
internal_value=0.000116267 0.00125179 -0.0246947 -0.0317197 0.00165308 0.000559385 0.00117916 -0.0293346 0.00567875 0.00627551 -0.0434839 -0.0361975 -0.0337895 -0.0254786 -0.0197753 -0.0125334 -0.00218181 0.00512193 -0.05773 -0.031298 0.0147325 -0.00373408 -0.014598 -0.0506058
internal_weight=135302 129381 5921.39 4809.1 127706 103271 90244 1675.46 1112.29 24434.5 2396.15 1608.74 1490.2 997.313 2412.95 1494.53 882.888 21501.5 787.408 918.423 2932.95 13027 519.364 492.889
internal_count=967984 936131 31853 27676 925163 759726 677604 10968 4177 165437 13792 9234 10030 6605 13884 8561 3465 146475 4558 5323 18962 82122 2344 3425
cat_boundaries=0 1 2 3 4 5 6 7 8 9 10
cat_threshold=1 1257 68 14 104 22 33 260 36 16
is_linear=0
shrinkage=0.0714161


Tree=9
num_leaves=23
num_cat=7
split_feature=6 3 5 3 9 1 9 0 1 5 1 6 1 1 1 9 6 6 3 10 3 10
split_gain=181.167 135.374 82.7752 42.029 35.7547 34.1153 39.1173 33.0128 32.2485 30.2615 30.4983 26.798 26.1354 25.2874 22.1664 26.7518 17.2584 12.8085 8.11115 9.38652 8.51371 1.59298
threshold=4.6837799292787077 -0.083057828177436302 0.74270340207075924 -0.62495576667979125 0.16814590927371917 0 0.27504231895355441 1 2 0.68567775567533695 3 -0.31697561870629093 4 5 6 0.1470196877089327 7.4705112167407393 2.2158890991001812 -0.038657241056557802 0.73778944832046844 0.024125957172959674 0.12548436540790775
decision_type=2 2 2 2 2 1 2 1 1 2 1 2 1 1 1 2 2 2 2 2 2 2
left_child=1 3 4 9 8 11 -7 -6 -3 13 -11 -5 16 -1 15 -4 21 -16 -14 20 -20 -2
right_child=12 2 14 5 7 6 -8 -9 -10 10 -12 -13 18 -15 17 -17 -18 -19 19 -21 -22 -23
leaf_value=0.0016474139378418844 0.0021344379416499428 -0.002038274402969473 -0.009153553549352697 0.010063052443489691 9.9808193042933571e-05 0.0016526721641484728 -0.0057800028664171891 -0.0065947149552368564 0.001428052912505701 0.026519016374758647 0.0070187047498405895 0.0027774645772564361 -0.02161961171812584 0.0084107721842655025 -0.0084100791513351189 0.004172000191380104 -0.029554720289781348 -0.019037696815415676 -0.055376506183027391 -0.02521713042956153 -0.033996762152066359 -0.008767191631860214
leaf_weight=5324.0673484186273 142.67381594597828 22220.011514004196 1450.0143387246858 3620.8297753468796 6499.9835339975252 19592.021739157557 4427.4770618840266 8909.5334085908398 35617.262304472526 720.43485559467717 986.36218187810755 8914.2401644261645 123.32098135288106 6025.2247344077141 7620.7683899795993 1634.5396430031033 232.19196279398602 625.89179965885342 251.57674581386163 129.61043063403122 152.62974636006402 131.25428290542914
leaf_count=33620 805 166469 10590 30032 45074 144281 29700 62839 259463 4096 6007 63761 695 37838 52526 10762 1427 4173 1769 835 989 802
internal_value=-0.000102941 0.000140327 -0.00159693 0.00310207 -0.000718192 0.00185979 0.000282501 -0.00377507 9.62485e-05 0.00658022 0.0154462 0.00487806 -0.0281653 0.00524688 -0.00727727 -0.00208543 -0.0149356 -0.00920551 -0.0375558 -0.0419409 -0.0473034 -0.00308914
internal_weight=135352 134189 84578 49610.7 73246.8 36554.6 24019.5 15409.5 57837.3 13056.1 1706.8 12535.1 1163.26 11349.3 11331.2 3084.55 506.12 8246.66 657.138 533.817 404.206 273.928
internal_count=968553 961231 611896 349335 533845 267774 173981 107913 425932 81561 10103 93793 7322 71458 78051 21352 3034 56699 4288 3593 2758 1607
cat_boundaries=0 1 2 3 4 5 6 7
cat_threshold=2704 6 2195 2149 2836 405 529
is_linear=0
shrinkage=0.0714161


Tree=10
num_leaves=25
num_cat=6
split_feature=2 6 6 1 3 6 5 8 3 3 5 0 3 1 5 3 6 3 8 6 1 1 8 10
split_gain=641.151 247.407 243.821 135.811 107.055 68.0146 54.5905 52.0109 47.911 47.9064 32.6946 36.546 29.3105 36.5849 23.8614 22.6161 22.4177 25.7903 22.3212 17.1873 29.4219 16.3528 11.8697 9.78628
threshold=0 4.6837799292787077 0.2081637523961766 1 -0.083057828177436302 1.2537130946717265 -1.3704038038381749 0.097104840067744766 -0.049223164091349005 1.2559200818853407 0.22419016521674343 2 -0.71002425271210701 3 0.85759978804658987 -0.075052174170963395 0.69906506492964704 0.027156792791603285 0.6914893543458529 7.4705112167407393 4 5 0.29776529230335419 0.64860795250450287
decision_type=1 2 2 1 2 2 2 2 2 2 2 1 2 1 2 2 2 2 2 2 1 1 2 2
left_child=1 4 3 7 12 9 -4 -2 -9 -6 18 -12 14 -14 -1 -3 21 -18 -5 20 -17 -8 -21 -7
right_child=2 15 6 10 5 23 16 8 -10 -11 11 -13 13 -15 -16 19 17 -19 -20 22 -22 -23 -24 -25
leaf_value=0.0061861155273584666 0.031296138543966463 -0.0048772411557723178 0.026680873281607377 -0.039778122960484746 0.0004565299174085267 -0.013088504861022456 -0.026467374819687289 -0.00038822494200405137 -0.029522322297069446 -0.0084989001025284252 -0.029098431537509586 -0.059699290146629058 0.0055446744671423598 0.0010020087042807307 0.018072135360787358 -0.049981052232547785 0.017301847071054255 -0.014129646136373603 -0.022877964259146205 -0.064881920778929902 -0.012242455677737797 -0.0048329694766079531 -0.039672782640313882 -0.0047924413943176919
leaf_weight=9651.6202078881324 125.35200293618163 125.32744703523349 324.71859610037063 1334.4544135600008 74478.695806382617 2221.7597501033101 306.66377146170998 502.06992076782626 674.85175903092386 3176.5246295971738 371.69768106601987 730.65566524822589 16038.033238252256 20747.893355347282 945.84005287241598 175.5574878638472 335.43895569543383 220.77266726005473 568.35527700474631 133.80865107612044 296.74503695410749 443.49820112505768 330.67407648986409 1076.6476733838704
leaf_count=59607 731 661 1006 7876 553780 14207 1493 3007 3909 17438 2525 4039 119685 152821 5301 1264 1261 857 3298 959 1915 2040 2338 6535
internal_value=-9.54959e-05 0.000957535 -0.0230408 -0.0319455 0.00124162 -0.000336421 0.000475171 -0.0123412 -0.0170938 9.02037e-05 -0.0402659 -0.0501866 0.00393767 0.00298431 0.00724696 -0.0333688 -0.00603865 0.00482599 -0.0347302 -0.0371806 -0.0275876 -0.0140943 -0.0469351 -0.0103806
internal_weight=135338 129399 5938.53 4307.44 128337 80953.6 1631.09 1302.27 1176.92 77655.2 3005.16 1102.35 47383.4 36785.9 10597.5 1062.11 1306.37 556.212 1902.81 936.785 472.303 750.162 464.483 3298.41
internal_count=968553 936511 32042 25385 929374 591960 6657 7647 6916 571218 17738 6564 337414 272506 64908 7137 5651 2118 11174 6476 3179 3533 3297 20742
cat_boundaries=0 1 2 3 4 5 6
cat_threshold=1 1185 24 2708 1128 563
is_linear=0
shrinkage=0.0714161


Tree=11
num_leaves=19
num_cat=8
split_feature=2 5 5 1 5 9 9 8 5 0 0 1 0 10 1 1 7 7
split_gain=556.743 130.56 118.736 83.5816 79.9569 46.9736 40.8109 30.345 30.2678 25.4589 24.4241 23.0272 22.5566 9.80993 9.53611 4.67725 4.94084 1.88332
threshold=0 -1.2664205221073057 4.3980131286465189 1 -3.4584343501826678 0.67920860197487942 1.162370693900272 0.08163265139525025 1.0000000180025095e-35 2 3 4 5 0.67009524123255371 6 7 -0.66515919699499093 -0.41385444005790689
decision_type=1 2 2 1 2 2 2 2 2 1 1 1 1 2 1 1 2 2
left_child=2 11 4 7 13 12 8 -3 -5 -9 -7 -2 -6 14 -1 17 -17 -4
right_child=1 3 15 6 5 10 -8 9 -10 -11 -12 -13 -14 -15 -16 16 -18 -19
leaf_value=-0.014430477277844255 0.032090224152626204 0.015559939213180878 -0.016254813663284112 -0.026305605769403655 -0.00044999073603748215 -0.011127649660680829 0.003241359636658947 -0.0071268538982017021 -0.040434469968413871 -0.02339340532497652 -0.0019174773198885552 -0.00036764740129847446 0.0020216350914072116 -0.010218685937397051 -0.039430869454391199 -0.053519772524376584 -0.034220331834781764 -0.029059821325382294
leaf_weight=167.27139134093886 210.05421425828536 167.51782232084133 114.70228909663274 1470.8283053407072 23471.193974910653 1809.3991592983821 160.10308490681928 934.98370513827922 1630.6893045900156 1098.1499140475771 7691.012068906346 235.03288732562214 95304.933693875239 160.99293681749259 259.99224191435496 109.43949663185049 177.20197103665851 119.72979689568456
leaf_count=1015 758 925 794 8131 173355 11726 615 5275 9317 6139 49259 882 694954 941 1662 769 1231 805
internal_value=-9.0092e-05 -0.0215305 0.000888809 -0.0245612 0.00102638 0.00114685 -0.0318216 -0.013594 -0.0337342 -0.016063 -0.00368533 0.0156632 0.00153335 -0.0252429 -0.030904 -0.0331333 -0.0401869 -0.0218621
internal_weight=135293 5907.36 129386 5462.27 128865 128277 3261.62 2200.65 3101.52 2033.13 9500.41 445.087 118776 588.257 427.264 521.074 286.641 234.432
internal_count=968553 32042 936511 30402 932912 929294 18063 12339 17448 11414 60985 1640 868309 3618 2677 3599 2000 1599
cat_boundaries=0 1 2 3 4 5 6 7 8
cat_threshold=1 1249 20 1 2469 16 3602 3857
is_linear=0
shrinkage=0.0714161


Tree=12
num_leaves=27
num_cat=10
split_feature=2 6 6 1 3 6 6 3 9 1 1 1 1 1 6 8 3 1 1 6 5 9 1 10 10 9
split_gain=456.668 225.932 162.29 108.954 74.0535 54.8849 52.1538 81.4735 43.1945 42.7057 40.9204 36.3134 35.1709 34.6412 29.4221 28.4137 27.9134 25.5694 18.3451 20.2729 14.909 12.4749 10.7536 10.211 9.19779 1.339
threshold=0 0.2081637523961766 4.6837799292787077 1 0.18853883503797172 1.064407653092621 0.095788384306394317 -0.82334805215366014 1.0000000180025095e-35 2 3 4 5 6 -0.30750227228084565 0.2291666642795171 -0.35847325994996265 7 8 7.4705112167407393 -0.70223095094850418 -0.069594625128005919 9 1.2093414292382969 -0.3297050868150681 0.38356605745111871
decision_type=1 2 2 1 2 2 2 2 2 1 1 1 1 1 2 2 2 1 1 2 2 2 1 2 2 2
left_child=1 3 4 14 6 13 9 -8 12 -2 23 -10 -6 21 -1 -16 -12 -7 25 22 -15 -3 -20 -5 -21 -4
right_child=2 5 18 10 8 17 7 -9 11 -11 16 -13 -14 20 15 -17 -18 -19 19 24 -22 -23 -24 -25 -26 -27
leaf_value=-0.02220362882090389 0.0010328860828785888 -0.0070518881627682564 -0.043834316775442909 -0.025839117079742808 -0.0021423044705687106 0.0029440372959042217 0.014845827037267244 -0.0016340781454819008 -0.010581015959177122 0.004905602866437978 -0.020327760869505721 -0.0024302039097727252 0.0036235535524727991 0.020613918628187955 0.038906086028167072 -0.0018729473756248503 -0.04361252301420588 0.034709825012102194 0.0046561690909989609 -0.047486623068157201 -0.0029769413225112749 -0.032790781290148827 -0.018895927590575467 -0.0063049990127740322 -0.025200001421039727 -0.055648897264723662
leaf_weight=221.45367954649555 24322.067630551213 155.57565619656816 97.549359387543518 1346.2122643299808 10426.049350954032 235.18296511447988 1638.436922481822 23124.408690195465 3287.1250986750329 36105.412292999958 308.58977356160176 18208.099594232306 11163.618813189951 193.7029087167175 122.56941760139307 301.53577009320725 1761.1500339640297 306.5651678426002 143.73976900911657 154.00449209204817 463.74557770369756 250.9650070837306 307.77613460547582 151.87915379513288 244.22165262512863 98.155757903514314
leaf_count=1254 182112 745 725 8086 75812 833 7784 153404 25186 278504 1894 128587 77870 826 701 1803 10645 856 906 1151 2110 1153 1970 875 1641 737
internal_value=-0.000112686 -0.0196835 0.000767957 -0.0283707 0.000996353 0.00311118 0.00221665 -0.000543683 -0.0014165 0.00334782 -0.0332111 -0.00368271 0.0008398 -0.00631022 -0.00108783 0.00991248 -0.0399479 0.0216147 -0.0272559 -0.0218163 0.00391406 -0.0223902 -0.0117135 -0.0237005 -0.0338188 -0.0473409
internal_weight=135140 5819.13 129321 4213.39 128275 1605.74 85190.3 24762.8 43084.9 60427.5 3567.83 21495.2 21589.7 1063.99 645.559 424.105 2069.74 541.748 1045.45 849.742 657.448 406.541 451.516 1498.09 398.226 195.705
internal_count=968170 31781 936389 25258 929259 6523 621804 161188 307455 460616 21500 153773 153682 4834 3758 2504 12539 1689 7130 5668 2936 1898 2876 8961 2792 1462
cat_boundaries=0 1 2 3 4 5 6 7 8 9 10
cat_threshold=2 33 1291 1224 2176 2961 1075 713 96 2576
is_linear=0
shrinkage=0.0714161


Tree=13
num_leaves=27
num_cat=13
split_feature=2 6 6 1 0 3 0 5 6 5 0 1 1 1 6 3 1 1 1 3 0 3 3 0 5 6
split_gain=395.911 197.125 143.118 95.3788 120.762 70.3202 50.2451 49.8504 40.1077 37.4418 37.3655 116.009 51.3604 33.2745 30.3737 55.5552 43.6955 28.2902 22.4511 20.9725 20.4952 15.2898 12.326 9.80742 10.3341 9.78123
threshold=0 0.2081637523961766 2.2158890991001812 1 2 0.18853883503797172 3 -1.3704038038381749 7.4705112167407393 0.33501975093981456 4 5 6 7 -0.11513391527482933 -0.82334805215366014 8 9 10 -0.083057828177436302 11 -0.038657241056557802 -0.052635238065495131 12 0.064744181773358042 3.375873930488186
decision_type=1 2 2 1 1 2 1 2 2 2 1 1 1 1 2 2 1 1 1 2 1 2 2 1 2 2
left_child=1 3 5 4 -1 14 17 -3 13 -8 11 -5 -12 25 16 -16 -2 -7 20 -20 -9 -6 -15 -10 -25 -4
right_child=2 7 8 10 21 6 9 18 23 -11 12 -13 -14 22 15 -17 -18 -19 19 -21 -22 -23 -24 24 -26 -27
leaf_value=-0.052372639586769319 0.0012561628510998932 0.027542926307866335 -0.01930323153737851 -0.0057639309631544464 0.031999173629944831 -0.0015644173171685816 0.0014232271974398043 0.017722106806174465 -0.011178512675213789 -0.0038773414677185339 -0.0090879640999411131 -0.039987850132279325 -0.046164421854093085 0.00099458294375787278 0.010071233394707025 7.5508535651287183e-05 0.0057715092589339118 -0.0097073933055520784 0.0046984010003609591 -0.020673287472994097 -0.010738643833392583 0.0063187898395456656 -0.011425856923048591 -0.051998358723571177 -0.028259597051037456 -0.045207221982835326
leaf_weight=162.73747693796759 21361.06663437988 332.1909623487154 129.78283223276958 937.99029075945509 207.81249228154775 3937.8442294543747 24628.50770400287 346.34256249063947 109.72379355548765 9387.5079884448933 248.33954253750744 1119.4387180127487 1233.3909666236286 568.54604049856425 3072.5733096557742 36814.662825865082 22417.121489279307 4894.1655932086651 255.94463079341222 473.71743661618166 195.69584454879077 274.36374948912908 1438.7578044617876 190.58161771836603 183.6655571679039 174.04657566218521
leaf_count=835 163531 1019 841 6149 1276 28334 175875 1313 686 65759 1604 6434 7313 3208 15849 254358 178421 36283 1091 2139 961 1647 9192 1460 1328 1264
internal_value=-0.00010497 -0.0183786 0.000712972 -0.0265386 -0.00101272 0.00106612 -0.00128663 0.00290855 -0.0152715 -3.9576e-05 -0.0310992 -0.0244884 -0.0400529 -0.0113568 0.00227105 0.000845494 0.0035699 -0.00608264 -0.0035264 -0.0116144 0.00743833 0.0170335 -0.00786871 -0.033966 -0.0392983 -0.0330542
internal_weight=135097 5787.96 129309 4184.07 644.914 126513 42848 1603.89 2795.1 34016 3539.16 2057.43 1481.73 2311.13 83665.4 39887.2 43778.2 8832.01 1271.7 729.662 542.038 482.176 2007.3 483.971 374.247 303.829
internal_count=968170 31781 936389 25258 3758 918410 306251 6523 17979 241634 21500 12583 8917 14505 612159 270207 341952 64617 5504 3230 2274 2923 12400 3474 2788 2105
cat_boundaries=0 1 2 3 4 5 6 7 8 9 10 11 12 13
cat_threshold=2 33 8 16 26 3210 68 96 1803 1606 2500 7 16
is_linear=0
shrinkage=0.0714161


Tree=14
num_leaves=23
num_cat=12
split_feature=2 5 5 5 1 5 0 1 9 0 0 0 1 1 1 0 4 10 7 5 4 0
split_gain=344.134 117.722 66.8199 63.0515 56.8295 43.6978 41.8164 48.9868 30.78 26.5669 21.8836 19.9409 16.4693 16.2304 15.0932 13.3303 11.3435 10.7362 9.82862 6.9295 5.41172 4.34547
threshold=0 -1.5776921568079494 2.3883524676582168 -3.4584343501826678 1 -0.48365062732701614 2 3 0.65222715041383805 4 5 6 7 8 9 10 -0.97697981427632719 0.40646644442346075 0.42857825164683433 2.9637852394822426 0.73540073741602507 11
decision_type=1 2 2 2 1 2 1 1 2 1 1 1 1 1 1 1 2 2 2 2 2 1
left_child=2 -2 3 13 6 9 7 -3 10 -6 -5 -10 18 -1 -8 -7 -15 19 20 -14 -4 -19
right_child=1 4 12 8 5 15 14 -9 11 -11 -12 -13 17 16 -16 -17 -18 21 -20 -21 -22 -23
leaf_value=-0.0048617446422243903 0.026247559558905582 0.012422009705204774 -0.02359791833400739 -0.00069387135040092798 0.0060925606689908301 -0.024508257030836346 -0.01368058418791521 -0.013468859818333434 -0.0096860947537078957 -0.023671014588020789 0.0017511663369942109 -0.001363290178846717 -0.004597164061346342 -0.02011369869852463 -0.03163256623730927 -0.03750612751207083 -0.0448925152142962 0.0051085948823103178 -0.0071105510098679976 -0.020037999688430955 -0.041031917705821923 -0.0085614374116967911
leaf_weight=196.07024152594386 301.64359362212417 541.10848643178542 222.72425934227795 23274.941201585709 280.17011224263115 939.04642061042978 512.99543886311403 1149.0398495890386 1807.6705042908288 323.69736601528712 94323.378014058151 7696.3553578720894 226.67441354155926 197.27652084284637 558.47807291360095 1151.1890118762558 180.38809476821916 277.90807034604404 118.38133772378205 428.3764794979943 153.32379105634755 191.77193710163192
leaf_count=1209 977 3015 1578 172174 1385 5683 3057 6459 11757 1661 688614 49323 1515 1107 2994 6550 1306 1809 714 2990 1030 1263
internal_value=-9.87899e-05 -0.0171827 0.000661938 0.000844768 -0.0195839 -0.0269747 -0.012232 -0.00515547 0.000951395 -0.010153 0.00126734 -0.00295792 -0.0137548 -0.0227769 -0.0232436 -0.0319635 -0.0311249 -0.00870913 -0.0245599 -0.0146948 -0.0307062 -0.00054644
internal_weight=135053 5757.37 129295 127676 5455.72 2694.1 2761.62 1690.15 127102 603.867 117598 9504.03 1619.16 573.735 1071.47 2090.24 377.665 1124.73 494.429 655.051 376.048 469.68
internal_count=968170 31781 936389 925490 30804 15279 15525 9474 921868 3046 860788 61080 10899 3622 6051 12233 2413 7577 3322 4505 2608 3072
cat_boundaries=0 1 2 3 4 5 6 7 8 9 10 11 12
cat_threshold=1 1257 22 33 10 16 1 1122 3840 1216 12 21
is_linear=0
shrinkage=0.0714161


Tree=15
num_leaves=26
num_cat=3
split_feature=2 6 6 3 6 0 3 5 3 3 6 0 9 8 9 3 3 5 5 9 3 3 6 6 6
split_gain=315.82 145.106 117.619 74.2659 57.5804 47.7838 44.6782 35.7463 32.9847 26.9851 26.0732 25.7138 19.4662 18.7012 18.6269 18.2072 16.0622 15.1416 13.2377 12.7363 11.6946 8.66636 4.76366 2.81143 2.62667
threshold=0 0.4471773933233596 4.6837799292787077 -0.063507339972949925 0.69906506492964704 1 1.5850752564473867 0.13084894500197439 -0.40317763368006482 0.011699923291111511 -0.77813193178796214 2 -0.11566212304586786 0.6914893543458529 0.54393316949055692 -0.23430264490679889 -0.075052174170963395 1.3656934645374186 -0.97026373845445346 4.1919237480708196 -1.0000000180025095e-35 0.076032963081474988 -0.37063312918344277 -0.22577753330956937 7.4705112167407393
decision_type=1 2 2 2 2 1 2 2 2 2 2 1 2 2 2 2 2 2 2 2 2 2 2 2 2
left_child=2 8 3 7 6 9 -5 14 13 -3 12 -12 -10 22 -1 -9 -4 -6 -7 21 -20 -18 -2 -15 -21
right_child=1 5 16 4 17 18 -8 15 10 -11 11 -13 -14 23 -16 -17 19 -19 20 24 -22 -23 -24 -25 -26
leaf_value=0.001928407309167005 -0.027493838734538808 0.043385952208380874 0.0009389625848413044 0.00043454102383610289 -0.0049053872242151679 0.007999725862266131 -0.010475378684247132 0.0069903814288261919 -0.067627551704109848 0.0073839130973530872 -0.035349400234834599 -0.019830226097999604 -0.027219325179614503 0.00043927326478643194 -0.0060267229653787318 0.0025080690295880576 -0.025039079222176637 -0.012892807133948882 -0.0020204406357598021 -0.032177718311183233 -0.025447791271596423 -0.0031002341012687971 -0.011334996963173468 0.015522460602887284 -0.047047638081995129
leaf_weight=28072.923808512583 138.09965923454729 217.29645992687438 123.17079701530747 70115.310107468234 4879.5265199166179 251.68041358204209 1968.1960493603547 13018.93998353459 120.07796919631073 207.66071622562595 723.48236267763787 2962.6914632340267 123.17827987248893 126.36019945949374 1586.0106031714895 7166.142465654324 554.82821756618068 1609.8041870788429 241.97700326764971 108.98543259716098 197.27578217012342 110.04861818696372 285.23708990929299 125.75302252641995 136.43307840373018
leaf_count=199271 881 707 669 523915 29548 790 10124 91382 677 795 4369 17787 817 783 10062 54667 4045 10998 1033 761 872 632 1590 679 1081
internal_value=5.66624e-06 -0.0164153 0.000731354 0.000924471 -0.000443416 0.00668991 0.000136652 0.00308077 -0.0220143 0.0252001 -0.0245203 -0.0230259 -0.0471659 -0.00743586 0.00150301 0.00539906 -0.0232651 -0.00688682 -0.00498729 -0.0265401 -0.0125421 -0.0214078 -0.0166063 0.0079627 -0.0404442
internal_weight=135171 5720.77 129450 128417 78572.8 1115.89 72083.5 49844 4604.88 424.957 3929.43 3686.17 243.256 675.45 29658.9 20185.1 1033.47 6489.33 690.933 910.295 439.253 664.877 423.337 252.113 245.419
internal_count=968935 31780 937155 929967 574585 4197 534039 355382 27583 1502 23650 22156 1494 3933 209333 146049 7188 40546 2695 6519 1905 4677 2471 1462 1842
cat_boundaries=0 1 2 3
cat_threshold=1 6 1
is_linear=0
shrinkage=0.0714161


Tree=16
num_leaves=30
num_cat=10
split_feature=3 5 1 3 1 6 5 3 5 1 3 1 6 8 1 1 6 4 9 1 3 9 0 3 5 1 1 6 9
split_gain=78.0804 75.5724 35.453 36.3836 50.8857 30.9917 28.5581 29.6978 24.2209 45.0089 50.3815 50.7555 35.4887 29.5982 25.1136 24.072 15.9153 15.2267 21.5373 14.7092 14 15.3831 13.5273 26.4202 18.6045 12.9694 12.7079 10.3776 5.34187
threshold=-0.075052174170963395 0.82238360175774272 0 1.0221585053538267 1 -0.8048584150123127 4.3980131286465189 0.68044577189145294 0.1245418349801065 2 -0.71002425271210701 3 -0.49464431889071298 0.017241379161710379 4 5 -0.47586330300820473 -0.84749953945635947 -1.1939830168964825 6 0.045942090827291768 0.0084461526836709586 7 -2.2070433478739537 -0.80628847920268598 8 9 -0.34610269808956762 1.5518602506129133
decision_type=2 2 1 2 1 2 2 2 2 1 2 1 2 2 1 1 2 2 2 1 2 2 1 2 2 1 1 2 2
left_child=8 2 20 5 -5 -4 7 15 14 13 11 -11 -12 -10 22 -3 -15 18 -16 -19 27 -22 24 -24 -1 -9 -8 -2 -28
right_child=1 6 3 4 -6 -7 26 25 9 10 12 -13 -14 16 17 -17 -18 19 -20 -21 21 -23 23 -25 -26 -27 28 -29 -30
leaf_value=0.0071812770115865067 0.0058049663203383582 0.0015331512787618736 -0.011869389276806997 -0.018319052170460655 9.1707791398632643e-05 0.0012522540000505925 -0.0081298660846768744 -0.0095048246911280075 -0.020389894104371978 -0.0029540885380627867 -0.011663913092670309 0.016347417983101874 0.00090449778176377696 0.016402148454547322 -0.0034595431822130505 -0.0071612993957868333 0.0077571157566196135 0.0079544271926124312 0.0095816335168081596 0.00074496208186489794 -0.0019527041702940957 -0.0062230603045997585 0.025736570543710761 -0.006392558195844251 -0.0020206857172931029 -0.02680152240464994 -0.024766865912345618 -0.0014652467333892214 -0.044341308657381791
leaf_weight=1452.9029666667693 1307.1959230297434 2172.8815877287261 936.25769852498343 1212.2629695109572 2059.1458596363736 47183.634455795218 187.86568728268321 491.33166484493631 173.94789194056648 1059.7145635728584 1307.273811072464 2014.6072598626552 9278.6473135106953 1347.8858596876244 839.11819135773112 6435.7882351584931 5592.392510927838 1594.0350477587635 2804.6152955388316 14481.894712152931 9564.1473844301854 7820.2967608238741 135.2399339498952 3753.1186084479141 4899.4266333737278 461.33058934718429 140.53791536696008 4280.2675126695394 143.92707514943322
leaf_count=9450 11235 15222 7226 7621 11525 343638 1323 2657 1016 6435 9668 12146 67934 10671 4455 45028 40760 11929 17990 102743 70229 58958 693 26357 35263 2735 991 31965 1072
internal_value=4.70163e-06 -0.0013263 -0.000541308 0.000501391 -0.00678636 0.000996949 -0.00714417 -0.00629734 0.00221881 0.00409271 0.00168846 0.00973778 -0.000647597 0.0086946 0.000919449 -0.0049733 0.00943609 0.00240881 0.00657837 0.00146524 -0.00287294 -0.0038737 -0.00194893 -0.00526155 8.38525e-05 -0.0182619 -0.0242864 0.000235631 -0.0334933
internal_weight=135132 84396.9 74363.2 51391.3 3271.41 48119.9 10033.7 9561.33 50734.8 20774.5 13660.2 3074.32 10585.9 7114.23 29960.4 8608.67 6940.28 19719.7 3643.73 16075.9 22971.9 17384.4 10240.7 3888.36 6352.33 952.662 472.331 5587.46 284.465
internal_count=968935 611425 542397 370010 19146 350864 69028 65642 357510 148630 96183 18581 77602 52447 208880 60250 51431 137117 22445 114672 172387 129187 71763 27050 44713 5392 3386 43200 2063
cat_boundaries=0 1 2 3 4 5 6 7 8 9 10
cat_threshold=2194 800 2194 1792 147 769 2048 14 1229 2707
is_linear=0
shrinkage=0.0714161


Tree=17
num_leaves=26
num_cat=12
split_feature=2 6 6 1 3 0 4 0 0 1 3 6 3 1 1 0 3 3 1 10 3 1 6 1 9
split_gain=273.135 126.721 96.6285 81.5684 58.5853 46.4864 47.03 41.1986 40.9009 96.3966 39.5446 37.5367 43.4826 31.781 31.5262 28.3061 77.0246 23.1615 22.4222 13.4289 13.2043 13.1143 17.212 8.84955 6.84047
threshold=0 0.4471773933233596 4.6837799292787077 1 0.21425213484527231 2 0.73540073741602507 3 4 5 0.43344719825262229 0.1436395557268795 -0.79354625904918297 6 7 8 -0.40317763368006482 0.011699923291111511 9 0.68150686021244311 -0.075052174170963395 10 7.4705112167407393 11 4.1919237480708196
decision_type=1 2 2 1 2 1 2 1 1 1 2 2 2 1 1 1 2 2 1 2 2 1 2 1 2
left_child=2 3 4 8 11 14 -7 17 9 -2 -10 13 -13 -1 -6 16 -5 -3 -17 23 -4 24 -23 -9 -22
right_child=1 7 20 15 5 6 -8 19 10 -11 -12 12 -14 -15 -16 18 -18 -19 -20 -21 21 22 -24 -25 -26
leaf_value=0.0045984055752038141 0.031929720901169051 0.040366773263991344 0.00073658935236344165 0.025642383760647938 -0.0012638228888487005 0.00095022351590812258 -0.0068744158305803129 -2.4616981927907687e-05 -0.020839377413601628 -0.025517635900274178 0.010383575508283059 0.011141017425570382 -0.0014234185618992121 0.0014054948965832599 -0.01012849956374564 -0.026877351971817579 -0.029571225287749942 0.0069946630343765727 -0.055267711151104133 0.0095803341863830646 -0.028726377789725366 -0.0026920123232063802 -0.029406413019566292 -0.020032982400474554 -0.049153393898251428
leaf_weight=27580.03086792698 311.62109638005495 216.79591451771557 123.22407117544208 142.16690400516381 3713.3422772155968 27405.857248975488 4571.2500981982157 204.73509513974932 1512.8384617197698 268.13462775017251 239.66081675808528 1503.2647775145633 21452.544700929906 37597.171706647161 4580.4056626347938 345.40823865753191 1377.0950462884575 207.67860908620059 381.7695911580231 227.46534578083083 289.17854347024695 255.173599729118 237.49340947988821 257.93269093186245 117.62040903617162
leaf_count=208876 1801 707 669 825 26550 196234 29741 848 9143 1572 1357 7176 141379 286154 33857 2467 8339 795 2079 789 2184 1607 1815 1058 913
internal_value=4.07406e-06 -0.0153052 0.00067751 -0.0205621 0.000851658 -0.00140505 -0.000168286 0.00628958 -0.0110433 0.00537839 -0.0164755 0.00188282 -0.000600635 0.00275751 -0.00616584 -0.0302607 -0.024245 0.0234858 -0.0423299 -0.00456139 -0.0211877 -0.0241913 -0.0152601 -0.0116126 -0.0338017
internal_weight=135120 5693.3 129427 4578.69 128404 40270.9 31977.1 1114.61 2332.26 579.756 1752.5 88133 22955.8 65177.2 8293.75 2246.44 1519.26 424.475 727.178 690.133 1022.69 899.466 492.667 462.668 406.799
internal_count=968935 31780 937155 27583 929967 286382 225975 4197 13873 3373 10500 643585 148555 495030 60407 13710 9164 1502 4546 2695 7188 6519 3422 1906 3097
cat_boundaries=0 1 2 3 4 5 6 7 8 9 10 11 12
cat_threshold=1 1257 16 6 16 73 2612 1606 14 772 1384 1480
is_linear=0
shrinkage=0.0714161


Tree=18
num_leaves=29
num_cat=14
split_feature=2 6 6 1 0 3 1 0 10 3 5 0 0 1 1 5 6 6 3 1 1 8 1 1 0 10 6 4
split_gain=242.177 147.523 102.071 67.6917 94.0858 57.4758 49.4318 50.2288 36.7088 34.5364 33.0157 38.7706 28.1782 82.4558 47.346 26.693 26.0177 25.1239 21.1655 20.2143 16.1886 13.2285 13.0242 10.9533 12.4193 9.60845 8.1836 3.35178
threshold=0 0.2081637523961766 2.2158890991001812 1 2 0.083055865187755304 3 4 0.57125925177021142 -0.73721564373352322 0.80419408238159384 5 6 7 8 -0.52141772548394372 1.5028720266840723 7.4705112167407393 -0.022301091493725719 9 10 0.22077921791195493 11 12 13 0.90666204672445783 3.375873930488186 0.016440681120997887
decision_type=1 2 2 1 1 2 1 1 2 2 2 1 1 1 1 2 2 2 2 1 1 2 1 1 1 2 2 2
left_child=2 3 5 4 -2 8 7 15 9 -1 11 -7 13 -5 -14 -3 18 20 -8 -12 26 -6 -10 27 -25 -22 -4 -19
right_child=1 6 17 12 21 10 16 -9 22 -11 19 -13 14 -15 -16 -17 -18 23 -20 -21 25 -23 -24 24 -26 -27 -28 -29
leaf_value=0.0080965174225187293 -0.046716357930197565 0.049605915355382592 -0.012156517115244904 -0.035531851111116994 0.036341090339783839 -0.0040690343412966862 -0.0010524550707093957 -0.0090871455489752711 0.0019988433975325804 0.0026579184501073706 -0.0016712415191667204 0.00087804210094608655 -0.056268371173932616 -0.0063565813628032406 -0.025300186063277042 0.015322159481635522 0.01461150646863944 -0.034463508892543251 -0.025937147954358083 -0.010116374883227032 -0.01021560682696598 0.0090942876973094354 -0.0015807331680006711 0.00028566036297129953 -0.030064172150747945 0.0014029766856906703 -0.036519658853586462 -0.053833651658373984
leaf_weight=6928.586549640655 154.76760447614652 229.37098355824128 121.08350175605301 913.39313860480615 121.40188240683347 10121.773696986455 342.45784157775779 228.68989315716317 8756.7650847971545 42388.875660895144 2970.0087575680036 39883.631193603076 358.28704623129306 1095.8587842652842 1075.9845779280004 233.98715407407144 216.67833050483023 91.687100389717671 355.0657005769026 2833.2534245375327 1518.9820755833571 361.49282238177784 12676.010160848802 125.54164318690891 158.51953043929097 477.03671961187501 167.72274264154839 90.567452676186804
leaf_count=42406 836 639 812 5338 741 75449 1555 1085 62414 319391 19839 289105 2140 7325 6714 951 644 710 1707 19436 9545 2184 90622 870 1213 2813 1269 743
internal_value=6.76917e-05 -0.0143554 0.000702061 -0.0215711 3.17159e-06 0.00099789 0.00397853 0.0182243 0.00234959 0.00342198 -0.000715695 -0.000123952 -0.0254922 -0.0197298 -0.0333722 0.031611 -0.00692902 -0.0129068 -0.0137197 -0.00581461 -0.00982359 0.0156208 -0.000118034 -0.0280135 -0.0170974 -0.00740175 -0.0254249 -0.0417958
internal_weight=134997 5687.44 129310 4081.19 637.662 126559 1606.25 692.048 70750.2 49317.5 55808.7 50005.4 3443.52 2009.25 1434.27 463.358 914.202 2751.14 697.524 5803.26 2284.83 482.895 21432.8 466.316 284.061 1996.02 288.806 182.255
internal_count=968496 31859 936637 25278 3761 918662 6581 2675 514833 361797 403829 364554 21517 12663 8854 1590 3906 17975 3262 39275 14439 2925 153036 3536 2083 12358 2081 1453
cat_boundaries=0 1 2 3 4 5 6 7 8 9 10 11 12 13 14
cat_threshold=1 33 8 2884 7 16 26 340 2066 853 96 2850 2250 18
is_linear=0
shrinkage=0.0714161


Tree=19
num_leaves=27
num_cat=10
split_feature=2 6 6 1 3 9 1 0 3 0 7 0 6 1 3 6 6 6 6 1 3 3 6 1 0 9
split_gain=210.739 131.581 88.4172 54.2343 51.0206 42.148 41.6916 32.5233 28.7811 41.2216 25.512 24.5361 23.9888 46.7302 40.5422 22.3143 20.7472 20.3765 16.5687 14.7892 22.0333 14.4803 11.7907 9.75673 11.0084 6.51479
threshold=0 0.69906506492964704 2.2158890991001812 1 0.18853883503797172 -1.0000000180025095e-35 2 3 -0.049223164091349005 4 0.61005669370809779 5 -0.073613415517810074 6 -0.41291089078588622 7.4705112167407393 -0.30147442956363707 0.1436395557268795 1.5028720266840723 7 0.14492621844118345 -0.22348793409708764 -0.18339902926779728 8 9 0.1519292707570645
decision_type=1 2 2 1 2 2 1 1 2 1 2 1 2 1 2 2 2 2 2 1 2 2 2 1 1 2
left_child=1 3 4 8 12 11 -3 -7 9 -1 17 -6 13 -2 -14 19 -10 -5 -8 20 -4 -21 -12 25 -25 -17
right_child=2 6 15 10 5 7 18 -9 16 -11 22 -13 14 -15 -16 23 -18 -19 -20 21 -22 -23 -24 24 -26 -27
leaf_value=0.025846368358831105 0.00027710352983610403 0.034003852256085355 -0.02306635413790958 -0.030609271820504599 0.0063047262851236895 -0.0057000255571149619 -0.012169863218734421 -7.0775512990107329e-05 -0.028926514061652156 -0.0087960638578540428 -0.021479869447245958 2.7116466112936249e-05 0.0054044242169292078 0.0048326758602547015 -0.00062981745601220203 -0.028064938777463206 -0.0090065937467655247 -0.014267047640774565 0.014136839606981661 0.01787870726551306 0.010823937706925224 -0.0071727763484600218 0.00083770209738035417 0.00026673758927348468 -0.028371930972355942 -0.055311482816352765
leaf_weight=240.5688254073757 19219.425183047348 300.34465683440067 616.04480410544784 1888.4312751261168 3867.181043411154 12348.592922190295 255.57648126676213 9091.8694846851431 403.90406302486099 572.81198584719459 221.24363706797612 17556.993467193093 7070.9477523279274 28556.458690291856 28842.935490741547 89.392061012058548 784.87458800866807 490.13138186986907 233.82544354136917 128.31082819215953 116.31436329847202 1420.4437234332254 265.77287318780145 125.55515813428792 156.64545564186119 89.640097568830242
leaf_count=1374 146552 955 4056 12211 27480 89538 1080 64063 2530 3401 1377 125372 41235 224935 199487 669 4475 2369 713 645 590 9148 1374 870 1213 784
internal_value=6.13343e-05 -0.0134301 0.000651662 -0.017817 0.000926574 -0.00107705 0.0136096 -0.00331562 -0.00864879 0.00165955 -0.0241085 0.00116321 0.0019528 0.00300112 0.000558241 -0.012035 -0.0157747 -0.0272418 0.000390912 -0.00913826 -0.0174456 -0.00506462 -0.00930081 -0.0263615 -0.0160571 -0.0395007
internal_weight=134954 5657.49 129297 4867.74 126554 42864.6 789.747 21440.5 2002.16 813.381 2865.58 21424.2 83689.8 47775.9 35913.9 2742.35 1188.78 2378.56 489.402 2281.11 732.359 1548.75 487.017 461.233 282.201 179.032
internal_count=968496 31859 936637 29111 918662 306453 2748 153601 11780 4775 17331 152852 612209 371487 240722 17975 7005 14580 1793 14439 4646 9793 2751 3536 2083 1453
cat_boundaries=0 1 2 3 4 5 6 7 8 9 10
cat_threshold=2 1249 2566 25 16 1 1291 356 2250 18
is_linear=0
shrinkage=0.0714161


Tree=20
num_leaves=29
num_cat=6
split_feature=3 5 1 10 1 6 9 4 1 5 1 7 9 9 9 3 3 8 6 10 1 5 9 4 5 1 3 3
split_gain=58.7414 53.4399 35.1452 30.427 27.4061 27.5352 29.069 25.2737 24.4934 22.7578 43.4594 25.2369 22.1941 22.0264 21.129 20.9703 16.1954 14.367 13.2537 12.4734 11.9031 20.5476 16.8199 9.6985 9.09654 7.743 6.61197 5.78627
threshold=-0.083057828177436302 0.64821227491784106 0 0.52847782341652227 1 -0.62349062301664204 0.0064488199207604043 -0.33239200593082802 2 0.13084894500197439 3 -0.06517950015277342 -0.64986023648222702 0.38356605745111871 1.7906511677927595 -0.33455007040504853 0.97146299939764469 0.017241379161710379 -0.017815513322148646 0.29252180034219782 4 -0.9462900673726049 -0.052074967610107964 2.3716953423154923 -1.0508625477536548 5 -0.82334805215366014 0.11118658434420677
decision_type=2 2 1 2 1 2 2 2 1 2 1 2 2 2 2 2 2 2 2 2 1 2 2 2 2 1 2 2
left_child=3 4 16 9 7 12 -7 17 24 20 15 -12 -6 -9 19 -11 18 -2 -3 -4 22 -22 -1 25 -5 -10 -26 -16
right_child=1 2 14 8 5 6 -8 13 23 10 11 -13 -14 -15 27 -17 -18 -19 -20 -21 21 -23 -24 -25 26 -27 -28 -29
leaf_value=-0.0050233678675942143 0.011691998149366547 0.0063135456433376768 -0.0085228938066054163 -0.00988398312852053 0.021972488857948658 0.0026703197665183375 -0.00089927689285258794 0.00068634139947183368 -0.0063036409593300235 0.013839027269910403 0.0054881587247680884 -0.0028526809520996394 -0.0081603184738619737 -0.0068004351231455845 -0.023110878967733773 0.005572296047912895 -0.018809315090437224 -0.0062446511772327436 -0.0023445210625950464 -0.0032736688780187081 0.0092927376122578977 0.0016459082175908542 0.0029654850557367675 0.014731123078252275 0.026911304274990076 -0.00095278770266365791 0.0097781268042012714 -0.0097641095319283763
leaf_weight=2798.5030298559286 234.95613080563271 1758.6407488801615 5604.1000141811637 105.9076270581354 131.47771894893958 25440.823214084521 21442.125636764038 11660.993129845661 1532.4407320100297 3249.8965887994236 4163.0833994940258 3330.1327503067205 2406.6549951460911 2420.1972822598509 509.54089356322947 3018.837031697587 203.99357733203942 7436.3637642472931 1850.7178547931521 3926.4262980163912 2093.7944569118026 12443.252897896049 2586.4438801387778 189.82481993827969 133.58751982951071 13174.578372280092 820.38770315673901 245.48244827231974
leaf_count=18536 1704 13127 39637 634 883 181048 154819 91530 10745 22089 31335 22881 19005 17074 3655 22876 1142 53784 12547 27292 13112 90776 18106 1057 907 90672 6107 1416
internal_value=5.68566e-05 -0.00108013 -0.00509703 0.00200997 -0.000284415 0.000645394 0.00103775 -0.00239611 -0.000558929 0.0032269 0.00546035 0.00177895 -0.00659941 -0.000600444 -0.00726429 0.00984231 0.000765619 -0.00569529 0.00187408 -0.0063603 0.00168405 0.0027454 -0.00118404 -0.00130737 0.00987966 -0.00151527 0.0121773 -0.0187714
internal_weight=134913 85272.5 14098.9 49640.7 71173.6 49421.1 46882.9 21752.5 15956.7 33683.9 13761.9 7493.22 2538.13 14081.2 10285.5 6268.73 3813.35 7671.32 3609.36 9530.53 19922 14537 5384.95 14896.8 1059.88 14707 953.975 755.023
internal_count=968496 618663 98816 349833 519847 355755 335867 164092 110122 239711 99181 54216 19888 108604 72000 44965 26816 55488 25674 66929 140530 103888 36642 102474 7648 101417 7014 5071
cat_boundaries=0 1 2 3 4 5 6
cat_threshold=529 2193 2048 2198 21 16
is_linear=0
shrinkage=0.0714161


Tree=21
num_leaves=23
num_cat=11
split_feature=2 6 6 1 0 1 1 6 0 6 1 6 0 1 6 1 6 0 5 4 5 10
split_gain=167.992 89.4399 78.4995 57.5409 72.9085 40.6722 40.0198 32.0583 32.283 30.4987 24.4182 19.8808 19.7954 16.9773 21.7646 15.5696 14.1415 10.0509 8.36358 7.09509 8.94112 2.27727
threshold=0 0.69906506492964704 7.4705112167407393 1 2 3 4 -0.52160447927334641 5 0.1436395557268795 6 1.5028720266840723 7 8 -0.52160447927334641 9 2.2158890991001812 10 2.0422995234782579 0.75069056515252408 -1.0000000180025095e-35 -0.019615456111635531
decision_type=1 2 2 1 1 1 1 2 1 2 1 2 1 1 2 1 2 1 2 2 2 2
left_child=1 3 9 4 15 -3 -6 12 -9 13 16 -7 -5 14 -2 -1 -11 -15 -12 20 21 -4
right_child=2 5 19 7 6 11 -8 8 -10 10 18 -13 -14 17 -16 -17 -18 -19 -20 -21 -22 -23
leaf_value=-0.017889851280363384 -0.0040336791310511266 0.035559012542733401 -0.041064590752004818 -0.018315920380420587 0.01707359403337233 -0.013026118781933639 -0.0078947185768818082 -0.0088294489935039286 -0.024855357546429466 -0.0027269251899956076 0.0010546414842050491 0.013356953470647989 -0.051126996069974097 0.0031287190630531671 0.00073243591958551269 -0.054522256249818248 -0.010705516495768364 0.0012053857037803266 -0.0061750306245019959 -0.043211808166546614 -0.0091218928481356775 -0.025518070732839206
leaf_weight=158.25911116235329 5718.9136491475001 217.08046860311879 96.33678746278747 201.04272359424795 550.20656679083095 298.54257581056299 779.02815862971693 1120.2648868590331 1619.3520677740462 14639.075338288807 14542.526331584993 284.48451846008538 269.9320196894696 22826.642101369434 33580.026373963927 137.82236546493368 1228.0617664561505 35368.992923000362 864.63015752364481 130.83657702173514 131.11248071574664 95.884863751969533
leaf_count=1006 44783 638 774 1516 3286 1268 4689 6796 9510 93268 91465 864 1598 172859 247842 708 7847 269078 5842 1072 987 693
internal_value=-6.7501e-05 -0.0121369 0.000458901 -0.0157963 -0.00472946 0.00998085 0.00249066 -0.0213176 -0.0184251 0.000563436 -0.00137713 -0.000150085 -0.0385955 0.00118593 3.8845e-05 -0.036166 -0.00334233 0.0019602 0.000648501 -0.0291796 -0.0235015 -0.0333096
internal_weight=134859 5636.02 129223 4835.91 1625.32 800.108 1329.23 3210.59 2739.62 128769 31274.3 583.027 470.975 97494.6 39298.9 296.081 15867.1 58195.6 15407.2 454.171 323.334 192.222
internal_count=968389 31879 936510 29109 9689 2770 7975 19420 16306 932984 198422 2132 3114 734562 292625 1714 101115 441937 97307 3526 2454 1467
cat_boundaries=0 1 2 3 4 5 6 7 8 9 10 11
cat_threshold=2 225 8 2084 33 10 2292 24 1163 129 5
is_linear=0
shrinkage=0.0714161


Tree=22
num_leaves=24
num_cat=10
split_feature=2 6 6 1 0 1 1 0 6 5 0 1 1 6 9 5 0 5 4 5 6 9 10
split_gain=146.027 81.5201 68.5866 55.0485 61.5009 38.9506 28.8093 32.3584 26.3001 23.3952 21.3344 21.0596 14.6397 18.7675 16.4197 12.489 10.3373 7.21589 6.41561 7.93541 6.03255 5.95417 2.05511
threshold=0 0.2081637523961766 7.4705112167407393 1 2 3 4 5 0.1436395557268795 -1.2664205221073057 6 7 8 -0.52160447927334641 -0.32467823303896787 4.3980131286465189 9 2.0422995234782579 0.75069056515252408 0.064744181773358042 1.3641829147685833 -0.12963785606989858 -0.019615456111635531
decision_type=1 2 2 1 1 1 1 1 2 2 1 1 1 2 2 2 1 2 2 2 2 2 2
left_child=1 3 8 4 -1 20 16 -8 12 -7 -11 17 13 -2 -14 -13 -5 -10 19 22 21 -3 -4
right_child=2 5 18 6 -6 9 7 -9 11 10 -12 15 14 -15 -16 -17 -18 -19 -20 -21 -22 -23 -24
leaf_value=0.038802905843633079 -0.0037457581833910954 -0.0048798023870836767 -0.038820812904641212 -0.0058561207286173351 -0.02183281488133719 0.032619059705432767 -0.014628081665058617 -0.033834660760829235 0.00097929779275208453 0.015579232805215247 -0.0091067538974371597 -0.0029054642413391773 0.0050790007539933757 0.00068012340590267977 0.0013789391464876539 -0.023111820123216765 -0.017210110531672092 -0.0057382941260435824 -0.040944279006803197 -0.0085020162007063641 0.00050494995458688077 -0.021008727167067805 -0.023950068915508771
leaf_weight=176.91336147020957 5718.6946276898379 186.94167797453701 94.689234265359119 746.9187694324246 149.28965845490166 211.70391621743329 863.91347814623441 1066.0057958677608 14542.887506140976 428.585637349237 294.04845367832968 15706.907252783574 6946.0620053547318 33580.25313670031 51249.959956233011 157.57233219250338 1001.3462781713624 864.01189378807067 128.31581806769827 130.64352248085197 173.73808098948211 310.83784381591977 94.903599880301044
leaf_count=980 44783 885 774 4510 896 628 5624 6926 91465 1672 1393 99986 50091 247842 391846 1129 6333 5842 1072 987 543 1489 693
internal_value=-6.36223e-05 -0.0113432 0.000426114 -0.0167948 0.0112285 0.00225095 -0.0192582 -0.0253567 0.000523225 0.0116161 0.00562378 -0.00127893 0.00110126 3.60699e-05 0.00182025 -0.00310421 -0.0124202 0.000602187 -0.0274514 -0.0220449 -0.0107918 -0.0149515 -0.031377
internal_weight=134825 5610.24 129215 4004.39 326.203 1605.86 3678.18 1929.92 128766 934.338 722.634 31271.4 97495 39298.9 58196 15864.5 1748.27 15406.9 448.552 320.236 671.518 497.78 189.593
internal_count=968389 31879 936510 25269 1876 6610 23393 12550 932984 3693 3065 198422 734562 292625 441937 101115 10843 97307 3526 2454 2917 2374 1467
cat_boundaries=0 1 2 3 4 5 6 7 8 9 10
cat_threshold=2 1 20 539 1256 10 7 1803 1163 18
is_linear=0
shrinkage=0.0714161


end of trees

feature_importances:
month=114
lag_20d_volatility_z=109
gap_sigma=102
lag_20_day_log_ret_z=66
dow=54
interaction_z=34
hurst_z=26
is_month_end=19
lag_5_day_log_ret_z=17
prev_close_loc=16
rel_vol_z=6

parameters:
[boosting: gbdt]
[objective: binary]
[metric: binary_logloss]
[tree_learner: serial]
[device_type: cpu]
[data_sample_strategy: bagging]
[data: ]
[valid: ]
[num_iterations: 100]
[learning_rate: 0.0714161]
[num_leaves: 47]
[num_threads: 0]
[seed: 44]
[deterministic: 0]
[force_col_wise: 0]
[force_row_wise: 0]
[histogram_pool_size: -1]
[max_depth: 5]
[min_data_in_leaf: 725]
[min_sum_hessian_in_leaf: 0.001]
[bagging_fraction: 0.803243]
[pos_bagging_fraction: 1]
[neg_bagging_fraction: 1]
[bagging_freq: 3]
[bagging_seed: 21897]
[bagging_by_query: 0]
[feature_fraction: 0.784776]
[feature_fraction_bynode: 1]
[feature_fraction_seed: 12646]
[extra_trees: 0]
[extra_seed: 20733]
[early_stopping_round: 0]
[early_stopping_min_delta: 0]
[first_metric_only: 0]
[max_delta_step: 0]
[lambda_l1: 0]
[lambda_l2: 0]
[linear_lambda: 0]
[min_gain_to_split: 0]
[drop_rate: 0.1]
[max_drop: 50]
[skip_drop: 0.5]
[xgboost_dart_mode: 0]
[uniform_drop: 0]
[drop_seed: 20829]
[top_rate: 0.2]
[other_rate: 0.1]
[min_data_per_group: 100]
[max_cat_threshold: 32]
[cat_l2: 10]
[cat_smooth: 10]
[max_cat_to_onehot: 4]
[top_k: 20]
[monotone_constraints: ]
[monotone_constraints_method: basic]
[monotone_penalty: 0]
[feature_contri: ]
[forcedsplits_filename: ]
[refit_decay_rate: 0.9]
[cegb_tradeoff: 1]
[cegb_penalty_split: 0]
[cegb_penalty_feature_lazy: ]
[cegb_penalty_feature_coupled: ]
[path_smooth: 0]
[interaction_constraints: ]
[verbosity: 1]
[saved_feature_importance_type: 0]
[use_quantized_grad: 0]
[num_grad_quant_bins: 4]
[quant_train_renew_leaf: 0]
[stochastic_rounding: 1]
[linear_tree: 0]
[max_bin: 255]
[max_bin_by_feature: ]
[min_data_in_bin: 3]
[bin_construct_sample_cnt: 200000]
[data_random_seed: 182]
[is_enable_sparse: 1]
[enable_bundle: 1]
[use_missing: 1]
[zero_as_missing: 0]
[feature_pre_filter: 1]
[pre_partition: 0]
[two_round: 0]
[header: 0]
[label_column: ]
[weight_column: ]
[group_column: ]
[ignore_column: ]
[categorical_feature: 0,1,2]
[forcedbins_filename: ]
[precise_float_parser: 0]
[parser_config_file: ]
[objective_seed: 3944]
[num_class: 1]
[is_unbalance: 0]
[scale_pos_weight: 1]
[sigmoid: 1]
[boost_from_average: 1]
[reg_sqrt: 0]
[alpha: 0.9]
[fair_c: 1]
[poisson_max_delta_step: 0.7]
[tweedie_variance_power: 1.5]
[lambdarank_truncation_level: 30]
[lambdarank_norm: 1]
[label_gain: ]
[lambdarank_position_bias_regularization: 0]
[eval_at: ]
[multi_error_top_k: 1]
[auc_mu_weights: ]
[num_machines: 1]
[local_listen_port: 12400]
[time_out: 120]
[machine_list_filename: ]
[machines: ]
[gpu_platform_id: -1]
[gpu_device_id: -1]
[gpu_use_dp: 0]
[num_gpu: 1]

end of parameters

pandas_categorical:[[0, 1, 2, 3, 4], [1, 2, 3, 4, 5, 6, 7, 8, 9, 10, 11, 12], [0, 1]]
