tree
version=v4
num_class=1
num_tree_per_iteration=1
label_index=0
max_feature_idx=7
objective=binary sigmoid:1
feature_names=gap_sigma lag_5_day_log_ret_z lag_20_day_log_ret_z lag_20d_volatility_z rel_vol_z prev_close_loc interaction_z hurst_z
feature_infos=[-110.93523545761337:156.20057311110943] [-26.495221805126835:25.216521435405756] [-20.368870075205752:19.194664985930903] [-3.2547617225751972:25.700915850486691] [-3.1718240977638086:24.451684765624691] [-1000000.0000005115:2.6129031415192601] [-31.250385225123502:30.980748389530291] [-7.0686426867404553:3.2723137897277028]
tree_sizes=1010 1028 1041 1044 1045 1034 1051 1038 1041 917 1045 1043 1049 1047 1041 1048 1044 920 1038 1038 1043 1048 1051 1050 1044 1040 1044 1037 1044 1014 1030 1032 1036 1048 1030 1034 1047 1043 1044 1038 1048 1044 1047 1040 1046 1043 1045 1038 1029 1027 1035 1020 1035 1037 1035 1038 1032 1038 1033 1048 1037 1041 1039 1042 1039 1046 1042

Tree=0
num_leaves=8
num_cat=0
split_feature=0 0 0 2 2 1 2
split_gain=431.747 107.955 57.808 54.7368 38.6857 24.6695 12.4624
threshold=0.094968148035319735 -0.34638015878712919 0.26465146938900391 0.78935038956270576 -1.3000089740743583 0.70181833578053265 -0.58196792482914528
decision_type=2 2 2 2 2 2 2
left_child=1 4 5 -4 -1 -2 -3
right_child=2 6 3 -5 -6 -7 -8
leaf_value=0.013079384983764365 0.016699784778026139 0.016741460113683854 0.013375875565680904 0.0075140172109141243 0.022536183651922954 0.012257119876132209 0.018583531570180108
leaf_weight=1687.8778562545776 26618.573739588261 17474.235472142696 51147.298711657524 6726.7632159292698 36674.346050858498 5655.090767800808 63460.907633960247
leaf_count=6752 106482 69902 204604 26909 146708 22622 253862
internal_value=0.01704 0.0194509 0.0138496 0.0126945 0.02212 0.0159212 0.0181858
internal_weight=209445 119297 90147.7 57874.1 38362.2 32273.7 80935.1
internal_count=837841 477224 360617 231513 153460 129104 323764
is_linear=0
shrinkage=1


Tree=1
num_leaves=8
num_cat=0
split_feature=3 5 3 3 5 4 3
split_gain=53.1919 40.878 16.2315 15.6974 6.36062 2.76227 1.82707
threshold=-1.4759272545895639 0.22777175134970259 0.069035133881833896 -0.52446303571117669 0.12499999218749808 0.9023251586786869 -1.7156814365588657
decision_type=2 2 2 2 2 2 2
left_child=4 3 -3 -2 6 -6 -1
right_child=1 2 -4 -5 5 -7 -8
leaf_value=-0.024152547794090661 -0.0011254676666844305 3.1047487521281743e-05 -0.0013261715632583537 0.0020353568556280991 -0.010458475429318244 -0.0030688400442341669 -0.013842517041945784
leaf_weight=147.48973777890205 6756.9919291287661 109916.07116889954 46908.779652610421 44217.905118152499 1150.9076556712389 227.73127582669258 118.49181719124317
leaf_count=590 27030 439698 187649 176885 4604 911 474
internal_value=2.69197e-05 0.000113542 -0.000374893 0.0016163 -0.0109153 -0.00924079 -0.019577
internal_weight=209444 207800 156825 50974.9 1644.62 1378.64 265.982
internal_count=837841 831262 627347 203915 6579 5515 1064
is_linear=0
shrinkage=0.0610847


Tree=2
num_leaves=8
num_cat=0
split_feature=0 0 0 2 4 7 2
split_gain=380.865 95.004 50.9898 47.9506 37.5272 19.1557 11.0053
threshold=0.094968148035319735 -0.34638015878712919 0.26465146938900391 0.78935038956270576 1.1782525438789702 -2.253888367569695 -0.58196792482914528
decision_type=2 2 2 2 2 2 2
left_child=1 4 5 -4 -1 -2 -3
right_child=2 6 3 -5 -6 -7 -8
leaf_value=0.0053614958530499258 -0.013112260973898251 -0.00025437316570992529 -0.0034182884650022275 -0.0089046387557145928 -0.001633870444491222 -0.00084222807024052096 0.0014766528805945228
leaf_weight=35246.851475298405 481.9695867151022 17474.26223526895 51148.648922845721 6727.1555823385715 3113.3736567795277 31791.933718919754 63459.989289596677
leaf_count=141005 1928 69902 204604 26909 12455 127176 253862
internal_value=2.52687e-05 0.0022897 -0.00297119 -0.00405606 0.00479364 -0.0010256 0.00110286
internal_weight=209444 119294 90149.7 57875.8 38360.2 32273.9 80934.3
internal_count=837841 477224 360617 231513 153460 129104 323764
is_linear=0
shrinkage=0.0610847


Tree=3
num_leaves=8
num_cat=0
split_feature=0 0 5 6 0 4 5
split_gain=335.758 83.7608 57.7874 54.5205 33.6309 33.1334 15.4687
threshold=0.094968148035319735 -0.34638015878712919 0.56770833037651969 0.1360908344025569 0.26025505817183142 0.56538061928322414 0.072847681636769884
decision_type=2 2 2 2 2 2 2
left_child=1 5 -3 4 -2 -1 -5
right_child=3 2 -4 6 -6 -7 -8
leaf_value=0.0053450907775088891 8.7771553492331717e-05 0.0025284405806981908 -0.00074898538876636987 0.00050453290413331013 -0.0028504932086060651 0.00068149466590702575 -0.005561545252912475
leaf_weight=31415.229871734977 22150.851874768734 44067.707417905331 36865.675403252244 1676.6846547573805 42262.700230270624 6942.6978948414326 24060.82131563127
leaf_count=125685 88609 176288 147476 6707 169055 27775 96246
internal_value=2.3723e-05 0.00214989 0.0010355 -0.00278966 -0.00184001 0.00450109 -0.00516621
internal_weight=209442 119291 80933.4 90151.1 64413.6 38357.9 25737.5
internal_count=837841 477224 323764 360617 257664 153460 102953
is_linear=0
shrinkage=0.0610847


Tree=4
num_leaves=8
num_cat=0
split_feature=0 0 1 0 4 7 0
split_gain=295.994 73.8496 46.8818 34.809 30.5813 17.4067 10.631
threshold=0.094968148035319735 -0.34638015878712919 0.59005565734671606 0.30912874792060224 1.1782525438789702 0.60106138953941846 -0.17713405959834308
decision_type=2 2 2 2 2 2 2
left_child=1 4 3 -2 -1 -4 -3
right_child=2 6 5 -5 -6 -7 -8
leaf_value=0.0047391437442640587 -0.00038480376594586779 0.0021114244290543855 -0.0066551729890088895 -0.0030908960413023575 -0.0015756782666959091 -0.0024360848876038943 0.00054188946067273058
leaf_weight=35241.924267485738 31075.671678796411 22189.40046992898 12604.356992602348 41331.726186856627 3113.4053012132645 5140.1916547268629 58743.07597668469
leaf_count=141005 124309 88767 50418 165329 12455 20561 234997
internal_value=2.22786e-05 0.00201863 -0.00261923 -0.00192956 0.00422645 -0.00543323 0.000972261
internal_weight=209440 119288 90151.9 72407.4 38355.3 17744.5 80932.5
internal_count=837841 477224 360617 289638 153460 70979 323764
is_linear=0
shrinkage=0.0610847


Tree=5
num_leaves=8
num_cat=0
split_feature=3 3 7 4 3 2 2
split_gain=46.9486 12.9943 11.1228 9.07504 6.17927 5.73325 3.37172
threshold=-1.1075330384367206 -1.7156814365588657 -2.0290079130884391 1.9739533614286573 -0.072091032023791871 -0.44803882594586925 0.098531233373443924
decision_type=2 2 2 2 2 2 2
left_child=1 5 4 -4 -2 -1 -3
right_child=2 6 3 -5 -6 -7 -8
leaf_value=-0.0026682491933477455 -0.0046891505805718558 -0.0059688855466515228 0.00030610580237535196 -0.0020710058255314309 -0.0001425114140731676 -0.015435313236103039 -0.0024712239203036465
leaf_weight=165.24054318666458 2693.4502140432596 2364.5182324796915 193640.62236076593 6183.5735137611628 1906.8128225654364 653.20525494217873 1829.0408814400434
leaf_count=661 10775 9459 774652 24736 7628 2613 7317
internal_value=2.09175e-05 -0.00581992 0.000164141 0.000232526 -0.00280544 -0.0128628 -0.00444434
internal_weight=209436 5012 204424 199824 4600.26 818.446 4193.56
internal_count=837841 20050 817791 799388 18403 3274 16776
is_linear=0
shrinkage=0.0610847


Tree=6
num_leaves=8
num_cat=0
split_feature=0 0 6 4 4 3 0
split_gain=289.005 63.2286 35.2112 30.3968 27.5267 22.3425 11.6093
threshold=0.11381467534771463 -0.34638015878712919 0.054336047316619063 2.1217489525496238 -0.16064350034724975 -0.099958940216011191 0.26465146938900391
decision_type=2 2 2 2 2 2 2
left_child=1 3 4 -1 -2 -3 -4
right_child=2 5 6 -5 -6 -7 -8
leaf_value=0.0042674162604570609 -0.0031227790947776801 0.0019566966553368759 -0.002677110098711626 -0.0058696378405481099 -0.00036210605287530305 -2.6731744875957669e-05 -0.0051297556761788956
leaf_weight=37170.274818748236 27121.800422653556 42856.474110811949 10873.503977522254 1137.1673504114151 26794.861532375216 41912.40021365881 21372.021572262049
leaf_count=148731 108490 171446 43495 4549 107182 167668 85489
internal_value=7.27454e-06 0.00190678 -0.00270598 0.00396639 -0.00175089 0.000975981 -0.00430283
internal_weight=209239 123076 86162.2 38307.4 53916.7 84768.9 32245.5
internal_count=837050 492394 344656 153280 215672 339114 128984
is_linear=0
shrinkage=0.0610847


Tree=7
num_leaves=8
num_cat=0
split_feature=0 2 0 0 4 2 4
split_gain=256.326 45.9919 45.1007 36.7183 29.8376 11.982 6.95354
threshold=0.053306573945189464 0.94100197633416938 -0.34638015878712919 0.30912874792060224 -0.38027903876838604 -0.48403988983317031 2.1217489525496238
decision_type=2 2 2 2 2 2 2
left_child=2 3 4 -2 -1 -4 -3
right_child=1 6 5 -5 -6 -7 -8
leaf_value=0.0060994071261936704 -0.00053794866583331861 -0.0060206770460060422 -0.00022065711542597691 -0.003013033107949618 0.0025002111713602012 0.001589527657350221 -0.014827999444052114
leaf_weight=13027.241834968328 42899.094854474068 8902.0431907624006 18279.101564630866 46733.944698110223 25277.201363146305 53767.895100623369 348.22699573636055
leaf_count=52132 171605 35610 73124 186937 101148 215101 1393
internal_value=6.8263e-06 -0.00225175 0.00203072 -0.00182848 0.0037244 0.00113021 -0.00635272
internal_weight=209235 98883.3 110351 89633 38304.4 72047 9250.27
internal_count=837050 395545 441505 358542 153280 288225 37003
is_linear=0
shrinkage=0.0610847


Tree=8
num_leaves=8
num_cat=0
split_feature=0 0 1 3 7 3 3
split_gain=227.517 53.6329 30.2582 28.545 26.7363 26.5212 10.1886
threshold=0.14906505080481433 -0.34638015878712919 1.0491648045522959 -1.1688416806673418 0.72859326593547336 -0.09594737116395323 -0.45231579105758352
decision_type=2 2 2 2 2 2 2
left_child=1 4 3 -2 -1 -3 -4
right_child=2 5 6 -5 -6 -7 -8
leaf_value=0.0044101374296336392 -0.010307089459579404 0.0017939154089644295 -0.00025649411311133422 -0.0020381179044215094 0.00064360561531784117 -0.00028271051690714278 -0.0074989623199199131
leaf_weight=29016.677691161633 1592.8901796042919 46814.347274422646 832.44046683609486 71019.232313677669 9284.7258852124214 45006.770387127995 5663.4726824462414
leaf_count=116123 6372 187284 3330 284082 37157 180047 22655
internal_value=6.40769e-06 0.00157701 -0.00257698 -0.00221957 0.00349719 0.000776 -0.00657146
internal_weight=209231 130123 79108 72612.1 38301.4 91821.1 6495.91
internal_count=837050 520611 316439 290454 153280 367331 25985
is_linear=0
shrinkage=0.0610847


Tree=9
num_leaves=7
num_cat=0
split_feature=3 1 7 4 1 7
split_gain=34.1383 24.2873 18.8646 10.246 7.9654 3.68624
threshold=-1.7156814365588657 0.3512094493172544 -2.417723699115204 2.1217489525496238 0.41154806940330985 0.53777174931372718
decision_type=2 2 2 2 2 2
left_child=4 2 -2 -3 5 -1
right_child=1 3 -4 -5 -6 -7
leaf_value=-0.011656125822051203 -0.0059224736631156936 -0.00080978197766887639 0.00056356659465357317 -0.0053341858400315009 -0.023403822366535064 -0.00026267566278379223
leaf_weight=478.9148563593626 1692.7803283333778 60959.38836286962 143839.11028429866 1927.0310900211334 191.95195497572422 136.97505353391171
leaf_count=1916 6772 243882 575455 7709 768 548
internal_value=6.01456e-06 5.46126e-05 0.000488094 -0.000948489 -0.0125265 -0.00912877
internal_weight=209226 208418 145532 62886.4 807.842 615.89
internal_count=837050 833818 582227 251591 3232 2464
is_linear=0
shrinkage=0.0610847


Tree=10
num_leaves=8
num_cat=0
split_feature=0 2 0 5 5 2 0
split_gain=201.925 40.237 34.5263 47.6288 34.3408 28.0875 11.8718
threshold=0.053306573945189464 0.64456435107583043 -0.34638015878712919 0.57672295858368539 0.256637167195291 -1.3000089740743583 0.48270986148675138
decision_type=2 2 2 2 2 2 2
left_child=2 4 5 -4 -2 -1 -3
right_child=1 6 3 -5 -6 -7 -8
leaf_value=-0.0044106083489606302 0.00052264771045433154 -0.0037378028517620139 0.0024257825081467716 -0.00073324931643068759 -0.0022361451285724003 0.0036397524179448172 -0.0074027768518621639
leaf_weight=1691.4079618155956 23652.159158736467 12319.649168461561 39853.275350004435 32191.920951664448 58401.714006066322 36606.871516823769 4508.7014376670122
leaf_count=6768 94612 49282 159441 128784 233614 146512 18037
internal_value=5.63948e-06 -0.00199897 0.00180207 0.00101418 -0.00144087 0.00328411 -0.00471998
internal_weight=209226 98882.2 110343 72045.2 82053.9 38298.3 16828.4
internal_count=837050 395545 441505 288225 328226 153280 67319
is_linear=0
shrinkage=0.0610847


Tree=11
num_leaves=8
num_cat=0
split_feature=0 0 4 7 6 6 6
split_gain=180.781 41.7354 39.0769 27.3028 34.0405 12.7467 9.2449
threshold=0.14906505080481433 -0.25823044284937691 -0.021075682681480596 0.45179820409308086 -0.4682373989538578 0.08943703326998971 0.15023751668528285
decision_type=2 2 2 2 2 2 2
left_child=1 2 -1 4 -2 -3 -5
right_child=3 5 -4 6 -6 -7 -8
leaf_value=0.0042755065756825668 0.0012734898594839389 0.0011172654017455081 0.00076120311802284021 -3.9384335496574018e-05 -0.0036783160331887695 -0.00048754565476547549 -0.0025573803653848445
leaf_weight=28520.035988390446 5836.1279271543026 53144.790388926864 20150.67038013041 19763.34680108726 45997.901532456279 28298.92114135623 7509.1750157922506
leaf_count=114149 23345 212611 80641 79055 184000 113210 30039
internal_value=5.29351e-06 0.00140538 0.0028206 -0.00229752 -0.0031207 0.0005596 -0.000732832
internal_weight=209221 130114 48670.7 79106.6 51834 81443.7 27272.5
internal_count=837050 520611 194790 316439 207345 325821 109094
is_linear=0
shrinkage=0.0610847


Tree=12
num_leaves=8
num_cat=0
split_feature=0 0 0 5 5 7 1
split_gain=172.406 45.4371 33.1844 47.8513 26.9195 26.1632 15.9159
threshold=0.034952962824362235 0.3302764039827733 -0.21826078064302215 0.59999988000005966 0.256637167195291 0.56981822274643201 0.67555785984361616
decision_type=2 2 2 2 2 2 2
left_child=2 6 5 -4 -3 -1 -2
right_child=1 4 3 -5 -6 -7 -8
leaf_value=0.0036405402868463655 -0.00012033771920082044 -0.00087587330877774447 0.0021985801077609368 -0.0015390225598752656 -0.0040975512893526075 0.00070880643158487296 -0.0027999232465163839
leaf_weight=37910.116485849023 45101.841313496232 13501.994465276599 29956.239720642567 22291.577684372663 34196.813165232539 16221.969459369779 10129.431595504284
leaf_count=151730 180417 54010 119850 89177 136797 64923 40521
internal_value=-2.23442e-05 -0.00180463 0.0017021 0.000603853 -0.00318568 0.00276205 -0.000611847
internal_weight=209310 102930 106380 52247.8 47698.8 54132.1 55231.3
internal_count=837425 411745 425680 209027 190807 216653 220938
is_linear=0
shrinkage=0.0610847


Tree=13
num_leaves=8
num_cat=0
split_feature=0 0 0 5 4 7 5
split_gain=151.992 40.0573 29.2579 42.1849 38.2024 25.0121 15.2381
threshold=0.034952962824362235 0.3302764039827733 -0.21826078064302215 0.59999988000005966 0.59790154879591484 0.60106138953941846 0.22777175134970259
decision_type=2 2 2 2 2 2 2
left_child=2 6 4 -4 -1 -3 -2
right_child=1 5 3 -5 -6 -7 -8
leaf_value=0.0033200452628822708 0.0012267749477480534 -0.0038750458162709642 0.0020643504956184746 -0.001444987441474111 -0.0010309774689147846 -0.00077700394232014451 -0.0011460056146851084
leaf_weight=45091.070132866502 13301.760370865464 34088.081855744123 29955.266316339374 22291.931660145521 9037.433410987258 13609.599612057209 41929.421381279826
leaf_count=180489 53211 136365 119850 89177 36164 54442 167727
internal_value=-2.09793e-05 -0.00169442 0.0015982 0.000566972 0.00259351 -0.00299116 -0.000574478
internal_weight=209305 102929 106376 52247.2 54128.5 47697.7 55231.2
internal_count=837425 411745 425680 209027 216653 190807 220938
is_linear=0
shrinkage=0.0610847


Tree=14
num_leaves=8
num_cat=0
split_feature=0 2 0 0 4 6 6
split_gain=133.994 42.4757 36.7814 25.796 33.6825 7.54747 5.34097
threshold=0.034952962824362235 1.049893763331875 0.3302764039827733 -0.21826078064302215 0.59790154879591484 0.41045576654870769 -0.371866711841563
decision_type=2 2 2 2 2 2 2
left_child=3 2 -2 4 -1 -3 -5
right_child=1 5 -4 6 -6 -7 -8
leaf_value=0.0031175217168283725 -0.000100315251019414 -0.0043640972137862942 -0.0025083079951289905 0.001955482122908372 -0.00096798185283495264 -0.0082265484195364093 0.00026419640478849793
leaf_weight=45087.148123681545 50329.911565095186 4781.659633114934 44688.246470198035 8281.0633598864079 9037.6070482730865 3127.7946140021086 43965.463068306446
leaf_count=180489 201331 19130 178769 33131 36164 12515 175896
internal_value=-1.9698e-05 -0.00159094 -0.00123287 0.00150064 0.00243526 -0.00589203 0.000532341
internal_weight=209299 102928 95018.2 106371 54124.8 7909.45 52246.5
internal_count=837425 411745 380100 425680 216653 31645 209027
is_linear=0
shrinkage=0.0610847


Tree=15
num_leaves=8
num_cat=0
split_feature=0 2 0 2 3 3 3
split_gain=118.539 31.5702 29.9169 32.0879 25.7119 10.2309 6.84607
threshold=0.10609060270728037 0.92304043201479313 -0.20185369803406544 -0.31014461433379331 -1.1688416806673418 -0.03776176375811402 -0.63682447781980189
decision_type=2 2 2 2 2 2 2
left_child=2 4 3 -1 -2 -4 -3
right_child=1 6 5 -5 -6 -7 -8
leaf_value=0.00012805148423274294 -0.0088898394436421248 -0.010803651280757672 0.001010009037343609 0.0032463544693841777 -0.0011957729582251686 -0.00053292549249896951 -0.0047637288092358503
leaf_weight=18134.544224739075 1655.1805958747864 774.40867337584496 36038.559405088425 38374.928417444229 77991.057860702276 28886.784024059772 7437.7569584101439
leaf_count=72589 6623 3099 144184 153620 311985 115564 29761
internal_value=-1.84957e-05 -0.0017276 0.00121802 0.00224573 -0.00135572 0.000323461 -0.00533382
internal_weight=209293 87858.4 121435 56509.5 79646.2 64925.3 8212.17
internal_count=837425 351468 485957 226209 318608 259748 32860
is_linear=0
shrinkage=0.0610847


Tree=16
num_leaves=8
num_cat=0
split_feature=0 0 4 4 6 3 3
split_gain=107.697 38.5459 30.2548 23.1289 20.033 16.5311 14.0466
threshold=0.26025505817183142 -0.20185369803406544 0.32713490557212116 -0.29830260033321987 1.1330040938916535 -0.09594737116395323 -1.1688416806673418
decision_type=2 2 2 2 2 2 2
left_child=1 2 -1 6 -5 -3 -2
right_child=3 5 -4 4 -6 -7 -8
leaf_value=0.0029165976487186842 -0.013079263328639021 0.00088462087708280051 -0.00036395747044608404 -0.0010181068942541193 -0.010449413408380261 -0.00073495405656794587 -0.0034856625267312429
leaf_weight=42591.301688343287 584.33586330711842 47947.561427175999 13914.667065963149 34399.51972065866 861.48524855077267 46149.861998587847 22839.155337572098
leaf_count=170521 2339 191822 55688 137617 3448 184621 91369
internal_value=-1.73672e-05 0.000847596 0.00210869 -0.00223721 -0.00124865 9.02623e-05 -0.00372518
internal_weight=209288 150603 56506 58684.5 35261 94097.4 23423.5
internal_count=837425 602652 226209 234773 141065 376443 93708
is_linear=0
shrinkage=0.0610847


Tree=17
num_leaves=7
num_cat=0
split_feature=7 1 2 4 1 4
split_gain=19.5771 12.2525 11.3065 7.30994 5.25454 6.28737
threshold=-2.9865125886686141 -0.96022955482776429 -2.2217372282233421 1.1360271875426091 0.80292417600678945 0.3961327228758712
decision_type=2 2 2 2 2 2
left_child=4 2 -2 -3 5 -1
right_child=1 3 -4 -5 -6 -7
leaf_value=-0.0081884848444388775 -0.0040536087400830385 -3.6565912602897596e-05 0.0017210983537159679 -0.0015512293969740321 0.0026724152704311927 -0.021999284930896708
leaf_weight=592.29474434256554 1345.8005092442036 173299.08234967291 21004.109847337008 12765.239136338234 119.94368052482605 155.959900572896
leaf_count=2370 5384 693455 84040 51072 480 624
internal_value=-1.63101e-05 2.18036e-05 0.00137319 -0.000140503 -0.00916977 -0.0110733
internal_weight=209282 208414 22349.9 186064 868.198 748.255
internal_count=837425 833951 89424 744527 3474 2994
is_linear=0
shrinkage=0.0610847


Tree=18
num_leaves=8
num_cat=0
split_feature=0 2 0 2 5 5 2
split_gain=104.707 27.5605 23.1321 17.6458 17.4047 8.98169 5.33009
threshold=0.18135100476180302 0.6683042962903144 -2.1687378860058071 -1.0760792235589514 0.75590550784301647 0.60736195946403748 0.032670441799701307
decision_type=2 2 2 2 2 2 2
left_child=2 3 6 -2 -4 -3 -1
right_child=1 5 4 -5 -6 -7 -8
leaf_value=0.012050507807167987 0.0019106690602682895 -0.0063477653389120677 0.0013338083675331501 -0.0016999468312220085 -0.00021064812211452156 -0.0028975860793408769 0.0049382919120704817
leaf_weight=753.82039341330528 5550.6043092310429 5757.1810561716557 96908.377965286374 55961.703271701932 37857.27719193697 5521.8266525268555 827.65601485967636
leaf_count=3018 22204 23038 387819 223870 151489 22098 3314
internal_value=-1.24975e-05 -0.00188314 0.000986147 -0.00137408 0.000899923 -0.00465904 0.00833107
internal_weight=209138 72791.3 136347 61512.3 134766 11279 1581.48
internal_count=836850 291210 545640 246074 539308 45136 6332
is_linear=0
shrinkage=0.0610847


Tree=19
num_leaves=8
num_cat=0
split_feature=7 5 2 4 2 2 5
split_gain=17.9066 18.6233 8.74922 8.26362 6.2845 5.96376 4.97359
threshold=-1.6632447052357959 0.51879698858047563 -0.7994519676678814 2.1217489525496238 -0.88326730997390179 -1.6109554039999698 0.8571428540423871
decision_type=2 2 2 2 2 2 2
left_child=4 2 -2 -3 5 -1 -6
right_child=1 3 -4 -5 6 -7 -8
leaf_value=0.00032856706326745165 0.0019985250093051041 -0.00039168461885391831 0.00044867253189800589 -0.0038845830615947823 -0.0012747561143371853 -0.0090626353253864516 -0.0051268131526945116
leaf_weight=344.19417817890644 16190.954330801964 95684.546217888594 84726.463986933231 2596.1931440830231 7136.654795601964 937.0053329616785 1517.9387417584658
leaf_count=1377 64782 382873 339050 10387 28558 3749 6074
internal_value=-1.17329e-05 0.000114485 0.000697367 -0.000483995 -0.0025426 -0.00653669 -0.00195085
internal_weight=209134 199198 100917 98280.7 9935.79 1281.2 8654.59
internal_count=836850 797092 403832 393260 39758 5126 34632
is_linear=0
shrinkage=0.0610847


Tree=20
num_leaves=8
num_cat=0
split_feature=0 2 4 0 3 0 4
split_gain=92.3628 24.0905 25.2358 20.4412 19.5432 13.8071 6.86626
threshold=0.18135100476180302 0.6683042962903144 -0.41963101102030392 -2.1687378860058071 -0.22709384713104838 -0.33816333351667571 -0.89198626341401932
decision_type=2 2 2 2 2 2 2
left_child=3 2 -2 4 -1 -5 -3
right_child=1 6 -4 5 -6 -7 -8
leaf_value=0.0021383790672722782 -0.0031159271845269316 0.00072862940219760362 -0.0004525903625787344 0.0018425271593314819 0.015940411329126686 0.00046223162157895997 -0.0048092348562338901
leaf_weight=929.11299048364162 19385.910998776555 907.26895575225353 42125.583074301481 37453.760362282395 651.94826996326447 97309.317445933819 10370.651283815503
leaf_count=3721 77554 3631 168520 149984 2611 389324 41505
internal_value=-1.10175e-05 -0.00176796 -0.00129203 0.000926924 0.00783237 0.000845877 -0.00436338
internal_weight=209134 72789.4 61511.5 136344 1581.06 134763 11277.9
internal_count=836850 291210 246074 545640 6332 539308 45136
is_linear=0
shrinkage=0.0610847


Tree=21
num_leaves=8
num_cat=0
split_feature=0 7 0 4 7 7 4
split_gain=81.4265 32.9597 22.2827 20.9684 16.1529 14.4806 7.2351
threshold=0.18135100476180302 0.72859326593547336 -0.33087130208760801 -0.41963101102030392 0.7503189911028284 -0.37155464877260097 1.1360271875426091
decision_type=2 2 2 2 2 2 2
left_child=1 2 -1 5 -5 -2 -3
right_child=3 6 -4 4 -6 -7 -8
leaf_value=0.0027964178251952648 -0.0054290365448432252 -0.0005758167059135746 0.0008271462859094855 -0.0015508352675952628 0.0010760184404714594 -0.0021395814816770838 -0.0040067277643812214
leaf_weight=30176.196029469371 7309.7523671835661 29588.993013709784 74088.839409410954 38390.775869190693 11305.363918304443 15781.682105466723 2486.7800641059875
leaf_count=120854 29247 118414 296423 153595 45228 63140 9949
internal_value=-1.03406e-05 0.000870333 0.00139713 -0.00166001 -0.000953173 -0.00318106 -0.000841937
internal_weight=209128 136341 104265 72787.6 49696.1 23091.4 32075.8
internal_count=836850 545640 417277 291210 198823 92387 128363
is_linear=0
shrinkage=0.0610847


Tree=22
num_leaves=8
num_cat=0
split_feature=0 6 2 2 1 0 0
split_gain=71.7845 29.3828 38.1688 22.5321 21.9076 18.4215 12.3214
threshold=0.18135100476180302 0.17677923788593713 -0.47489522911320575 -0.68661403939282672 0.36760738401199616 0.45128954453922437 0.466599184148493
decision_type=2 2 2 2 2 2 2
left_child=1 2 -1 6 -3 -5 -2
right_child=3 4 -4 5 -6 -7 -8
leaf_value=-0.00048409746256560399 -0.00081450602950357265 -0.0042645238591932731 0.0021405985394418289 -0.0010738380201554397 -4.0121215307492217e-05 -0.0032103555434923031 0.0031597523376162002
leaf_weight=29343.461684584618 6864.7236523479223 5355.1108252704144 69951.863080173731 33509.757716968656 31687.047980546951 27359.175323545933 5052.3287123739719
leaf_count=117428 27461 21433 279971 134065 126808 109472 20212
internal_value=-9.7097e-06 0.000817189 0.00136492 -0.00155865 -0.000650945 -0.00203422 0.000870087
internal_weight=209123 136337 99295.3 72786 37042.2 60868.9 11917.1
internal_count=836850 545640 397399 291210 148241 243537 47673
is_linear=0
shrinkage=0.0610847


Tree=23
num_leaves=8
num_cat=0
split_feature=0 6 2 2 4 2 6
split_gain=63.284 25.9038 33.6506 20.7814 21.6497 12.1644 7.73334
threshold=0.18135100476180302 0.17677923788593713 -0.47489522911320575 0.6683042962903144 0.013582332867323745 -0.34106682407726879 0.057046731209090262
decision_type=2 2 2 2 2 2 2
left_child=1 2 -1 4 -2 -3 -5
right_child=3 5 -4 6 -6 -7 -8
leaf_value=-0.00045452221722890279 -0.0019430254848089611 0.001827908745586357 0.0020099366193717717 -0.0018177859656101575 0.00040356135358493719 -0.0011135831055762656 -0.0051198776925993434
leaf_weight=29343.722547695041 37354.187300607562 6325.478067278862 69948.638003513217 4254.4896552413702 24154.315345898271 30717.136128559709 7021.2753259688616
leaf_count=117428 149444 25311 279971 17026 96630 122930 28110
internal_value=-9.11977e-06 0.000767282 0.00128158 -0.00146348 -0.00102146 -0.00061118 -0.00387432
internal_weight=209119 136335 99292.4 72784.3 61508.5 37042.6 11275.8
internal_count=836850 545640 397399 291210 246074 148241 45136
is_linear=0
shrinkage=0.0610847


Tree=24
num_leaves=8
num_cat=0
split_feature=0 7 6 2 2 7 6
split_gain=48.853 39.1136 24.1645 21.5264 19.8218 18.8475 13.4461
threshold=0.049705215148482425 0.77328763029680903 0.27151656772895433 -0.48403988983317031 0.29886589383395895 -1.8839722702866644 -0.95312505658382995
decision_type=2 2 2 2 2 2 2
left_child=1 3 5 -1 -4 -2 -3
right_child=2 6 4 -5 -6 -7 -8
leaf_value=-9.5075496705773226e-05 -0.005609114288175128 0.005066895950478054 -0.00069529453941993423 0.0021650910342795589 -0.0045839483140155419 -0.00022394140573468621 -0.001506912951128297
leaf_weight=20760.214492455125 2503.4480656534433 1222.9507782906294 9118.0803001224995 64770.437492892146 10557.478247687221 77502.86820179224 22815.952909827232
leaf_count=83086 10017 4894 36481 259280 42256 310065 91318
internal_value=0.000114323 0.00100458 -0.0008642 0.00161645 -0.00278207 -0.000392499 -0.00117231
internal_weight=209251 109570 99681.9 85530.7 19675.6 80006.3 24038.9
internal_count=837397 438578 398819 342366 78737 320082 96212
is_linear=0
shrinkage=0.0610847


Tree=25
num_leaves=8
num_cat=0
split_feature=6 5 6 5 6 4 7
split_gain=24.5011 16.8329 16.6037 15.3358 7.48617 6.78963 5.64496
threshold=-0.44187314858142751 0.21538461414201049 0.15023751668528285 0.65476189891582448 -0.011645025248303869 -1.062830892381941 -2.253888367569695
decision_type=2 2 2 2 2 2 2
left_child=3 4 -3 5 -2 -1 -5
right_child=1 2 -4 6 -6 -7 -8
leaf_value=-0.0026687300853043515 0.00012824456093593706 2.2326645723942591e-05 -0.0013645288581833955 -0.013532404419570708 0.0017992005362994085 0.0029565398413169048 -0.00040376160858501033
leaf_weight=835.57701818645 20031.068653851748 93728.653200730681 49073.103544205427 124.46092469990253 19997.67420861125 18741.523690342903 6715.0456326752901
leaf_count=3344 80165 375094 196395 498 80035 74997 26869
internal_value=0.000107336 -0.000143895 -0.000454232 0.00184627 0.000963125 0.00271624 -0.000643319
internal_weight=209247 182830 142802 26416.6 40028.7 19577.1 6839.51
internal_count=837397 731689 571489 105708 160200 78341 27367
is_linear=0
shrinkage=0.0610847


Tree=26
num_leaves=8
num_cat=0
split_feature=0 7 7 2 0 2 2
split_gain=43.1468 34.5429 22.2769 21.7048 19.5831 9.56675 5.16479
threshold=0.049705215148482425 0.77328763029680903 0.4891432894420516 1.1020182337953843 -2.1687378860058071 0.56478584012223365 -0.35671734840065417
decision_type=2 2 2 2 2 2 2
left_child=1 4 3 -2 -1 -4 -3
right_child=2 6 5 -5 -6 -7 -8
leaf_value=0.0091273050059993369 -0.0011626434821239537 -0.0024424089731918362 0.0010142461124235654 -0.005567856451720107 0.001400225438811233 -0.0015870500957755125 -0.00050701377996686741
leaf_weight=1242.0104670375586 62510.667856901884 7465.9146732836962 26085.169471368194 4472.554996073246 84284.700573220849 6611.6939096301794 16573.483822703362
leaf_count=4977 250100 29878 104353 17906 337389 26460 66334
internal_value=0.000100779 0.000937446 -0.000818826 -0.00145685 0.00151249 0.000488112 -0.00110826
internal_weight=209246 109566 99680.1 66983.2 85526.7 32696.9 24039.4
internal_count=837397 438578 398819 268006 342366 130813 96212
is_linear=0
shrinkage=0.0610847


Tree=27
num_leaves=8
num_cat=0
split_feature=5 7 2 7 2 2 4
split_gain=19.1668 10.2892 11.3945 10.1748 5.68055 4.91615 2.58796
threshold=0.22777175134970259 -1.9469551454033363 -0.81512555820405463 -2.9865125886686141 -0.62636106014583637 -0.75451896013211683 -0.86631693864857173
decision_type=2 2 2 2 2 2 2
left_child=1 4 -3 6 -1 -5 -2
right_child=3 2 -4 5 -6 -7 -8
leaf_value=-0.010128889572853114 -0.0010138590576788604 0.003301515901569004 0.00084940231114431211 -0.0010660286737294705 -0.0016017324676034035 -7.2276733251581629e-05 -0.010317642541470542
leaf_weight=397.87327416241169 147.9026352763176 8530.1845385730267 41390.782917439938 21523.558578014374 1096.0515781790018 135689.13176225126 466.4881132543087
leaf_count=1592 592 34133 165660 86119 4387 543047 1867
internal_value=9.46225e-05 0.00111894 0.00126849 -0.000239041 -0.00387559 -0.000208354 -0.00808455
internal_weight=209242 51414.9 49921 157827 1493.92 157213 614.391
internal_count=837397 205772 199793 631625 5979 629166 2459
is_linear=0
shrinkage=0.0610847


Tree=28
num_leaves=8
num_cat=0
split_feature=0 2 4 0 2 0 4
split_gain=39.1567 29.5332 20.2685 16.3011 26.0619 13.3474 8.70204
threshold=-0.20185369803406544 0.63254888221162198 -0.7917177407575019 0.38930847665764223 -0.61471218971817876 -2.1687378860058071 -0.19648804087346997
decision_type=2 2 2 2 2 2 2
left_child=1 5 -3 6 -5 -1 -2
right_child=3 2 -4 4 -6 -7 -8
leaf_value=0.0070281817692418253 -0.00057609880093938549 0.012107319294403545 0.0034845930606655002 0.0017791951774889683 -0.0022357933885677611 0.0006439674496362711 0.00049582562923032179
leaf_weight=1255.9347917437553 57104.352157816291 1150.4329570382833 8815.6094394922256 7419.3670814484358 32252.995644882321 45300.319669291377 55942.323784843087
leaf_count=5034 228472 4608 35302 29682 129071 181407 223821
internal_value=8.8837e-05 0.00146241 0.0044804 -0.000419507 -0.00148483 0.000816283 -4.56111e-05
internal_weight=209241 56522.3 9966.04 152719 39672.4 46556.3 113047
internal_count=837397 226351 39910 611046 158753 186441 452293
is_linear=0
shrinkage=0.0610847


Tree=29
num_leaves=8
num_cat=0
split_feature=0 3 2 4 0 3 2
split_gain=34.5214 26.4995 26.042 17.8824 14.1789 11.8887 8.50121
threshold=-0.20185369803406544 -1.7156814365588657 0.63254888221162198 -0.7917177407575019 0.26025505817183142 -0.38113319124792466 -0.39641655934818298
decision_type=2 2 2 2 2 2 2
left_child=2 6 5 -4 -3 -1 -2
right_child=1 4 3 -5 -6 -7 -8
leaf_value=-0.00082726403064085333 0 0.00011964248345123586 0.011373250237987858 0.0032721239285745307 -0.0010931422527059378 0.0013643152853697383 -0.017859315463680428
leaf_weight=12698.419172912836 129.63707907497883 93837.606366544962 1149.8959269076586 8814.60482442379 58323.67170356214 33856.490373790264 426.85950683057308
leaf_count=50857 519 375434 4608 35302 233383 135584 1710
internal_value=8.34173e-05 -0.000393884 0.00137317 0.00420742 -0.000345194 0.000766451 -0.013699
internal_weight=209237 152718 56519.4 9964.5 152161 46554.9 556.497
internal_count=837397 611046 226351 39910 608817 186441 2229
is_linear=0
shrinkage=0.0610847


Tree=30
num_leaves=8
num_cat=0
split_feature=3 0 7 0 3 1 0
split_gain=32.6782 28.511 24.4891 21.2564 7.58982 10.7229 5.49821
threshold=-1.3398332066283707 0.11381467534771463 -0.11874949056106354 -2.1687378860058071 -1.7156814365588657 0.46684822199187537 0.12180579652943414
decision_type=2 2 2 2 2 2 2
left_child=4 3 -3 -2 5 -1 -6
right_child=1 2 -4 -5 6 -7 -8
leaf_value=-0.008298072485754756 0.0078133239940007971 -0.00212556678236098 -2.2058675911568551e-05 0.0004773020054324411 -0.0017669218656804844 -0.025420121630487694 -0.008991933534279524
leaf_weight=651.75789088010788 1492.139246866107 35154.64997254312 50066.471986740828 120070.8448356688 970.16628487408161 173.12706092000008 662.63457758724689
leaf_count=2610 5983 140667 200319 480623 3883 694 2653
internal_value=-0.000116394 -3.31513e-05 -0.000889826 0.000567384 -0.00711852 -0.0118975 -0.00470158
internal_weight=209242 206784 85221.1 121563 2457.69 824.885 1632.8
internal_count=837432 827592 340986 486606 9840 3304 6536
is_linear=0
shrinkage=0.0610847


Tree=31
num_leaves=8
num_cat=0
split_feature=3 3 4 3 7 2 4
split_gain=28.9245 11.0894 9.05688 10.1543 7.64543 6.56228 4.9159
threshold=-1.1075330384367206 -1.7156814365588657 2.1217489525496238 1.4985112660601005 -2.0290079130884391 -0.44803882594586925 -0.13650609807609712
decision_type=2 2 2 2 2 2 2
left_child=1 5 4 -4 -2 -1 -3
right_child=2 6 3 -5 -6 -7 -8
leaf_value=-0.00063687103079024048 -0.0024339667456404705 -0.0054039050974822225 -0.0016254625282503545 -0.010906788978095359 0.00012827003919121179 -0.013998879911186425 -0.0012024914639316188
leaf_weight=174.60868011415005 4444.6776804327965 2202.3284067511559 5047.4261454194784 482.05808056890965 194264.30666320026 650.03229030966759 1972.9751806408167
leaf_count=699 17789 8817 20197 1929 777499 2605 7897
internal_value=-0.00010929 -0.00469946 3.0631e-06 -0.00243539 7.09382e-05 -0.0111746 -0.00341956
internal_weight=209238 4999.94 204238 5529.48 198709 824.641 4175.3
internal_count=837432 20018 817414 22126 795288 3304 16714
is_linear=0
shrinkage=0.0610847


Tree=32
num_leaves=8
num_cat=0
split_feature=0 2 7 5 7 0 5
split_gain=28.1964 31.0249 27.5685 25.3452 20.109 17.8778 6.78534
threshold=0.37628298344368466 -0.68661403939282672 0.54840143556254051 0.09090908953168414 1.1033414700002122 -2.1687378860058071 0.91379309163198452
decision_type=2 2 2 2 2 2 2
left_child=4 3 -3 -2 5 -1 -6
right_child=1 2 -4 -5 6 -7 -8
leaf_value=0.007423125025686028 0.01125012960318254 -0.0034024912801118015 0.00033475531558146277 0.00070270834074148529 -0.0011441983825891816 0.00043345107883871876 -0.0046342675241724755
leaf_weight=1378.3536128252745 999.42251674830914 24155.925767198205 10592.90398542583 5695.5553785562515 18092.495430842042 145973.63408511877 2349.6265769600868
leaf_count=5529 3998 96684 42388 22786 72403 584242 9402
internal_value=-0.000102621 -0.00152945 -0.00226311 0.00227787 0.000249771 0.000498862 -0.00154555
internal_weight=209238 41443.8 34748.8 6694.98 167794 147352 20442.1
internal_count=837432 165856 139072 26784 671576 589771 81805
is_linear=0
shrinkage=0.0610847


Tree=33
num_leaves=8
num_cat=0
split_feature=6 1 2 6 6 1 2
split_gain=25.8292 16.4139 13.4326 13.1234 17.5441 10.4055 7.24319
threshold=0.15023751668528285 0.27219619835194248 -0.34106682407726879 -0.45486465498646494 -0.12576018805990127 -3.3247697637104054 0.15286305702151909
decision_type=2 2 2 2 2 2 2
left_child=3 6 -3 5 -5 -1 -2
right_child=1 2 -4 4 -6 -7 -8
leaf_value=-0.0050775437266437403 -0.005904619518623159 0.0013965692601847336 -0.0012494317127432473 -0.00099139242732858659 0.00056712298481800588 0.0018193547223738422 -0.0017164738505064548
leaf_weight=843.80298927426338 3619.7553030103445 8528.0370062440634 44552.427872538567 39511.677466213703 84775.812798827887 24715.01079800725 2688.4612030982971
leaf_count=3376 14487 34126 178335 158131 339307 98909 10761
internal_value=-9.63504e-05 -0.00117442 -0.000824244 0.000330896 7.16305e-05 0.0015915 -0.00412034
internal_weight=209235 59388.7 53080.5 149846 124287 25558.8 6308.22
internal_count=837432 237709 212461 599723 497438 102285 25248
is_linear=0
shrinkage=0.0610847


Tree=34
num_leaves=8
num_cat=0
split_feature=3 0 1 4 3 1 4
split_gain=25.617 23.3032 22.992 17.0309 5.81876 9.19018 6.68506
threshold=-1.3398332066283707 0.049705215148482425 1.0491648045522959 2.1217489525496238 -1.7156814365588657 0.46684822199187537 -0.91923737335112865
decision_type=2 2 2 2 2 2 2
left_child=4 3 -3 -2 5 -1 -6
right_child=1 2 -4 -5 6 -7 -8
leaf_value=-0.0071458580863138464 0.00073086718490743643 -0.000408312658279771 -0.003722490759278334 -0.0039810552575929069 0.005366378836206406 -0.023008229551130965 -0.0057757395226287261
leaf_weight=651.46979333460331 105183.10562711954 90099.880692213774 8552.6435763984919 2942.0404263883829 234.24634820222855 172.84917207062244 1398.3494473546743
leaf_count=2610 421088 360494 34239 11771 938 694 5598
internal_value=-9.04659e-05 -1.67708e-05 -0.000695675 0.00060262 -0.00629106 -0.0104777 -0.00417456
internal_weight=209235 206778 98652.5 108125 2456.91 824.319 1632.6
internal_count=837432 827592 394733 432859 9840 3304 6536
is_linear=0
shrinkage=0.0610847


Tree=35
num_leaves=8
num_cat=0
split_feature=0 2 5 0 4 4 2
split_gain=23.3765 26.745 22.3288 15.0781 14.3993 12.3469 6.29505
threshold=0.37628298344368466 -0.68661403939282672 0.09090908953168414 -2.1687378860058071 -0.58291358182022901 1.852584668879141 0.42177755489451985
decision_type=2 2 2 2 2 2 2
left_child=3 2 -2 6 -3 -5 -1
right_child=1 4 -4 5 -6 -7 -8
leaf_value=0.008693630637593687 0.010572138354611894 -0.0045267341411076327 0.00067223513364628488 0.00027879970570631547 -0.0014368796297742413 -0.0026146435938173072 0.00020746050252667389
leaf_weight=1107.5106776505709 999.43751856684685 7066.5431482791901 5695.5623140633106 160521.25075921416 27679.229807004333 5698.0109234154224 463.67979507148266
leaf_count=4444 3998 28288 22786 642474 110784 22798 1860
internal_value=-8.49461e-05 -0.00138417 0.00215075 0.000235911 -0.00206541 0.000179588 0.00619182
internal_weight=209231 41440.8 6695 167790 34745.8 166219 1571.19
internal_count=837432 165856 26784 671576 139072 665272 6304
is_linear=0
shrinkage=0.0610847


Tree=36
num_leaves=8
num_cat=0
split_feature=0 5 7 7 1 1 0
split_gain=31.6037 21.1435 18.9392 14.1816 12.6909 12.5608 11.4939
threshold=0.10609060270728037 0.072847681636769884 0.72859326593547336 0.50002045327047118 0.0066602329511132362 0.21992567740018981 -2.9479128968840844
decision_type=2 2 2 2 2 2 2
left_child=2 4 6 -3 -2 -4 -1
right_child=1 3 5 -5 -6 -7 -8
leaf_value=0.0092573695003487968 0.000277377754000457 -0.0018018264123542461 0.00019705596069779404 -6.1867687332445499e-05 0.0053730469471836746 -0.0024524228202072564 0.00095494023696911278
leaf_weight=626.48665854334831 5240.9646282792091 53681.328780651093 17978.584347680211 25924.639566749334 2798.387062728405 10618.699641287327 92329.732935920358
leaf_count=2515 20968 214825 71960 103728 11198 42496 369624
internal_value=-4.95043e-05 -0.000933702 0.000588008 -0.00123524 0.00205162 -0.000786609 0.00101094
internal_weight=209199 87645.3 121554 79606 8039.35 28597.3 92956.2
internal_count=837314 350719 486595 318553 32166 114456 372139
is_linear=0
shrinkage=0.0610847


Tree=37
num_leaves=8
num_cat=0
split_feature=6 1 7 6 7 4 4
split_gain=17.7725 13.2305 10.5245 10.827 8.9051 6.54007 3.90955
threshold=0.12701967885766263 0.19919410937296597 -2.9865125886686141 -0.44187314858142751 0.48003012785233151 0.4888268896434837 -0.4421025863178672
decision_type=2 2 2 2 2 2 2
left_child=2 6 5 -4 -3 -1 -2
right_child=1 4 3 -5 -6 -7 -8
leaf_value=-0.0047146214706441482 -0.0060795216286928808 -0.00010194288674108539 0.0014816164656627033 0.00011058701024968747 -0.0017042102157883438 -0.021215100540814116 -0.0025897540016275263
leaf_weight=491.85191297531128 1879.8926126360893 38829.264786422253 26236.001448154449 118908.91616976261 19418.668428495526 109.90934808552265 3320.6879103779793
leaf_count=1969 7525 155441 105001 475931 77716 440 13291
internal_value=-4.64771e-05 -0.000899826 0.000324988 0.000358438 -0.000636174 -0.00773609 -0.00385202
internal_weight=209195 63448.5 145747 145145 58247.9 601.761 5200.58
internal_count=837314 253973 583341 580932 233157 2409 20816
is_linear=0
shrinkage=0.0610847


Tree=38
num_leaves=8
num_cat=0
split_feature=0 4 2 3 0 2 3
split_gain=27.8885 18.3369 15.1412 14.5371 17.389 9.88207 9.44814
threshold=0.10609060270728037 -0.1303884520446548 -0.81512555820405463 -0.68561503208378516 -2.9479128968840844 -0.38837185051484752 -1.1688416806673418
decision_type=2 2 2 2 2 2 2
left_child=3 6 -3 5 -5 -1 -2
right_child=1 2 -4 4 -6 -7 -8
leaf_value=-0.0053151080472059967 -0.0078426705846916852 0.002900104449845912 -0.00042249906133405617 0.010967412542728551 0.00070469169277407424 -0.0006676093118075958 -0.0015900785709497673
leaf_weight=2137.5925873219967 920.49854639172554 5974.1622741669416 35690.842684283853 619.52751962840557 110302.17536371946 8491.8536129295826 45057.982201516628
leaf_count=8556 3691 23899 142825 2488 441553 33998 180304
internal_value=-4.3642e-05 -0.000874255 5.38223e-05 0.000555232 0.000762051 -0.00160261 -0.00171535
internal_weight=209195 87643.5 41665 121551 110922 10629.4 45978.5
internal_count=837314 350719 166724 486595 444041 42554 183995
is_linear=0
shrinkage=0.0610847


Tree=39
num_leaves=8
num_cat=0
split_feature=6 2 2 6 7 4 4
split_gain=15.8166 11.3789 11.0924 9.0678 8.30692 8.11347 7.98537
threshold=0.15023751668528285 0.1117726122384862 -1.0266663975458761 -0.34166014984739412 -2.9865125886686141 -0.82230637227738679 -0.98213280528963098
decision_type=2 2 2 2 2 2 2
left_child=1 3 6 -1 -3 -4 -2
right_child=2 4 5 -5 -6 -7 -8
leaf_value=0.00086972835790822308 0.012401662957017964 -0.01149843253774341 -0.0031910158575093692 -0.00045737190230535276 0.0010647474340291429 -0.00081709226904310372 0.0017582378211422
leaf_weight=26346.209593057632 294.65513114631176 197.0333227366209 6012.1494003087282 70934.184458300471 52357.06667457521 50584.484276160598 2465.2690252363682
leaf_count=105441 1179 789 24069 283902 209584 202486 9864
internal_value=-4.09776e-05 0.00029331 -0.000884889 -9.7916e-05 0.00101756 -0.00106934 0.00289614
internal_weight=209191 149834 59356.6 97280.4 52554.1 56596.6 2759.92
internal_count=837314 599716 237598 389343 210373 226555 11043
is_linear=0
shrinkage=0.0610847


Tree=40
num_leaves=8
num_cat=0
split_feature=0 7 4 6 7 0 6
split_gain=25.8985 20.9785 12.9402 12.2915 12.7669 11.0744 8.98465
threshold=0.37628298344368466 1.1864641332922485 -0.58291358182022901 0.17677923788593713 0.48003012785233151 -0.68031274941703257 -0.31519149020613574
decision_type=2 2 2 2 2 2 2
left_child=3 2 -2 5 -5 -1 -3
right_child=1 6 -4 4 -6 -7 -8
leaf_value=0.0024284085214058082 -0.0041589570607219236 -0.0034230381750051811 -0.0013030923958390092 0.00016012421930321308 -0.0020211354867357392 0.00042978050869465687 0.0039872649510231447
leaf_weight=11405.81001996994 7398.5703881084919 740.62807512283325 29671.222392678261 30196.684883967042 14976.815865933895 111338.87798698246 3461.9146732538939
leaf_count=45710 29622 2963 118760 120868 59934 445603 13854
internal_value=-3.84732e-05 -0.00140943 -0.00187319 0.000298468 -0.000562964 0.000615532 0.00268037
internal_weight=209191 41272.3 37069.8 167918 45173.5 122745 4202.54
internal_count=837314 165199 148382 672115 180802 491313 16817
is_linear=0
shrinkage=0.0610847


Tree=41
num_leaves=8
num_cat=0
split_feature=0 3 4 6 3 3 0
split_gain=22.8323 13.7305 12.9852 11.4779 24.3995 8.85475 5.3747
threshold=0.37628298344368466 -1.1688416806673418 -0.45317873108234502 -0.42971432203902532 0.075096751031304476 -1.7156814365588657 0.88835253735970243
decision_type=2 2 2 2 2 2 2
left_child=3 6 -3 4 -1 -5 -2
right_child=1 2 -4 5 -6 -7 -8
leaf_value=0.0038734322168405659 -0.0050205225019934758 -0.0028941062484585697 -0.00045369533757373117 -0.0081551806625744325 -0.00021414734923240166 0.00011097237786846867 -0.014162027180688767
leaf_weight=9695.8916516602039 702.71566420793533 11330.349350139499 28871.520462274551 485.10765855014324 12436.173729106784 145299.22958952188 366.24331660568714
leaf_count=38813 2819 45359 115551 1943 49776 581583 1470
internal_value=-3.61229e-05 -0.00132339 -0.00114159 0.000280242 0.00157642 8.3437e-05 -0.00815664
internal_weight=209187 41270.8 40201.9 167916 22132.1 145784 1068.96
internal_count=837314 165199 160910 672115 88589 583526 4289
is_linear=0
shrinkage=0.0610847


Tree=42
num_leaves=8
num_cat=0
split_feature=0 7 7 4 2 2 0
split_gain=21.5542 25.7202 18.8598 18.5671 10.27 7.4041 5.84282
threshold=-0.17713405959834308 0.60106138953941846 -2.0290079130884391 -0.66552717836147424 -0.099408310296314514 -1.3000089740743583 0.098679347343449422
decision_type=2 2 2 2 2 2 2
left_child=1 3 6 -1 -4 -3 -2
right_child=2 5 4 -5 -6 -7 -8
leaf_value=0.0046354800062580904 -0.0019383889222332991 -0.0063959098550563339 0.00031253175259174322 0.0012348947644715161 -0.00072045602996976871 -0.00068849407586534384 -0.0068892165955139655
leaf_weight=7193.4086465984583 1586.1586948186159 894.46136386692524 65208.775146365166 35885.787112951279 79924.937626838684 16446.280367344618 2033.0222846716642
leaf_count=28824 6346 3580 260910 143750 319862 65854 8142
internal_value=3.02175e-05 0.00100318 -0.00036495 0.00180282 -0.000256306 -0.000983132 -0.00472058
internal_weight=209173 60419.9 148753 43079.2 145134 17340.7 3619.18
internal_count=837268 242008 595260 172574 580772 69434 14488
is_linear=0
shrinkage=0.0610847


Tree=43
num_leaves=8
num_cat=0
split_feature=5 4 7 1 7 1 7
split_gain=16.4866 9.40028 8.48927 8.54871 7.53104 4.83969 3.52894
threshold=0.22777175134970259 0.46102715962563373 -2.0290079130884391 -0.84487575376724122 1.1033414700002122 1.0985459629368066 -1.5360741788118737
decision_type=2 2 2 2 2 2 2
left_child=1 5 3 -2 -4 -1 -3
right_child=2 6 4 -5 -6 -7 -8
leaf_value=0.0012544774372813994 0.004911406632233435 -0.0050522838431803028 -5.0962354479337781e-05 -0.0042402039779431064 -0.0013465284006049134 0.0045646365009822578 -0.00037551679406260912
leaf_weight=39327.798715621233 430.69739697873592 642.03662782907486 134951.83819873631 3267.6433587521315 19114.05792927742 1721.2494984567165 9714.3048326969147
leaf_count=157435 1724 2570 540197 13083 76489 6891 38879
internal_value=2.83695e-05 0.000978441 -0.000281174 -0.00317333 -0.000211722 0.00139338 -0.000665849
internal_weight=209170 51405.4 157764 3698.34 154066 41049 10356.3
internal_count=837268 205775 631493 14807 616686 164326 41449
is_linear=0
shrinkage=0.0610847


Tree=44
num_leaves=8
num_cat=0
split_feature=0 5 4 5 1 4 1
split_gain=19.0222 34.9323 18.9254 15.3021 9.68477 7.92275 5.52794
threshold=-0.17713405959834308 0.22777175134970259 -0.37486920907395771 0.96115246654752184 -0.20304428098806585 -0.18444774459732025 -1.340541459005405
decision_type=2 2 2 2 2 2 2
left_child=2 4 6 -4 -2 -3 -1
right_child=1 5 3 -5 -6 -7 -8
leaf_value=0.0078802159418456183 0.00030869498616667716 -0.0013903789547634201 -0.00016556590971167161 0.0049074347294997015 0.0022936664573230733 -0.00036294515787883283 0.0022259460937202021
leaf_weight=666.53039111196995 18540.656459107995 56423.006782069802 36695.083669319749 2361.3150949031115 18159.994331821799 55628.170922040939 20694.267499119043
leaf_count=2671 74190 225796 146968 9456 72673 222601 82913
internal_value=2.66333e-05 -0.000344594 0.000940688 0.000141047 0.001291 -0.000880342 0.00240258
internal_weight=209169 148752 60417.2 39056.4 36700.7 112051 21360.8
internal_count=837268 595260 242008 156424 146863 448397 85584
is_linear=0
shrinkage=0.0610847


Tree=45
num_leaves=8
num_cat=0
split_feature=0 7 7 4 4 4 0
split_gain=16.7699 22.3454 15.5566 15.2453 9.3708 6.92707 5.80941
threshold=-0.17713405959834308 0.60106138953941846 -2.1333967141858348 -0.66552717836147424 -0.93441581288565134 1.6621165957326036 0.075765584329514288
decision_type=2 2 2 2 2 2 2
left_child=1 3 6 -1 -4 -3 -2
right_child=2 5 4 -5 -6 -7 -8
leaf_value=0.0041959174805569948 -0.0014682376405157516 -0.00070397778515867945 -0.0020575561845802641 0.0011140740599789212 -0.0001021172099749064 -0.0066175680704233198 -0.0069198673857516066
leaf_weight=7191.238417968154 1245.2597761154175 16566.890874743462 9804.3723427951336 35883.056968018413 135933.81133137643 773.82987794280052 1767.786255389452
leaf_count=28824 4982 66338 39237 143750 543959 3096 7082
internal_value=2.50091e-05 0.000883267 -0.000323544 0.00162868 -0.000233695 -0.000968113 -0.00466812
internal_weight=209166 60415 148751 43074.3 145738 17340.7 3013.05
internal_count=837268 242008 595260 172574 583196 69434 12064
is_linear=0
shrinkage=0.0610847


Tree=46
num_leaves=8
num_cat=0
split_feature=0 2 6 0 4 2 6
split_gain=14.7843 15.675 19.276 17.2107 8.63454 10.5048 7.67778
threshold=-0.17713405959834308 0.69293569019641466 0.17677923788593713 -0.34638015878712919 -0.93441581288565134 0.64456435107583043 0.85309413094318021
decision_type=2 2 2 2 2 2 2
left_child=1 2 -1 -3 6 -6 -2
right_child=4 3 -4 -5 5 -7 -8
leaf_value=0.0010393634897337932 -0.0025098890879677294 0.0051464285551356308 -0.0018202929957037604 -0.00020968164133590124 7.0851100888773698e-05 -0.0013176443855526052 0.0036534042389540851
leaf_weight=39614.533926233649 9414.2655834108591 5881.4005931168795 11304.784273952246 3611.8736321926117 113762.82878531516 24754.276715666056 819.33010970056057
leaf_count=158701 37678 23575 45272 14460 455207 99096 3279
internal_value=2.34766e-05 0.000829346 0.000404403 0.0031082 -0.000303787 -0.000177258 -0.00201604
internal_weight=209163 60412.6 50919.3 9493.27 148751 138517 10233.6
internal_count=837268 242008 203973 38035 595260 554303 40957
is_linear=0
shrinkage=0.0610847


Tree=47
num_leaves=8
num_cat=0
split_feature=3 0 4 3 4 4 4
split_gain=15.5483 12.4756 15.0522 11.0726 6.41723 9.79224 3.55423
threshold=-1.4759272545895639 -0.17713405959834308 -0.37486920907395771 -0.31985269646912645 -0.080533295302404051 -0.25320966542677997 0.46102715962563373
decision_type=2 2 2 2 2 2 2
left_child=4 2 -2 -3 5 -1 -6
right_child=1 3 -4 -5 6 -7 -8
leaf_value=-0.005074454156435944 0.0021233324114549412 0.00057558484939280443 9.6913576657430112e-05 -0.0005789867861866546 -0.015195336786318722 0.013079791343480054 -0.0064981558652077078
leaf_weight=784.6520859003067 21144.483269795775 44261.870615392923 38742.937512502074 103376.84083524346 308.22135454416275 128.98504287004471 412.59519936144352
leaf_count=3147 84736 177131 155179 413669 1235 517 1654
internal_value=2.2043e-05 6.88016e-05 0.000812449 -0.000232821 -0.00591235 -0.00250673 -0.0102232
internal_weight=209161 207526 59887.4 147639 1634.45 913.637 720.817
internal_count=837268 830715 239915 590800 6553 3664 2889
is_linear=0
shrinkage=0.0610847


Tree=48
num_leaves=8
num_cat=0
split_feature=3 0 1 3 0 1 1
split_gain=14.5213 12.4818 10.6124 10.5545 6.90461 3.85224 2.35747
threshold=-1.1075330384367206 1.556475141066346 0.31133880030482824 -0.31241188036361395 0.96629366997873556 1.1840529159473314 -0.28809747329771801
decision_type=2 2 2 2 2 2 2
left_child=4 3 -3 -2 5 -1 -6
right_child=1 2 -4 -5 6 -7 -8
leaf_value=-0.0028578241934421756 0.00087767869052500481 -0.0072836269802704834 0.0018278375324728775 -8.3511855403291285e-05 -0.018700067379474428 0.0071858912152166074 -0.0079808535601283599
leaf_weight=4485.834077745676 61134.180060744286 1512.077416241169 695.86380575597286 140787.07467781007 111.62517866492271 146.91865426301956 251.91031293570995
leaf_count=17966 244732 6051 2787 563551 448 589 1012
internal_value=7.78604e-05 0.000157514 -0.00441026 0.000207481 -0.00317566 -0.0025384 -0.0112847
internal_weight=209125 204129 2207.94 201921 4996.29 4632.75 363.535
internal_count=837136 817121 8838 808283 20015 18555 1460
is_linear=0
shrinkage=0.0610847


Tree=49
num_leaves=8
num_cat=0
split_feature=0 1 1 7 7 7 1
split_gain=11.8529 10.0137 8.58127 8.31999 7.32682 5.34001 2.15358
threshold=1.556475141066346 0.31133880030482824 -3.3247697637104054 -2.0290079130884391 0.036249225373531806 -0.65997052396018785 0.77270611127775346
decision_type=2 2 2 2 2 2 2
left_child=2 4 5 -4 -2 -1 -3
right_child=1 6 3 -5 -6 -7 -8
leaf_value=0.0030019785898860998 -0.011397600806770453 -0.0014270658751729833 -0.0023483319418884877 0.00020716373096034296 -0.0031213775050606117 -0.0088573479595907053 0.0051905124982837888
leaf_weight=182.69711199402809 742.93150173127651 393.00604550540447 4868.626106262207 201104.09051638842 866.26694090664387 623.84919062256813 343.10506895184517
leaf_count=731 2975 1574 19495 805023 3467 2496 1375
internal_value=7.31002e-05 -0.00424495 0.000122096 0.000146739 -0.00694496 -0.00616611 0.00165219
internal_weight=209125 2345.31 206779 205973 1609.2 806.546 736.111
internal_count=837136 9391 827745 824518 6442 3227 2949
is_linear=0
shrinkage=0.0610847


Tree=50
num_leaves=8
num_cat=0
split_feature=6 0 2 0 5 5 5
split_gain=11.8341 17.2066 8.81331 9.00115 8.38065 8.16465 5.9583
threshold=0.17677923788593713 1.556475141066346 -0.34106682407726879 1.0140559874521451 0.54545453305785052 0.256637167195291 0.52801868824305609
decision_type=2 2 2 2 2 2 2
left_child=1 4 5 -4 -1 -2 -3
right_child=2 6 3 -5 -6 -7 -8
leaf_value=0.00081291227531208807 0.0044823589961636217 -0.0025843883320678341 -0.0011970900248220704 0.0037917070745155075 -0.00010085723613906371 7.0662157357956034e-05 -0.0098122916791452564
leaf_weight=85570.482801035047 1992.1249048113823 991.08619782328606 44528.893678978086 1391.2803767621517 66587.918434977531 7313.6472837328911 748.45137652754784
leaf_count=342552 7973 3968 178266 5575 266536 29269 2997
internal_value=6.8631e-05 0.000343915 -0.00069843 -0.00104585 0.000413001 0.00101553 -0.00569667
internal_weight=209124 153898 55225.9 45920.2 152158 9305.77 1739.54
internal_count=837136 616053 221083 183841 609088 37242 6965
is_linear=0
shrinkage=0.0610847


Tree=51
num_leaves=8
num_cat=0
split_feature=3 6 0 0 6 6 0
split_gain=12.6571 11.7553 16.0067 13.0167 9.32645 24.9576 5.438
threshold=-1.1075330384367206 0.52440726270716687 -1.5507390274487372 1.556475141066346 0.59068129516274415 0.38965858244048179 0.17714272668023495
decision_type=2 2 2 2 2 2 2
left_child=4 3 -3 -2 5 -1 -6
right_child=1 2 -4 -5 6 -7 -8
leaf_value=-0.0024267453970073828 0.00035434569872958222 0.012444002421705002 -0.001393579506854937 -0.0046073048874579669 0.00087374197554119127 -0.019865496429031067 0.017500833759185024
leaf_weight=4355.0988470762968 180119.97179764509 316.38242520391941 21695.92623488605 1994.6511529386044 192.02754601836205 329.4541629999876 119.3121594786644
leaf_count=17445 721013 1269 86853 7986 769 1321 480
internal_value=6.44376e-05 0.000138802 -0.00119449 0.00029998 -0.00297319 -0.00365417 0.00725963
internal_weight=209123 204127 22012.3 182115 4995.89 4684.55 311.34
internal_count=837136 817121 88122 728999 20015 18766 1249
is_linear=0
shrinkage=0.0610847


Tree=52
num_leaves=8
num_cat=0
split_feature=3 2 2 2 0 3 3
split_gain=11.1582 8.39509 22.2055 7.71173 7.52572 9.10196 4.388
threshold=-1.1075330384367206 0.57571250296670595 0.65699640628842282 -0.31014461433379331 1.556475141066346 -0.31241188036361395 -0.24777749293498103
decision_type=2 2 2 2 2 2 2
left_child=1 3 -3 -1 5 -2 -6
right_child=4 2 -4 -5 6 -7 -8
leaf_value=-0.00011756301785127786 0.00079150190723413342 0.023501883072352139 -0.0018450245293858279 -0.0057913205488493939 -0.006248225422955684 -0.00010110909251456832 -0.00079236250036425482
leaf_weight=1320.1640602499247 61133.034287154675 156.00563189387321 742.11140443384647 2777.4585697501898 1061.0772866010666 140785.61218778789 1145.9958989024162
leaf_count=5287 244732 625 2976 11127 4249 563551 4589
internal_value=6.05001e-05 -0.00279165 0.00255426 -0.00396434 0.000130323 0.000169119 -0.00341718
internal_weight=209121 4995.74 898.117 4097.62 204126 201919 2207.07
internal_count=837136 20015 3601 16414 817121 808283 8838
is_linear=0
shrinkage=0.0610847


Tree=53
num_leaves=8
num_cat=0
split_feature=6 0 2 2 0 4 2
split_gain=9.57355 12.839 8.78526 7.76429 8.38441 7.29738 5.59545
threshold=0.17677923788593713 1.363814054546421 -0.38837185051484752 -0.34106682407726879 1.0140559874521451 0.8240280713747351 0.43029767013410086
decision_type=2 2 2 2 2 2 2
left_child=1 2 -1 5 -5 -2 -3
right_child=3 6 -4 4 -6 -7 -8
leaf_value=-0.00027826543366264007 0.001538416958427876 -0.0055109062633293144 0.00070539442452751051 -0.0011051874840174022 0.0037095755904918925 -0.0042254232932650597 0.0025968690742348452
leaf_weight=51113.416115537286 8397.6902986764908 1953.6348094344139 100449.54054810107 44528.527284428477 1391.3399726748466 907.93380863964558 378.5296117067337
leaf_count=204571 33609 7823 402142 178266 5575 3633 1517
internal_value=5.67986e-05 0.000304403 0.000373637 -0.00063312 -0.000959215 0.000975611 -0.00419324
internal_weight=209121 153895 151563 55225.5 45919.9 9305.62 2332.16
internal_count=837136 616053 606713 221083 183841 37242 9340
is_linear=0
shrinkage=0.0610847


Tree=54
num_leaves=8
num_cat=0
split_feature=0 0 2 2 3 2 4
split_gain=11.6624 10.3201 18.6545 17.3677 10.0848 6.33196 1.65076
threshold=-2.9479128968840844 0.37628298344368466 -0.78453876178801274 -0.48403988983317031 -0.56641532109194681 -0.11966087995240675 -0.073789910992474408
decision_type=2 2 2 2 2 2 2
left_child=4 3 -3 -2 6 -6 -1
right_child=1 2 -4 -5 5 -7 -8
leaf_value=0.0026284223791877546 -0.0009583781343258977 0.0023628596523778177 -0.0014551322601826678 0.00048680503469461837 0.018737928407290175 0.0057750794088295846 -0.0073582002177691209
leaf_weight=109.04862622916698 41197.026656478643 5506.8671561032534 35901.642452284694 125700.448509112 260.34083816409111 308.38093422353268 141.08517615497112
leaf_count=438 164880 22033 143739 503215 1047 1240 566
internal_value=-5.54699e-05 -8.409e-05 -0.000947285 0.000130052 0.00721994 0.0117168 -0.00298896
internal_weight=209125 208306 41408.5 166897 818.856 568.722 250.134
internal_count=837158 833867 165772 668095 3291 2287 1004
is_linear=0
shrinkage=0.0610847


Tree=55
num_leaves=8
num_cat=0
split_feature=1 2 7 1 7 7 2
split_gain=9.21476 8.52065 7.93449 6.41066 5.88337 5.24546 4.9826
threshold=-1.0272360908521212 -2.2217372282233421 -2.0290079130884391 -0.84487575376724122 -1.1602671718413309 0.67447944695984696 -0.046378131293346385
decision_type=2 2 2 2 2 2 2
left_child=1 5 3 -2 -4 -1 -3
right_child=2 6 4 -5 -6 -7 -8
leaf_value=-0.0061515618479779559 0.0085593200392698778 0.0010235248330036184 0.00098281676659435491 -0.0031988135720300518 -0.00022979480840895121 0.0021603302062318066 0.0034960396157550275
leaf_weight=905.44879046082497 180.07187679409981 14817.987153753638 16382.037648394704 4296.6203917711973 168299.45890827477 411.41631577908993 3829.6228714734316
leaf_count=3623 721 59310 65588 17207 673730 1646 15333
internal_value=-5.20774e-05 0.00119602 -0.000183827 -0.0027249 -0.000122209 -0.00355178 0.00153152
internal_weight=209123 19964.5 189158 4476.69 184681 1316.87 18647.6
internal_count=837158 79912 757246 17928 739318 5269 74643
is_linear=0
shrinkage=0.0610847


Tree=56
num_leaves=8
num_cat=0
split_feature=6 0 2 7 6 2 6
split_gain=12.8572 12.9775 10.9167 8.32159 8.04233 7.0371 5.10796
threshold=-0.48193711853563087 -2.9479128968840844 -0.6623464791781849 1.0561600476491748 -1.3433030021890828 -2.2217372282233421 -0.088266310341004114
decision_type=2 2 2 2 2 2 2
left_child=3 6 -3 5 -5 -1 -2
right_child=1 2 -4 4 -6 -7 -8
leaf_value=-0.0027570967267530537 0.016902086691557371 -0.0014026469644369476 -6.1084610144637898e-05 0.0038712211514064514 -0.003071924687948729 0.0020357244922822567 0.0049871738181713849
leaf_weight=1214.3905806392431 179.7028314769268 26418.576752752066 157982.1101308316 808.88866028189659 2696.4267775714397 19284.485491469502 537.7188208848238
leaf_count=4859 723 105723 632462 3237 10792 77200 2162
internal_value=-4.88927e-05 -0.000221385 -0.000253308 0.00128119 -0.00146857 0.00175159 0.00797791
internal_weight=209122 185118 184401 24004.2 3505.32 20498.9 717.422
internal_count=837158 741070 738185 96088 14029 82059 2885
is_linear=0
shrinkage=0.0610847


Tree=57
num_leaves=8
num_cat=0
split_feature=0 7 2 2 0 0 4
split_gain=9.65575 22.1599 17.2991 14.1235 13.1095 9.57134 7.09981
threshold=0.37628298344368466 1.1864641332922485 -1.0760792235589514 -0.48403988983317031 -1.0514257245465266 -0.3094807657069108 -1.0000115697291048
decision_type=2 2 2 2 2 2 2
left_child=3 2 -2 4 -1 -5 -3
right_child=1 6 -4 5 -6 -7 -8
leaf_value=0.004612077257258579 0.0033622499796213969 -0.0082101385121409048 -0.0017246091424780172 0.0013830190376562198 -0.0010369374185404826 0.00016763984747414961 0.0038641669550646229
leaf_weight=1594.0503079295158 2688.3861667066813 190.08128596842289 34507.38413760066 32583.512434512377 39779.967989876866 93757.173363983631 4021.1346826702356
leaf_count=6391 10756 761 138163 130605 159199 375191 16092
internal_value=-4.59038e-05 -0.000881279 -0.00135684 0.000160318 -0.000819194 0.00048112 0.00331816
internal_weight=209122 41407 37195.8 167715 41374 126341 4211.22
internal_count=837158 165772 148919 671386 165590 505796 16853
is_linear=0
shrinkage=0.0610847


Tree=58
num_leaves=8
num_cat=0
split_feature=3 0 4 7 0 7 3
split_gain=9.12398 10.9421 6.84551 6.76616 5.92274 5.24329 3.91705
threshold=-1.1075330384367206 -2.9479128968840844 -0.11768115994511287 -2.0290079130884391 1.0000000180025095e-35 1.5482878261508024 -1.7156814365588657
decision_type=2 2 2 2 2 2 2
left_child=4 2 -2 -3 5 -1 -6
right_child=1 3 -4 -5 6 -7 -8
leaf_value=-0.001207386981959925 0.015634979636698198 -0.0023237312280127496 0.0032070732679187427 4.6618455235860273e-05 -0.010745671958973951 0.012227596688062359 -0.0037909519057671985
leaf_weight=2516.9602619409561 251.27510921657085 4597.3392230421305 486.96269366145134 198790.57329519093 356.87303091585636 113.2001840621233 2005.2783824503422
leaf_count=10075 1013 18408 1959 795774 1439 453 8037
internal_value=-4.30969e-05 1.99843e-05 0.00744311 -6.94154e-06 -0.00262313 -0.000627487 -0.00484349
internal_weight=209118 204126 738.238 203388 4992.31 2630.16 2362.15
internal_count=837158 817154 2972 814182 20004 10528 9476
is_linear=0
shrinkage=0.0610847


Tree=59
num_leaves=8
num_cat=0
split_feature=3 3 1 4 3 2 2
split_gain=8.12045 11.7834 16.8998 6.81957 4.94809 7.00747 3.82527
threshold=-0.68561503208378516 -0.31616294320809529 -0.79374185323478252 -0.64324807964221276 -1.7156814365588657 0.59734583756449267 -0.38837185051484752
decision_type=2 2 2 2 2 2 2
left_child=4 2 -2 -3 5 -1 -6
right_child=1 3 -4 -5 6 -7 -8
leaf_value=-0.0091147657547532186 0.0047088738174329414 0.00065634958147935791 0.00056493775596616472 -0.00040477308257875285 -0.0027979575942877065 0.0039750975145408443 -0.00059001316857479867
leaf_weight=617.91666443645954 4014.8768929541111 28137.575181290507 43069.389393821359 114774.52172358334 3662.4647592306137 202.14005213975906 14638.33704970777
leaf_count=2482 16073 112655 172430 459429 14660 813 58616
internal_value=-4.04631e-05 8.02735e-05 0.000918378 -0.000195824 -0.00124038 -0.00588334 -0.0010321
internal_weight=209117 189996 47084.3 142912 19120.9 820.057 18300.8
internal_count=837158 760587 188503 572084 76571 3295 73276
is_linear=0
shrinkage=0.0610847


Tree=60
num_leaves=8
num_cat=0
split_feature=3 0 5 2 2 2 0
split_gain=18.5117 11.7843 17.1463 9.86305 8.49388 7.19511 6.94432
threshold=-1.4759272545895639 0.26025505817183142 0.072847681636769884 4.1919371690270877 -0.34106682407726879 -0.71309520773696444 -0.14344140051061333
decision_type=2 2 2 2 2 2 2
left_child=4 3 -3 -2 5 -1 -6
right_child=1 2 -4 -5 6 -7 -8
leaf_value=-0.010763115903011017 0.00025287072331596413 0.0025227619470024202 -0.0010741042918987699 0.0069576344830702911 -0.0028262942676739113 0.0061086435557114321 -0.012571687833827986
leaf_weight=137.72463347017765 148585.67536632717 5458.0355318188667 52581.343439012766 823.21781818568707 420.96570983529091 298.79307945072651 781.60407248139381
leaf_count=552 594844 21840 210484 3294 1685 1198 3143
internal_value=-4.81971e-05 2.87477e-06 -0.000735785 0.000289841 -0.00651426 0.000775978 -0.00916374
internal_weight=209087 207448 58039.4 149409 1639.09 436.518 1202.57
internal_count=837040 830462 232324 598138 6578 1750 4828
is_linear=0
shrinkage=0.0610847


Tree=61
num_leaves=8
num_cat=0
split_feature=6 7 1 4 7 6 1
split_gain=8.75811 6.20288 7.1041 6.12721 6.38896 6.30559 4.18779
threshold=-0.45486465498646494 0.73896294086207781 -0.36671871358830505 1.852584668879141 0.883881241706859 0.23660371903374119 -0.60102547034965637
decision_type=2 2 2 2 2 2 2
left_child=1 2 -1 5 -5 -2 -3
right_child=3 6 -4 4 -6 -7 -8
leaf_value=0.0013869436438232149 8.2055727561884816e-05 -0.00024471562944869407 0.0097129048018332626 -0.0011880231398108656 -0.0064591048810858538 -0.00075419403021919165 -0.0067062177063710177
leaf_weight=18916.977760359645 132816.92058177292 5838.0779845416546 390.42398621141911 4610.8009502589703 1055.0842501223087 45056.421813070774 400.00829224288464
leaf_count=75734 531711 23366 1563 18457 4222 180386 1601
internal_value=-4.52539e-05 0.00101442 0.00155553 -0.000192764 -0.00217032 -0.00012975 -0.00065972
internal_weight=209085 25545.5 19307.4 183539 5665.89 177873 6238.09
internal_count=837040 102264 77297 734776 22679 712097 24967
is_linear=0
shrinkage=0.0610847


Tree=62
num_leaves=8
num_cat=0
split_feature=3 0 5 3 2 2 2
split_gain=16.3187 10.4946 21.7197 8.97578 7.47114 6.35003 6.3485
threshold=-1.4759272545895639 0.3302764039827733 0.072847681636769884 0.075096751031304476 -0.34106682407726879 -0.19517412660689348 -0.71309520773696444
decision_type=2 2 2 2 2 2 2
left_child=4 3 -3 -2 6 -6 -1
right_child=1 2 -4 -5 5 -7 -8
leaf_value=-0.010119719063294529 0.00055311629655609726 0.0032378224160316384 -0.0012212018377180634 -0.00042878618366776216 -0.019435059495870724 -0.0067729120628903057 0.005729779770656287
leaf_weight=137.67487800121307 109359.03129519522 4506.0297137051821 42676.265013679862 50904.276400893927 173.13321663439274 1028.7980213910341 298.84809716045856
leaf_count=552 437825 18031 170854 203752 695 4133 1198
internal_value=-4.24908e-05 5.45083e-06 -0.000795268 0.000241211 -0.00611466 -0.00860069 0.000721541
internal_weight=209084 207446 47182.3 160263 1638.45 1201.93 436.523
internal_count=837040 830462 188885 641577 6578 4828 1750
is_linear=0
shrinkage=0.0610847


Tree=63
num_leaves=8
num_cat=0
split_feature=0 7 2 7 2 2 0
split_gain=10.209 22.9397 11.7773 10.9311 10.1096 6.53179 4.20304
threshold=0.3302764039827733 1.039415776796849 -0.68661403939282672 0.883881241706859 4.1919371690270877 0.39636459705318666 -1.0000000180025095e-35
decision_type=2 2 2 2 2 2 2
left_child=3 2 -2 4 -1 -3 -5
right_child=1 5 -4 6 -6 -7 -8
leaf_value=0.00039105195132331288 0.001024214468488719 0.0036623536881120284 -0.0018063494272223277 -0.0014912591047735642 0.0076409901504929543 -0.00080510662796161368 -2.1355670044851849e-05
leaf_weight=130982.44712255895 6514.5608426481485 4879.8710126727819 34645.391441375017 17075.587290748954 721.65754559636116 1626.9515469968319 12634.962379232049
leaf_count=524399 26067 19526 138738 68356 2888 6515 50551
internal_value=-3.98983e-05 -0.000825384 -0.00135825 0.000192036 0.000430809 0.00254472 -0.000866289
internal_weight=209081 47666.8 41160 161415 131704 6506.82 29710.5
internal_count=837040 190846 164805 646194 527287 26041 118907
is_linear=0
shrinkage=0.0610847


Tree=64
num_leaves=8
num_cat=0
split_feature=0 7 5 7 6 0 6
split_gain=9.00007 20.2227 15.9619 9.63837 7.66933 5.02448 3.10655
threshold=0.3302764039827733 1.039415776796849 0.072847681636769884 1.0881479970408301 -0.44187314858142751 0.31982332366546901 -0.51172473571940447
decision_type=2 2 2 2 2 2 2
left_child=3 2 -2 4 -1 -5 -3
right_child=1 6 -4 5 -6 -7 -8
leaf_value=0.0015413963165002785 0.0023982716816354629 -0.0013820080739014506 -0.0016692633557602156 -0.00096946678235732551 0.00018776315406895724 -0.01085049108344056 0.0028612921727389114
leaf_weight=17886.514217436314 3985.0808575451374 723.05887192487717 37173.067343145609 20108.940130442381 123224.7934858501 193.92268960177898 5783.9475425332785
leaf_count=71618 15950 2893 148855 80477 493323 776 23148
internal_value=-3.74606e-05 -0.000774989 -0.00127533 0.000180305 0.000359371 -0.00106406 0.00238917
internal_weight=209079 47665.2 41158.1 161414 141111 20302.9 6507.01
internal_count=837040 190846 164805 646194 564941 81253 26041
is_linear=0
shrinkage=0.0610847


Tree=65
num_leaves=8
num_cat=0
split_feature=6 1 2 2 2 6 1
split_gain=7.12433 12.5706 9.44105 7.56959 6.96803 6.47427 6.30732
threshold=0.14079217093632812 0.27219619835194248 -0.4048261991507478 -0.95890210773190032 0.4848941951421582 -0.16648889435206643 0.88468179310170425
decision_type=2 2 2 2 2 2 2
left_child=4 3 -3 -2 5 -1 -6
right_child=1 2 -4 -5 6 -7 -8
leaf_value=0.00054707819210337866 0.0037023345316005976 0.0017157821137744399 -0.00060274495724638676 -0.0036272266924090011 0.001269029172556292 -0.0003590388513161673 -0.0048642886331497198
leaf_weight=48992.853870898485 572.06492894887924 7631.1426402926445 46376.149798989296 6423.2045340538025 24780.353182733059 73659.687045767903 641.55225104093552
leaf_count=196126 2289 30541 185688 25716 99230 294881 2569
internal_value=-3.51721e-05 -0.00059073 -0.000275067 -0.00302724 0.000193676 2.87238e-06 0.00111409
internal_weight=209077 61002.6 54007.3 6995.27 148074 122653 25421.9
internal_count=837040 244234 216229 28005 592806 491007 101799
is_linear=0
shrinkage=0.0610847


Tree=66
num_leaves=8
num_cat=0
split_feature=5 0 2 0 1 2 0
split_gain=13.7856 35.1158 25.4927 11.2964 24.3972 7.80868 6.32284
threshold=0.54545453305785052 -0.34638015878712919 -0.7002427662464582 -0.49556086869343347 -0.48305211787444141 0.80414484524806429 2.6704422211863448
decision_type=2 2 2 2 2 2 2
left_child=3 2 -2 4 -1 -5 -3
right_child=1 6 -4 5 -6 -7 -8
leaf_value=0.0027971821992307791 -0.0042235517152382062 -0.0010279119963486432 0.002766943624735411 0.00090588062530715476 -0.0028695617771167955 -0.00080908464640052464 -0.0093952778123709019
leaf_weight=4043.0772666186094 2217.1948890537024 79973.904034540057 15923.770866915584 86071.383561506867 9483.2294922918081 11192.87199293077 338.4842734336853
leaf_count=16212 8882 320072 63830 344514 38020 44822 1357
internal_value=1.10307e-05 -0.000514913 0.00191234 0.000478443 -0.00117545 0.000708487 -0.00106323
internal_weight=209244 98453.4 18141 110791 13526.3 97264.3 80312.4
internal_count=837709 394141 72712 443568 54232 389336 321429
is_linear=0
shrinkage=0.0610847


end of trees

feature_importances:
gap_sigma=111
lag_20_day_log_ret_z=85
rel_vol_z=59
hurst_z=55
lag_20d_volatility_z=49
interaction_z=42
lag_5_day_log_ret_z=35
prev_close_loc=31

parameters:
[boosting: gbdt]
[objective: binary]
[metric: binary_logloss]
[tree_learner: serial]
[device_type: cpu]
[data_sample_strategy: bagging]
[data: ]
[valid: ]
[num_iterations: 100]
[learning_rate: 0.0610847]
[num_leaves: 42]
[num_threads: 0]
[seed: 42]
[deterministic: 0]
[force_col_wise: 0]
[force_row_wise: 0]
[histogram_pool_size: -1]
[max_depth: 3]
[min_data_in_leaf: 436]
[min_sum_hessian_in_leaf: 0.001]
[bagging_fraction: 0.721868]
[pos_bagging_fraction: 1]
[neg_bagging_fraction: 1]
[bagging_freq: 6]
[bagging_seed: 400]
[bagging_by_query: 0]
[feature_fraction: 0.514341]
[feature_fraction_bynode: 1]
[feature_fraction_seed: 30056]
[extra_trees: 0]
[extra_seed: 12879]
[early_stopping_round: 0]
[early_stopping_min_delta: 0]
[first_metric_only: 0]
[max_delta_step: 0]
[lambda_l1: 0.0644117]
[lambda_l2: 0.0389365]
[linear_lambda: 0]
[min_gain_to_split: 0]
[drop_rate: 0.1]
[max_drop: 50]
[skip_drop: 0.5]
[xgboost_dart_mode: 0]
[uniform_drop: 0]
[drop_seed: 17869]
[top_rate: 0.2]
[other_rate: 0.1]
[min_data_per_group: 100]
[max_cat_threshold: 32]
[cat_l2: 10]
[cat_smooth: 10]
[max_cat_to_onehot: 4]
[top_k: 20]
[monotone_constraints: ]
[monotone_constraints_method: basic]
[monotone_penalty: 0]
[feature_contri: ]
[forcedsplits_filename: ]
[refit_decay_rate: 0.9]
[cegb_tradeoff: 1]
[cegb_penalty_split: 0]
[cegb_penalty_feature_lazy: ]
[cegb_penalty_feature_coupled: ]
[path_smooth: 0]
[interaction_constraints: ]
[verbosity: 1]
[saved_feature_importance_type: 0]
[use_quantized_grad: 0]
[num_grad_quant_bins: 4]
[quant_train_renew_leaf: 0]
[stochastic_rounding: 1]
[linear_tree: 0]
[max_bin: 255]
[max_bin_by_feature: ]
[min_data_in_bin: 3]
[bin_construct_sample_cnt: 200000]
[data_random_seed: 175]
[is_enable_sparse: 1]
[enable_bundle: 1]
[use_missing: 1]
[zero_as_missing: 0]
[feature_pre_filter: 1]
[pre_partition: 0]
[two_round: 0]
[header: 0]
[label_column: ]
[weight_column: ]
[group_column: ]
[ignore_column: ]
[categorical_feature: ]
[forcedbins_filename: ]
[precise_float_parser: 0]
[parser_config_file: ]
[objective_seed: 16083]
[num_class: 1]
[is_unbalance: 0]
[scale_pos_weight: 1]
[sigmoid: 1]
[boost_from_average: 1]
[reg_sqrt: 0]
[alpha: 0.9]
[fair_c: 1]
[poisson_max_delta_step: 0.7]
[tweedie_variance_power: 1.5]
[lambdarank_truncation_level: 30]
[lambdarank_norm: 1]
[label_gain: ]
[lambdarank_position_bias_regularization: 0]
[eval_at: ]
[multi_error_top_k: 1]
[auc_mu_weights: ]
[num_machines: 1]
[local_listen_port: 12400]
[time_out: 120]
[machine_list_filename: ]
[machines: ]
[gpu_platform_id: -1]
[gpu_device_id: -1]
[gpu_use_dp: 0]
[num_gpu: 1]

end of parameters

pandas_categorical:[]
